-0.011750
0.151985
0.097836
-0.046913
-0.009865
-0.210831
-0.222559
-0.022109
0.060290
-0.095238
0.064304
-0.008291
-0.019362
-0.031653
-0.084977
-0.097946
0.159928
-0.146635
-0.088147
-0.211273
-0.108955
0.129012
-0.031793
0.118233
-0.081807
0.106164
0.001034
0.002771
-0.035773
-0.035496
0.007243
0.092435
-0.054187
0.038645
0.035154
0.090426
-0.214990
-0.125047
0.032737
-0.089610
-0.047056
-0.015000
0.040481
0.085165
0.085299
-0.002322
0.096037
-0.144407
-0.183440
0.053567
-0.103444
0.065864
-0.078202
-0.088846
-0.137786
-0.013634
-0.014497
-0.023384
0.208101
-0.115721
-0.067800
-0.104070
-0.052619
-0.077077
-0.031901
-0.023295
-0.143478
0.090646
-0.085254
-0.018764
0.021112
0.051487
-0.104324
0.094575
-0.047197
-0.006407
0.090282
0.076183
0.099676
0.095972
-0.295482
-0.060851
0.004537
-0.008295
-0.044774
0.070428
0.065117
0.103717
0.060142
-0.016244
-0.149332
-0.108685
-0.008849
-0.061706
-0.079179
-0.032218
-0.011029
0.043700
-0.134211
0.021916
-0.030091
0.101626
0.029638
-0.066282
0.092514
-0.020378
0.015014
-0.006286
-0.113682
-0.162819
0.129332
0.072023
-0.024741
0.114705
0.041160
0.060079
-0.037622
-0.110992
-0.076910
-0.018993
0.156301
0.054964
-0.015167
0.019376
0.086970
-0.078867
-0.096877
-0.110091
-0.076155
0.304420
-0.181265
-0.062222
0.069578
0.225145
0.194303
-0.033595
0.084300
-0.016180
0.046702
-0.140376
0.056349
0.066537
0.027825
0.116867
-0.047933
0.209820
-0.156265
0.080480
0.219500
-0.016731
-0.122493
-0.033330
-0.199514
-0.032756
0.172346
0.168396
-0.278987
-0.182407
0.300574
-0.017526
-0.011087
0.055163
0.078226
0.013167
-0.147256
0.170320
0.062745
-0.064487
-0.014086
0.253807
-0.014327
0.127834
-0.030362
-0.155883
0.128210
-0.269682
-0.093329
-0.114438
0.210897
0.021915
0.039088
0.018964
0.134839
-0.129373
-0.135419
0.078841
-0.293880
0.099604
0.274916
-0.127412
0.237446
-0.029083
-0.199968
-0.091721
-0.049204
-0.163070
-0.017372
0.152200
-0.160541
-0.078799
0.158126
-0.213226
-0.110039
-0.035254
0.158456
0.094824
0.079714
-0.084575
0.090620
-0.121757
-0.106140
-0.057910
-0.018973
0.129069
-0.018520
-0.104925
-0.037302
0.066476
-0.049719
0.196789
-0.035632
-0.004110
0.179147
-0.083957
0.024815
-0.101074
0.058823
-0.033119
0.042838
0.034357
0.141685
-0.106533
-0.095304
-0.156090
0.016229
0.127014
0.093290
-0.241235
-0.217789
-0.046034
0.224082
0.099964
0.070510
0.145479
-0.087039
-0.128851
-0.024185
0.078230
-0.013533
0.050109
0.080216
0.014117
-0.015177
0.066194
-0.088872
0.196715
-0.002938
0.030991
0.075625
0.168165
0.205131
-0.012379
0.155064
0.067526
0.174401
-0.090841
0.166773
-0.055326
-0.172979
0.112526
0.034072
-0.012121
-0.057641
0.041163
0.108236
0.194964
-0.075355
-0.080053
0.075771
0.155199
-0.020791
-0.017386
-0.015824
0.019328
-0.070327
0.068924
0.012482
-0.008297
0.057705
0.106444
0.099401
0.023472
-0.056682
0.059064
-0.160149
-0.085519
0.007050
-0.097627
0.101300
0.019340
0.143878
-0.108709
-0.060421
0.054365
0.025851
-0.007833
0.012726
0.081656
-0.033847
0.048299
-0.138565
-0.159057
-0.023916
-0.017551
0.066060
-0.155959
-0.102091
-0.141613
0.015027
-0.081471
0.272810
-0.048296
0.214566
-0.147374
-0.119912
0.009944
-0.151086
-0.071056
-0.048011
0.055652
-0.087283
0.096288
0.062412
-0.052174
0.046245
0.153779
-0.152890
-0.108737
0.041339
0.089045
-0.155480
0.048971
-0.036806
-0.036870
0.028851
-0.079790
0.004198
0.009727
0.106639
-0.168091
0.011388
-0.024071
0.085282
-0.273023
0.163015
0.027943
0.213170
-0.015465
0.133245
0.031926
-0.191501
-0.129104
-0.098181
-0.110686
0.092506
-0.454623
-0.279487
-0.027390
-0.164189
-0.108996
0.004529
0.024135
0.105051
-0.070670
-0.047629
-0.165595
-0.031261
-0.110770
-0.049288
-0.304795
-0.014064
0.128917
0.032662
0.055571
0.072325
0.036598
-0.078550
-0.051800
-0.041056
-0.094540
0.007259
0.047161
0.009877
0.141657
-0.093861
-0.045997
0.127894
0.065098
-0.113400
-0.153429
-0.002066
0.103866
-0.004155
0.057609
-0.053921
-0.017785
-0.037310
0.032865
0.022352
0.085089
0.016155
-0.088632
-0.130558
0.082091
-0.015798
-0.152989
0.074510
-0.067588
0.011493
0.089170
0.058338
-0.031385
-0.011278
0.012689
-0.004981
0.085496
-0.006277
0.006188
-0.023953
-0.079557
0.112190
-0.078004
0.068853
-0.019120
0.081517
-0.118654
0.028501
0.096643
0.143190
0.149248
-0.028846
-0.080642
-0.170222
-0.008536
-0.095246
0.101563
0.011569
0.041813
-0.042044
-0.048094
0.044115
0.001050
-0.114146
-0.098104
0.023850
-0.089981
0.057810
-0.226542
-0.047121
-0.020233
0.002933
-0.003850
-0.059160
-0.043948
-0.013853
0.127686
-0.022139
0.079081
-0.052395
0.083496
0.240676
0.010131
0.037910
0.043505
0.096225
-0.045295
-0.029890
-0.149442
-0.024886
0.024315
0.069243
0.059416
0.140196
0.079216
0.116541
0.241644
0.253982
-0.214070
0.180295
0.042251
0.031048
0.155258
-0.118734
-0.184481
-0.128705
0.015957
-0.006745
0.127967
0.069683
0.216962
-0.111853
-0.073726
-0.019647
0.058448
-0.210036
-0.125886
-0.238026
0.110033
0.091020
-0.145211
-0.013718
-0.091165
-0.072769
-0.087936
0.107085
-0.027374
-0.028402
0.118179
-0.186318
0.071437
0.156577
-0.136864
0.051543
-0.121458
0.019488
-0.015066
0.028704
0.052369
0.011136
-0.072649
-0.060691
-0.068271
0.162963
-0.144271
-0.014586
-0.032668
0.043391
0.120641
-0.033496
-0.017035
0.014568
0.079226
0.088606
-0.141681
0.061693
-0.176381
-0.017591
-0.102669
-0.136523
-0.031872
0.144693
-0.018507
-0.014942
0.194427
0.166450
0.108249
0.114418
-0.222518
0.057438
0.095828
-0.083378
0.077986
0.180838
-0.032386
0.091962
-0.106100
-0.133895
0.093283
0.292108
0.124416
-0.041812
-0.032264
0.018594
-0.117455
-0.116613
-0.119233
0.078386
0.121572
-0.018465
0.056286
-0.021702
-0.168124
0.070995
0.096327
-0.028204
-0.139358
0.010974
0.030808
0.023769
0.121835
-0.307669
-0.186864
-0.052328
0.219565
-0.165148
-0.012149
-0.011859
-0.124448
0.081535
0.067234
-0.193744
0.095999
-0.034468
0.010593
-0.013877
0.216188
0.247825
-0.102324
0.395764
-0.124422
-0.111736
-0.102066
-0.086234
-0.112883
-0.035585
-0.128819
-0.042727
-0.049911
0.048757
0.027769
-0.057907
0.079257
0.006346
-0.097260
-0.147110
-0.210200
0.000927
0.079879
0.086149
0.009906
-0.041806
-0.015310
-0.019835
-0.082042
-0.048838
0.029110
0.121797
0.009136
-0.158871
-0.059750
0.011103
-0.080741
0.036380
0.080611
0.051171
-0.036174
0.098893
-0.223778
-0.130771
-0.175271
0.019848
-0.127742
0.029719
-0.032945
-0.080117
0.156455
-0.019249
0.043943
-0.019957
-0.063188
0.028638
-0.046989
-0.226062
-0.149351
-0.047272
0.302023
0.160366
-0.273542
-0.036171
-0.027001
0.112840
0.274104
0.047046
-0.048132
0.142482
0.102692
-0.109661
-0.080024
-0.026402
-0.048126
0.108988
-0.072325
-0.010870
-0.083885
0.112926
-0.040429
0.057656
0.008336
0.223407
-0.100405
-0.050343
0.131232
0.132833
-0.228426
-0.069297
0.097805
0.050598
0.245182
0.147262
-0.192117
0.108856
-0.129480
-0.013481
-0.019225
-0.057336
0.166336
-0.054885
-0.033935
-0.097264
0.182425
0.044016
0.053319
-0.221037
0.096289
-0.034842
-0.081350
-0.187024
-0.016088
-0.127575
-0.035569
0.100430
-0.122123
-0.005232
0.043518
0.002620
0.148141
0.262183
0.090571
-0.063730
0.094478
-0.029718
0.141773
0.029082
-0.067810
-0.090127
0.095339
0.074325
0.191020
0.067547
0.094406
-0.034254
-0.182843
0.030587
0.005520
-0.135215
-0.061290
0.039588
-0.199263
0.132054
0.013521
0.056281
0.031430
0.088510
-0.105978
-0.009689
-0.048837
0.101576
0.034454
0.117328
0.130658
-0.072953
-0.143688
0.149612
-0.145486
-0.001530
0.092802
-0.037479
-0.031887
0.047450
-0.079533
0.019220
0.075237
0.080754
-0.074570
0.048836
0.146988
-0.025471
0.072588
-0.057668
-0.058216
0.034519
-0.002943
-0.116842
-0.022360
0.019073
-0.015668
0.030484
-0.034093
0.084548
-0.089910
0.061604
0.046393
0.016956
0.014718
-0.116572
0.139355
-0.018467
-0.084252
0.169155
-0.026844
-0.050017
-0.151752
0.047613
0.006622
-0.009757
0.062322
-0.132583
-0.069159
-0.091032
0.157433
0.069126
0.005066
0.100559
0.175454
-0.027869
0.007448
0.008650
-0.050154
0.028359
-0.046959
0.102548
0.041574
0.064014
0.000534
0.078054
0.006292
-0.189711
0.014455
-0.005772
0.074330
-0.074026
-0.167998
0.114084
0.082516
0.079353
0.125663
0.111984
-0.042977
0.220358
0.155452
0.074729
0.002712
-0.035539
-0.114887
0.016635
-0.303975
-0.273802
0.131621
-0.315699
0.106525
-0.031356
0.194500
0.003128
0.053880
-0.093723
-0.034947
0.091882
0.041278
-0.144286
-0.109897
-0.083826
0.050208
-0.156188
-0.062653
-0.069198
0.039809
-0.025004
-0.026844
-0.123614
-0.103697
-0.010276
-0.041285
0.100720
0.051208
0.066789
-0.015938
-0.138046
-0.012114
0.006021
-0.148418
-0.090236
0.012342
-0.004633
0.078930
0.000031
0.000633
-0.052149
0.105396
0.087155
0.010542
0.013567
0.165927
0.076929
0.105761
0.024134
-0.134659
0.069051
0.057526
0.031314
0.005219
-0.059584
0.047942
0.176944
0.083690
0.003889
-0.276118
-0.184799
0.175622
0.138553
-0.002261
0.083744
-0.204921
-0.022408
0.123240
-0.147110
-0.069954
0.176213
0.101492
-0.012613
-0.004053
0.024711
0.052628
-0.058913
0.095414
-0.197933
-0.102175
0.053297
0.011713
-0.139265
0.084076
0.017864
-0.076565
-0.223537
0.040906
0.118870
-0.011437
-0.025936
-0.039727
-0.155801
0.217002
-0.128763
0.017967
0.012523
0.209408
-0.035746
-0.028563
0.018195
-0.034548
0.030498
-0.043336
-0.014963
-0.000188
0.212478
-0.045699
-0.074814
-0.022744
0.139367
-0.000608
-0.057966
-0.017243
-0.055686
0.016991
0.106560
0.006826
0.061492
-0.204453
-0.192525
-0.069982
-0.088960
-0.149100
-0.019422
-0.157120
-0.066923
0.092915
0.165848
-0.189110
0.077230
-0.101333
-0.142573
-0.039711
-0.105448
0.220472
0.046250
-0.131555
0.002004
-0.136620
-0.113998
0.173276
-0.162837
0.045153
0.095370
0.026981
-0.017144
0.109281
-0.031288
0.057917
-0.005384
-0.170922
-0.143004
-0.105677
0.077454
-0.026553
-0.118106
0.092655
0.098879
0.029759
-0.118639
-0.076484
0.056571
0.077945
0.023075
-0.190303
-0.067895
0.186970
-0.119829
0.024296
0.118573
0.110065
-0.021092
0.189573
-0.007166
-0.010151
0.170041
0.079049
0.015717
0.068068
-0.026545
-0.252205
-0.015870
0.109024
0.025288
0.034336
0.059129
-0.077585
-0.136138
-0.034678
0.065821
0.040509
-0.163984
-0.059036
-0.085812
0.119112
-0.189552
0.069848
0.111989
-0.104822
0.102012
0.186109
0.046478
-0.043624
-0.066611
-0.079548
-0.121548
-0.109092
0.059754
0.008215
0.033582
-0.077168
-0.024497
-0.027649
0.077339
-0.020151
-0.110733
0.022331
0.081371
0.264504
0.066116
0.039916
0.084090
0.022805
0.023815
0.128417
-0.123306
0.016344
-0.120241
-0.058393
-0.181937
0.101235
-0.162207
-0.155850
0.010026
-0.064908
0.028413
-0.249997
-0.103902
-0.144821
-0.048718
0.030962
-0.085273
0.154594
0.130607
0.135144
0.126944
-0.104525
-0.124040
0.239571
-0.082803
-0.130138
0.059200
-0.013602
0.166954
-0.153121
-0.119956
0.162132
0.007427
0.290984
-0.067565
-0.024489
-0.032190
-0.115697
-0.078144
-0.079276
0.155674
-0.030992
-0.036612
-0.054259
-0.068120
-0.020361
0.067567
0.026472
-0.087375
0.054275
-0.042262
0.056529
-0.016944
-0.057537
0.004883
0.181177
-0.001375
-0.117247
0.033809
0.167856
-0.094318
0.149887
0.106652
0.004967
-0.125514
-0.060210
0.085144
-0.076494
0.021948
0.006166
0.142262
-0.147292
-0.062546
-0.258182
-0.102636
0.169494
0.128848
-0.186244
-0.035142
-0.148474
0.055050
0.099650
-0.051927
-0.091843
0.065583
0.027333
0.111861
0.005982
-0.110659
-0.143133
-0.171665
0.145604
-0.273012
0.173356
0.016396
-0.051015
-0.329495
-0.068488
-0.063568
-0.176989
-0.087830
0.290300
-0.086796
-0.130879
-0.129457
-0.199281
-0.137560
0.044944
-0.019731
0.116072
-0.162389
0.030758
-0.017460
-0.128395
0.061361
0.032058
0.035742
-0.125857
0.166036
-0.054033
0.145625
-0.025008
-0.074683
0.140795
0.067681
-0.092512
0.132341
0.166618
-0.046443
0.178025
-0.025145
0.020223
0.008571
0.304019
0.340182
-0.163539
0.378710
-0.126239
0.035737
-0.105553
-0.054360
0.025818
0.090380
-0.044755
-0.048600
-0.020032
0.239108
0.196664
-0.078636
-0.089469
-0.039744
-0.066109
-0.058819
-0.052586
0.173802
-0.058235
0.125373
0.092374
0.125581
0.000800
0.115950
-0.053497
-0.107218
0.005740
-0.004328
0.135794
-0.108658
0.100131
0.024841
0.114041
0.064008
-0.057821
-0.127991
0.048191
0.141927
-0.033663
0.019714
-0.027889
0.106960
-0.132663
0.023667
-0.118149
-0.026613
0.016417
-0.087391
0.170999
0.118483
0.032118
0.131984
0.047467
-0.136987
0.010923
0.153050
0.233619
0.145592
-0.102654
0.005311
0.096363
-0.057637
0.097101
-0.052190
-0.132406
0.047833
0.069959
-0.037633
-0.178628
0.077180
-0.050143
0.035837
-0.043784
0.231509
-0.210335
0.018222
0.031779
0.027211
0.010501
0.025086
-0.016764
0.069514
0.086025
0.125768
-0.011131
0.007918
0.023727
0.139404
0.187406
-0.070669
-0.007384
-0.050631
-0.097347
0.204723
-0.011051
-0.186490
-0.037944
-0.004017
-0.000306
-0.118305
0.139366
-0.018401
-0.039517
0.070548
-0.023958
0.075253
-0.067437
-0.019421
0.079978
0.053665
-0.074901
-0.050874
-0.159615
0.072188
-0.194580
-0.026697
-0.303271
-0.254121
0.148148
-0.241565
-0.104564
0.171613
0.139640
0.020480
-0.195288
-0.173808
-0.138347
0.072734
-0.157541
-0.104784
-0.057100
-0.189297
0.061245
0.011128
-0.007611
-0.048133
-0.151492
-0.125494
-0.129221
-0.120504
-0.228999
-0.079702
0.002968
0.083598
0.127906
-0.079649
0.104401
-0.018349
0.052517
-0.231243
-0.036408
0.026861
0.021794
-0.125602
-0.005863
-0.058798
0.022460
-0.158627
-0.139212
-0.074578
-0.133351
0.123564
-0.197454
0.123528
0.080065
-0.036467
-0.072900
0.012597
0.060026
0.010481
0.130109
-0.105288
-0.069386
0.156083
0.260486
-0.092436
-0.199813
0.037684
-0.060563
0.004801
0.053457
0.042291
0.133651
-0.021252
0.024683
-0.077823
0.108698
0.165165
0.066533
0.089958
0.088486
-0.107611
0.242320
-0.095783
0.238643
-0.227843
-0.176047
0.041903
0.071252
-0.121859
0.162181
0.152744
-0.097625
-0.183175
-0.145929
0.046908
-0.098305
-0.043140
-0.180581
-0.040568
0.086178
0.107097
-0.017031
-0.127989
0.084900
0.223031
0.077745
0.014193
0.059374
0.019087
-0.022153
-0.220247
0.021544
0.072271
0.008801
-0.195336
0.090588
-0.051125
0.062506
0.050104
0.057306
0.150394
0.055764
0.013844
-0.066740
-0.030217
-0.089969
0.179954
-0.056734
-0.098704
0.125095
-0.095713
0.066400
-0.032661
0.123828
0.091970
0.091912
0.005291
0.106013
-0.005894
-0.047917
0.056980
-0.286912
-0.033954
0.036952
0.098731
0.115734
0.141253
-0.062938
0.004791
0.202309
-0.242268
0.061578
0.071146
0.005273
0.065582
0.057503
-0.121048
0.117890
0.114272
0.155916
0.024951
0.141613
0.156068
-0.153347
-0.074799
0.066756
0.111367
-0.023394
-0.099800
0.038508
-0.026895
0.183735
0.186659
-0.071894
-0.107717
0.014398
-0.143417
-0.152254
-0.071031
-0.049609
-0.061917
-0.120732
-0.113359
-0.205607
-0.007950
0.030136
-0.109636
0.184114
0.043327
-0.045982
0.107353
0.049882
0.045311
-0.153150
-0.008062
-0.070537
-0.001847
-0.102841
-0.069872
0.045912
-0.113493
-0.130479
0.237611
-0.075323
-0.087936
0.183165
-0.044781
-0.151716
-0.177829
0.126144
-0.027656
-0.120874
-0.003115
0.164966
-0.154529
-0.019963
-0.208112
-0.088945
-0.119810
0.031193
-0.140893
0.134827
0.046999
0.044970
0.055914
-0.119552
-0.169845
-0.059722
0.024992
-0.194912
-0.039789
-0.092467
0.270146
0.029928
0.185963
0.069492
0.212290
-0.055786
-0.064605
0.184370
0.007354
0.130770
-0.158929
-0.064520
-0.046312
0.173087
0.193325
-0.077109
0.126573
0.098515
-0.024865
-0.071541
-0.160677
0.122360
-0.100615
0.216017
0.085354
0.136275
0.212581
0.249691
-0.005666
-0.202669
0.115703
0.087261
-0.029567
-0.048688
0.393579
-0.065790
-0.001281
0.236545
0.071961
-0.114550
0.012662
-0.194833
-0.079244
0.026718
-0.045530
0.033583
0.076639
0.045555
-0.026135
0.049322
0.193053
-0.117533
-0.040507
0.121875
0.244585
0.056928
0.062738
0.082268
-0.118145
0.061871
0.110103
-0.077763
0.092664
-0.071350
-0.100179
0.094178
0.084082
0.016282
0.027449
0.036262
-0.217522
-0.080164
0.086323
0.225800
0.082479
0.139216
0.008684
-0.100059
0.030067
-0.086839
0.015129
-0.064491
0.058125
-0.090075
0.089264
-0.075534
0.053972
-0.127576
0.055541
-0.140071
0.156785
-0.172472
-0.001567
-0.072396
-0.020715
0.026473
-0.001882
0.081158
-0.080320
0.042484
-0.038583
0.240766
-0.098797
-0.030464
0.096097
0.055269
-0.128966
0.034811
0.042000
0.019153
0.137916
-0.026819
-0.003547
-0.218215
0.030226
0.050477
0.035230
-0.080985
-0.037333
-0.119617
0.091643
0.106008
0.049070
0.002348
0.141988
-0.002504
0.033071
0.023388
-0.060865
-0.074767
-0.090806
0.060010
-0.056893
0.049222
0.059560
0.021298
-0.039767
0.148508
-0.141062
-0.029463
0.208522
-0.161042
-0.096773
-0.057583
0.125207
-0.073547
-0.087410
-0.027417
0.114079
0.033861
0.093443
0.155835
0.015770
0.031723
-0.348543
-0.014278
-0.036794
-0.315204
-0.064760
0.018111
-0.012686
-0.059061
0.022956
0.178530
0.090502
0.031072
-0.053742
-0.015371
0.156124
0.052480
-0.009064
-0.004256
0.089484
0.062812
-0.024293
-0.187982
0.098347
-0.024712
-0.036871
-0.073613
-0.095148
-0.044741
-0.068155
-0.048042
0.064000
-0.126690
-0.088962
0.038497
0.136741
0.138700
0.012536
-0.047907
-0.190405
0.046758
-0.023631
-0.087406
-0.037250
-0.000126
0.144808
-0.059977
0.049704
-0.125788
0.089646
0.085599
-0.100959
0.102273
0.050967
0.094128
0.049947
-0.073688
-0.038199
0.001013
-0.041328
0.062183
0.219816
-0.088481
-0.017615
-0.035636
0.014993
0.064509
-0.031911
-0.118780
0.145019
-0.100948
-0.001882
0.057772
0.066077
0.034195
0.091305
-0.069056
0.065446
-0.132986
0.051950
0.029647
0.108195
-0.225599
0.083686
-0.028486
0.211857
0.102757
-0.086012
-0.042601
-0.048155
0.110474
-0.200904
-0.081571
0.106239
0.114396
0.144950
0.032798
-0.022883
-0.041484
-0.109139
-0.182698
-0.146931
0.079026
-0.153350
0.160864
-0.074500
0.152819
-0.053187
0.075443
-0.018756
0.003454
0.051187
0.035172
-0.073569
0.049695
0.091248
-0.017422
0.066564
0.068145
-0.009101
0.045166
0.072215
-0.081574
0.003693
-0.053928
-0.129595
0.051881
-0.014259
-0.054011
-0.044491
-0.020208
-0.126733
-0.081585
0.006442
-0.067788
-0.028999
0.191493
0.018348
0.018971
-0.090617
-0.002965
0.042558
0.116796
-0.029952
0.157587
0.020707
0.015050
-0.069753
-0.004575
0.049499
-0.181682
-0.101876
-0.076335
-0.032418
-0.118781
0.129264
0.009568
0.097192
0.001985
0.061545
-0.128457
-0.094286
0.241001
0.050370
-0.000531
-0.010821
-0.201971
-0.179604
0.189301
0.057676
-0.194205
0.038786
0.081411
0.106481
-0.025450
-0.086468
-0.006253
-0.066021
0.096309
-0.063924
-0.035181
0.074748
-0.025307
-0.098582
-0.033607
0.039436
-0.011034
-0.174645
0.151041
0.037495
0.095794
-0.016050
-0.124905
-0.129840
0.092834
-0.076129
-0.041303
0.069686
-0.018791
0.047230
-0.127071
-0.007934
-0.065961
-0.012451
0.032660
-0.070543
-0.102609
0.240504
0.062986
0.092000
0.129568
-0.019343
0.016328
0.074891
-0.033271
0.023143
-0.028762
0.008486
0.061282
-0.088057
-0.267784
-0.142883
-0.102072
-0.113334
-0.027764
0.068372
0.001547
0.002254
-0.126897
0.008831
0.040735
0.093406
-0.127391
-0.116927
0.005326
0.082069
-0.205690
-0.075436
0.079106
0.002003
0.015032
0.261151
-0.173465
-0.040360
0.100866
-0.053196
-0.038965
-0.021866
0.015054
0.068858
0.034052
0.077025
0.234311
0.139722
-0.095697
-0.134922
-0.027394
0.020674
-0.004416
0.023753
0.095751
0.062453
-0.000847
-0.117330
0.026813
-0.003197
-0.021795
-0.047441
0.196897
-0.161766
-0.028478
0.008243
0.063985
0.275016
-0.054327
-0.161002
-0.006883
-0.006891
-0.110252
0.054991
0.086576
-0.030854
-0.014015
-0.072135
0.059636
-0.191229
0.030119
0.004801
0.165864
-0.122438
0.018245
-0.066361
-0.062773
0.055307
-0.004917
0.029978
-0.052994
0.062101
0.074865
-0.147699
0.015114
0.172015
-0.195026
-0.066502
0.121227
-0.064696
-0.003194
-0.000942
0.144646
0.087882
0.070278
-0.223705
-0.008118
-0.002615
-0.057237
0.043923
0.097991
-0.125041
-0.043167
0.093382
-0.036731
-0.081421
-0.014062
-0.058323
-0.004381
-0.020577
-0.051957
0.357317
0.134746
0.100040
0.169744
0.132189
0.140595
0.106799
-0.012633
0.237234
0.072648
0.091629
0.072774
0.081281
-0.018708
-0.239896
0.229406
-0.018816
0.001085
0.041205
-0.172475
-0.179791
0.173722
0.210426
0.127821
-0.052259
0.358000
-0.019902
0.120741
0.072415
-0.324443
-0.023638
-0.027900
0.138906
-0.042746
0.376511
0.179755
0.031849
0.443590
0.157575
-0.053151
0.115455
-0.071365
0.290574
0.067992
-0.049671
-0.057724
0.055615
0.070787
-0.149313
0.091236
0.100572
0.048632
-0.029285
-0.106348
0.119622
0.228724
0.045801
0.304582
-0.081000
0.198880
0.011450
0.124006
-0.209970
-0.224855
-0.086919
-0.181194
0.090529
0.122740
-0.071004
-0.263249
0.011949
0.080788
0.101726
0.011408
0.206706
0.152279
0.195761
-0.055470
-0.171047
-0.194643
-0.119243
0.181030
-0.161669
-0.255410
-0.095377
-0.045309
-0.208286
-0.131798
0.086293
-0.058518
0.098334
-0.077339
0.036342
0.132915
-0.053162
-0.084042
-0.079048
-0.073980
-0.186455
-0.206268
-0.003896
0.235210
-0.031272
0.141493
-0.077271
-0.009853
-0.063428
0.070692
-0.099763
-0.035697
-0.078588
0.105381
0.028062
-0.342241
0.053343
0.066354
-0.033232
-0.115778
-0.100814
0.053132
0.181743
-0.077160
0.092549
-0.192904
0.217491
0.193823
-0.267483
0.090278
-0.043651
0.132794
0.158220
-0.052520
-0.070001
0.029930
-0.045349
0.235082
-0.130995
-0.072455
0.023488
0.091176
-0.184685
0.119949
0.151458
0.007765
0.029918
0.006405
0.023710
0.009473
-0.027526
-0.138914
0.147018
-0.154944
0.190574
-0.195912
0.161436
-0.184887
-0.089267
0.071346
0.173187
0.004234
-0.181490
-0.026885
-0.069769
0.092708
-0.138016
-0.117449
-0.107568
-0.033438
-0.130160
-0.197089
-0.203549
0.152576
-0.154890
0.006506
-0.020364
0.092423
-0.044861
0.049378
0.090390
-0.089920
-0.075070
-0.125888
-0.169016
0.001418
0.087155
-0.043706
0.066934
0.124011
0.060621
0.100482
0.114774
0.325571
0.140350
0.146460
0.142677
-0.066933
-0.127748
0.138393
-0.069401
-0.059390
-0.081287
-0.012337
-0.188309
-0.423132
0.010728
0.157539
-0.092319
-0.218044
0.278949
0.052456
0.084740
0.038900
-0.033401
0.127840
-0.067243
-0.032218
-0.201343
-0.148174
-0.064698
0.120445
0.090440
-0.045469
0.008628
0.086200
0.040515
0.030750
0.038301
0.005430
0.099837
-0.013633
-0.128821
0.045914
-0.231161
0.104494
-0.182004
-0.004762
0.137871
-0.107922
0.028698
0.130990
0.126724
-0.116554
0.008754
-0.225577
0.114262
0.013143
0.077284
-0.048519
-0.031637
-0.015229
-0.144806
-0.016431
0.062848
-0.237582
-0.259219
-0.086006
0.042538
0.140823
0.000386
-0.086044
0.068108
0.152616
-0.083266
-0.076160
-0.071892
0.028992
0.009169
-0.160733
0.015933
-0.045791
0.016198
-0.071585
0.046723
0.060485
0.182538
0.020144
-0.154492
0.109422
0.089496
0.078284
0.037913
0.035272
-0.008468
0.009358
-0.174403
-0.061340
0.145020
0.004557
-0.005773
0.024773
-0.002065
-0.000766
0.045949
0.034426
-0.028507
-0.164895
-0.013844
-0.046684
-0.161042
-0.029687
-0.011201
-0.030186
-0.017781
0.001728
-0.032887
0.049726
0.132825
0.023364
-0.075779
0.008085
-0.044162
0.072094
-0.135861
0.054332
0.024059
-0.027675
0.186368
0.040189
0.030672
-0.034320
-0.125711
-0.020964
0.038395
0.020322
-0.148824
-0.012078
0.004585
-0.033495
-0.106395
0.051027
-0.090392
-0.054397
0.023654
-0.019581
0.192987
0.061890
0.046138
-0.128625
-0.096699
-0.070775
0.012785
0.001327
0.162284
0.004540
-0.162525
0.128459
0.056427
0.171665
0.045845
-0.071199
-0.126552
-0.109081
0.110653
-0.146542
-0.069826
-0.129231
0.087944
-0.027885
0.024047
0.121591
0.023331
-0.002024
0.075825
-0.151993
0.138394
0.025745
-0.142703
-0.060493
0.071997
0.083915
0.089822
0.189393
0.114850
0.476529
0.020050
0.295670
0.019434
-0.038541
0.149156
0.006571
-0.147687
0.008470
0.102353
0.019229
0.027931
0.253148
-0.030672
0.182141
-0.244224
0.090714
-0.021530
-0.110977
0.003538
-0.078287
-0.016836
-0.129253
0.318683
0.189577
0.165489
-0.206184
0.143253
-0.101432
-0.170079
-0.015911
0.054832
-0.020383
-0.060745
-0.063817
-0.123528
-0.143419
-0.074638
-0.051897
-0.001944
-0.129856
-0.030745
0.088521
0.161401
0.192113
-0.021879
-0.018611
0.027010
-0.066087
0.209607
0.125225
0.037765
0.282535
-0.086097
0.104725
-0.096445
-0.197239
0.108705
0.082831
0.088611
0.022191
0.227952
-0.188075
0.157939
0.006959
-0.231967
0.011676
-0.005897
0.035105
-0.043998
0.071032
0.020183
-0.179209
-0.109694
-0.076639
-0.013218
0.044755
0.081556
0.069666
0.122978
-0.024084
-0.202424
0.062721
0.092084
-0.086745
0.071136
0.060833
0.236457
-0.047042
-0.068255
-0.086523
0.266378
0.016563
-0.022440
-0.086655
0.135737
0.007415
-0.073652
0.014122
-0.119403
0.128066
-0.011914
-0.098472
-0.038512
0.250578
0.006314
-0.029691
-0.195469
0.083895
-0.106129
-0.182694
-0.066850
0.154589
0.100355
-0.051052
-0.268244
-0.079290
-0.019359
0.085132
0.103370
0.123144
-0.017079
-0.156079
0.110973
0.018971
-0.090732
0.019552
0.091779
-0.116113
-0.032618
-0.167144
0.043328
-0.116787
-0.099685
-0.020942
0.077640
0.073214
0.076275
0.075678
-0.053938
0.135054
0.114344
-0.085351
0.013144
-0.007589
-0.016697
-0.013637
0.129692
-0.018887
-0.136426
-0.135771
0.288692
0.193240
-0.012572
0.080051
-0.036103
0.044888
0.077441
0.088907
0.095767
0.189801
0.072657
-0.047776
-0.014742
-0.126837
0.119484
-0.163741
0.081362
-0.068517
0.109892
0.164160
0.111613
0.166940
0.194693
-0.145131
0.006018
-0.033806
-0.271361
-0.262676
-0.029508
0.175995
-0.018446
-0.095267
0.027496
-0.013985
0.051000
0.107070
0.204121
-0.075776
0.156548
0.162880
-0.058222
-0.014215
0.065709
0.094768
-0.139967
-0.131645
0.041555
0.053621
0.137152
0.238798
0.020435
0.058233
0.042123
-0.056899
0.105430
0.060140
0.106681
-0.043632
-0.152584
-0.037590
0.070369
0.036046
0.033770
-0.150802
-0.029814
0.086768
0.006994
-0.033475
-0.082202
-0.012208
0.208327
0.037838
-0.240772
0.074340
-0.068894
0.061004
-0.044674
0.240453
-0.071706
0.124046
0.030962
-0.024841
-0.097285
0.013273
0.044634
0.002152
0.003411
-0.146898
0.115553
0.017505
0.178867
0.085820
-0.052610
0.033875
0.028118
0.026946
0.086534
-0.119558
-0.130708
-0.080869
-0.068164
-0.010251
-0.124450
0.011025
-0.054288
0.086993
-0.037675
-0.048098
0.028276
-0.060557
-0.052558
-0.016742
-0.057950
-0.217638
-0.052633
-0.062186
0.012070
0.024214
-0.216747
-0.164838
0.066123
0.107933
0.027876
-0.077652
-0.038170
-0.102388
-0.042212
-0.043001
-0.077143
-0.052288
-0.042967
0.030902
0.022765
-0.117608
-0.032494
0.066053
0.046572
-0.055398
0.034866
0.041359
-0.065194
-0.013440
-0.043820
-0.092375
-0.030870
0.135523
-0.006977
-0.020520
0.108586
-0.096772
0.026295
-0.169458
-0.087268
0.003847
-0.106096
0.031457
0.067880
-0.046628
-0.123634
0.085840
0.052480
0.131311
0.069365
0.086756
-0.027293
0.053658
-0.155967
0.072964
0.017088
0.016485
-0.097915
0.004425
-0.044769
-0.014092
0.101602
0.060222
0.062701
0.123120
-0.017607
-0.127698
0.062905
-0.082017
-0.092565
-0.211843
0.062629
0.004245
0.067465
-0.080666
-0.014664
0.007939
-0.144261
0.072979
-0.010520
0.202386
0.004056
-0.102875
-0.085772
0.075596
-0.148365
0.051990
-0.123426
0.051709
0.078813
0.001713
0.249560
-0.071448
0.062329
0.185506
-0.061500
0.147579
-0.089095
0.114530
0.123914
-0.024359
0.097017
-0.051453
-0.169463
0.223359
0.070567
0.110008
-0.101212
0.047080
0.049607
-0.001217
-0.069562
-0.018796
-0.029164
-0.047910
0.169600
-0.251830
0.001895
0.059504
0.048959
0.109296
0.001977
-0.046335
-0.028767
0.093594
0.093988
0.056853
-0.120771
-0.144731
0.073495
-0.024715
-0.052008
0.165218
-0.192201
-0.113057
0.092476
0.019364
0.131646
0.010411
0.005041
0.112479
-0.018830
0.072489
0.041108
0.022102
-0.141830
-0.236696
0.022067
-0.098692
-0.070336
0.167809
-0.017833
-0.081689
-0.017652
0.090085
0.017712
0.111124
0.148203
-0.055606
0.053600
-0.038565
-0.108177
-0.076620
-0.220001
0.004259
-0.012291
-0.288693
-0.053888
-0.000528
0.032308
-0.138623
0.072142
-0.037529
0.146997
-0.167245
-0.074831
-0.125091
-0.011652
0.051958
0.030903
-0.000808
-0.042824
-0.115645
0.074177
-0.111179
0.053354
-0.043470
-0.150440
0.055596
0.108126
0.260506
0.087122
-0.071261
0.136029
-0.022961
-0.042124
-0.119951
-0.046629
0.030172
-0.015016
-0.075024
-0.131027
-0.119451
0.073345
-0.139062
-0.045774
-0.187648
-0.014540
-0.035315
-0.017141
-0.087233
-0.053045
0.059372
-0.006678
0.069259
0.024989
-0.141158
-0.294064
0.014442
-0.012085
-0.106207
-0.004662
0.059686
0.013452
0.154410
-0.123319
0.010634
-0.037816
0.100118
-0.046189
-0.057448
0.126809
0.101657
-0.012266
0.083973
-0.107394
0.010972
0.096350
-0.050651
-0.079781
0.322808
0.112870
0.026001
-0.205696
0.107375
-0.021568
0.188782
-0.084581
0.015321
0.000130
-0.048849
0.063229
-0.042051
0.002111
0.068167
-0.030738
0.081634
0.022756
-0.038119
0.071785
0.062322
0.002848
-0.129847
-0.142442
0.061790
-0.042951
0.054273
0.044218
0.060007
0.017819
-0.048964
0.058411
-0.114697
-0.088792
-0.086194
0.050214
0.235376
-0.078183
-0.005682
-0.010703
0.017281
-0.079103
-0.059195
-0.039287
0.002508
0.008451
0.021835
-0.027762
-0.025358
-0.127485
0.018347
0.034973
0.199854
0.185987
-0.049791
-0.012129
-0.008296
-0.129325
-0.018843
0.097776
-0.018776
-0.206871
-0.021619
-0.120423
-0.114219
0.059630
-0.094741
-0.159352
-0.004143
-0.049012
0.195106
-0.045877
-0.013044
-0.085463
0.042131
0.101442
-0.031175
0.176257
0.170289
0.029215
0.146312
0.009330
0.023962
-0.169516
-0.052214
0.055695
-0.074421
-0.051308
-0.027805
-0.109275
-0.185339
0.123016
-0.051916
0.028578
-0.075557
-0.168930
-0.183943
-0.027779
0.028244
-0.079325
-0.118536
0.039279
0.029422
-0.067681
0.067065
0.005178
0.200828
-0.016687
0.057292
0.037162
0.122135
-0.038774
0.037465
-0.004906
-0.025041
0.068810
-0.134547
-0.014750
0.093461
-0.176040
-0.029798
-0.149766
-0.096843
0.036084
0.039564
0.054778
-0.069723
-0.185649
-0.227203
-0.032894
0.057513
0.011758
-0.026813
-0.093078
0.062328
0.090023
-0.068065
-0.103911
0.211097
-0.158763
0.195733
-0.063205
-0.051273
0.189891
-0.009136
-0.079593
-0.143215
0.045880
-0.080724
0.009919
-0.121691
-0.137233
0.070545
0.074319
0.236558
0.185041
-0.153527
-0.131174
0.014843
-0.124748
0.091981
-0.033213
-0.069820
-0.151282
0.179545
-0.045228
-0.305683
0.029563
0.201529
0.013490
-0.137875
0.068022
0.155961
0.020484
0.015934
-0.167172
-0.053887
-0.016674
0.006317
-0.019901
0.223523
-0.070607
-0.189610
-0.086262
0.014358
0.052056
0.130277
-0.050280
0.035971
0.019347
0.063451
-0.127780
0.004292
0.065256
0.122246
-0.096159
-0.147481
-0.070871
-0.043319
0.091615
-0.313617
-0.111840
-0.050686
0.225076
-0.078760
0.065172
0.044319
-0.005168
-0.033871
0.166788
-0.124800
-0.097551
0.146999
-0.071899
-0.090844
0.005166
0.234838
0.305656
-0.086868
0.197059
0.111043
0.008650
-0.033160
0.008088
-0.015221
-0.064250
0.000884
0.138927
-0.051659
0.012632
0.065363
-0.034748
0.028639
-0.077529
-0.041620
-0.007006
0.077126
-0.274430
-0.143500
0.022020
-0.094499
-0.078276
0.052888
0.061419
-0.071020
0.013465
-0.095249
0.143968
0.187547
-0.082683
0.134072
-0.076206
0.068931
0.135101
-0.068821
-0.075752
0.112241
0.163624
-0.105875
-0.128875
-0.260855
-0.026629
0.036102
0.080359
-0.070038
0.007288
0.065743
0.026448
0.113743
0.095847
-0.113518
0.083820
0.056310
0.044985
-0.238675
0.095150
0.107809
0.001031
-0.046305
0.034295
-0.129881
-0.008885
0.101828
0.131480
-0.176844
0.064802
0.197206
-0.081587
-0.074657
0.135833
0.156837
-0.013536
-0.198224
-0.040737
0.092038
0.040348
0.119055
0.015597
0.028969
0.154004
-0.022597
0.089152
0.135310
0.141386
-0.061343
-0.094916
-0.051883
0.162684
0.048034
0.073670
-0.215043
0.006069
0.008159
0.191986
0.104673
0.026311
-0.016237
-0.146504
-0.037273
-0.077502
-0.018992
-0.049055
-0.032695
0.045367
0.077577
-0.006988
0.097909
0.019376
-0.097633
0.050766
-0.011691
-0.092176
-0.001228
0.128039
-0.004624
0.066705
-0.084761
-0.441403
0.114170
0.034734
-0.151576
-0.012444
0.041824
-0.087698
0.098128
-0.081210
-0.046551
0.068867
0.068926
-0.098091
-0.002069
-0.132062
0.066249
-0.018326
-0.059078
0.022142
-0.178104
0.064778
0.232613
-0.129533
0.110440
0.268242
-0.142828
0.055314
0.021407
-0.061020
0.089476
-0.071557
-0.171308
0.082699
-0.177123
0.008143
0.126667
-0.102533
-0.032572
0.043688
-0.130908
-0.043331
-0.076662
0.225144
0.080525
-0.172076
-0.092492
-0.045475
-0.051717
-0.012167
-0.062995
-0.052309
0.104828
-0.186217
0.161511
0.018241
0.021016
0.157449
0.149845
-0.151220
-0.077211
-0.095610
-0.046126
0.085247
0.067397
-0.013560
-0.188322
-0.223890
0.157147
0.154625
-0.096525
0.094357
0.122592
-0.039386
-0.132587
-0.027157
0.190252
0.010334
0.091623
-0.085838
-0.066044
0.001823
0.196115
-0.047644
-0.063907
-0.228793
0.055265
-0.221460
-0.008303
0.045784
-0.011122
0.044184
-0.008871
-0.071885
0.092090
0.021966
-0.094008
-0.104528
-0.126238
0.083090
0.018192
0.038862
0.086974
0.008786
0.106630
-0.019245
-0.006361
0.019293
-0.012890
-0.008667
-0.225021
0.000810
-0.065336
-0.163267
-0.068466
0.067530
-0.094758
0.105819
-0.099719
-0.025121
-0.006479
-0.004487
0.060219
0.078179
-0.066995
0.101379
0.103488
-0.047498
-0.130656
0.131339
0.087601
-0.107796
0.010780
-0.025667
0.026509
-0.002539
-0.191433
-0.141589
0.007283
-0.052446
0.076884
0.138876
-0.107538
-0.110113
-0.008594
-0.187982
0.000248
0.071212
0.016005
0.101534
0.042863
-0.015595
-0.018653
-0.132620
-0.063235
-0.367509
0.047349
0.055828
-0.072371
0.062466
0.028764
-0.041408
0.016508
-0.133874
-0.117455
0.113220
0.017835
0.010205
0.075427
-0.244697
-0.163511
0.054643
-0.095139
0.062005
-0.167969
-0.063549
-0.088358
0.032255
0.009160
0.154223
-0.015189
-0.072453
0.031192
0.072968
0.139504
-0.133910
0.202822
0.126039
-0.099435
-0.026178
0.060020
-0.115439
-0.059617
0.128234
0.055630
-0.061205
-0.013094
-0.021472
-0.040009
0.129454
0.145516
0.184177
-0.179951
-0.104624
0.033333
0.088112
-0.165904
0.147662
0.094012
-0.056018
0.076840
-0.105819
-0.051966
0.141076
0.027798
-0.105074
-0.057573
0.066385
0.081584
-0.105545
-0.031342
-0.104926
-0.122816
-0.063411
-0.167567
-0.035058
0.112689
0.221321
0.074588
0.027267
0.078133
0.152531
0.103973
-0.027058
0.029424
0.033378
0.019502
0.071900
-0.148624
0.026697
0.216882
0.258222
-0.125450
0.064288
0.176254
-0.027584
0.025396
0.013804
-0.051173
-0.109704
0.068876
0.059973
-0.062798
-0.061657
0.133570
-0.236821
-0.175855
0.049540
-0.022436
-0.061370
-0.018833
0.064780
0.054087
-0.040779
-0.093967
0.026159
-0.128410
0.024317
-0.079543
0.063002
-0.030857
0.055450
0.052857
0.091858
0.076678
-0.012996
0.024571
-0.009529
-0.031011
0.083582
0.152935
0.057789
0.153836
-0.133536
-0.154255
-0.010952
0.121924
0.154506
-0.063546
0.060252
0.034948
-0.055161
0.071129
-0.024182
-0.208501
-0.155243
0.090867
-0.070883
-0.049236
-0.003826
0.021598
-0.128071
0.038372
-0.048116
-0.095372
0.110933
-0.061865
0.051755
-0.081662
0.043405
0.168036
-0.030065
0.111484
0.136003
-0.059421
-0.047888
0.078931
0.090752
0.121075
0.098698
0.121700
-0.059983
-0.054290
-0.004260
0.186885
0.137029
0.004290
0.119721
0.059607
-0.091398
-0.037467
0.052248
0.009169
-0.142940
-0.147413
0.029234
-0.010826
0.179755
-0.008371
-0.081023
0.123767
-0.171710
0.014184
-0.096931
0.062065
-0.148489
-0.163801
0.046251
0.157834
-0.084868
0.003561
0.025601
0.039909
0.078462
0.126410
-0.089879
-0.068689
-0.192663
-0.037782
0.054871
-0.024550
0.143144
0.023618
-0.062254
0.093294
0.008077
-0.034262
0.014988
-0.200769
-0.236380
0.013361
-0.129542
-0.189464
-0.027664
-0.083580
0.069745
-0.065865
0.117008
0.169339
-0.214828
0.227157
-0.142564
-0.252941
0.040906
0.020429
-0.055693
0.029309
0.061110
0.040186
-0.178643
0.032050
0.059038
0.322138
0.246122
0.025496
0.158054
-0.118480
0.036925
0.042092
-0.119974
0.129654
0.095111
-0.026971
0.017852
-0.147647
-0.102659
0.236486
0.082859
-0.074406
-0.073106
0.075316
0.027213
-0.033193
0.239764
0.014239
0.032320
0.019838
-0.365104
-0.227386
-0.083808
0.195418
-0.046468
-0.040283
0.016254
-0.111493
-0.125626
0.038045
0.091747
-0.149373
0.117658
0.042229
0.026511
-0.050607
0.101343
0.115936
0.156683
-0.196088
-0.105142
-0.023368
-0.128393
0.128708
0.098833
-0.108238
-0.051972
-0.055050
-0.003471
-0.133026
0.113949
0.000858
-0.096556
-0.079570
-0.004116
-0.049823
-0.095451
-0.072717
-0.111301
-0.074179
0.045418
-0.201174
0.052464
0.051219
-0.002973
-0.123288
0.092144
0.057923
0.148811
0.149594
-0.004065
0.006523
-0.083613
0.193732
-0.137597
-0.145053
0.349428
0.107476
0.132112
-0.041526
0.120157
0.161120
-0.067832
-0.063870
0.038667
0.018169
-0.099230
-0.158115
0.084930
-0.045405
-0.104293
0.088148
0.131953
0.109544
-0.208245
-0.143977
-0.007962
-0.001396
0.008261
-0.059158
-0.035334
-0.032454
0.166575
-0.141892
0.097949
0.038185
0.048042
0.203375
-0.026292
0.070059
0.014774
0.041114
0.047899
0.070395
-0.001455
0.025794
-0.156203
0.055864
-0.078762
-0.044933
-0.160541
0.063133
0.033976
0.053588
-0.094841
-0.002227
0.053100
0.129810
0.037594
0.024604
0.062847
0.182208
-0.186338
-0.245128
-0.059252
-0.033933
0.035251
0.118634
0.102130
-0.041351
-0.066127
0.121623
0.029618
0.059329
0.111681
-0.072767
0.027596
0.016184
-0.204045
0.078616
0.033724
0.066674
-0.003689
-0.181536
-0.113014
-0.184824
0.034779
-0.145224
0.173806
0.045672
0.102944
-0.141009
0.040282
0.028095
0.011403
-0.000418
0.042660
-0.020973
0.057676
-0.118868
-0.037925
-0.052669
0.134020
0.152347
-0.136130
-0.093185
0.108086
0.000489
0.044384
-0.059972
-0.095670
-0.137423
0.026621
0.141205
-0.025928
-0.168127
0.022321
-0.148144
-0.038724
0.123013
-0.051373
-0.205686
0.029815
-0.116264
-0.014558
0.063023
0.122711
0.020600
-0.073702
-0.263778
0.040008
-0.128262
0.059328
-0.048963
-0.068425
-0.019043
0.033868
0.019587
0.016539
0.058805
0.051977
0.034947
-0.010233
-0.161572
0.218362
-0.214160
-0.092402
-0.166160
0.024240
-0.307343
-0.011072
-0.134639
0.047068
-0.036650
-0.096276
-0.184751
-0.301719
-0.036882
-0.075915
0.102604
-0.137345
0.217952
0.111850
0.081460
-0.015437
-0.118902
-0.015333
0.046992
-0.174353
-0.245998
-0.171946
-0.022156
0.153557
0.226911
-0.098175
-0.077851
-0.180033
-0.169900
-0.069597
-0.177571
-0.002197
0.031723
-0.131962
-0.159132
0.067188
-0.097367
0.005971
0.006860
0.007264
0.117894
0.138564
0.009420
0.021606
-0.107217
-0.045384
-0.128798
0.003290
0.196083
0.166689
0.179831
0.212741
-0.000931
-0.016168
0.017837
0.099008
0.078545
0.038723
0.217298
0.122180
0.064979
-0.080317
-0.163022
0.087360
0.004045
0.195939
-0.159274
0.157738
0.066261
0.023867
0.082213
0.108856
0.019304
0.090951
0.162552
-0.239441
0.030462
0.078085
0.038220
-0.091978
-0.136132
0.042648
0.043525
-0.044323
0.048387
-0.087470
-0.091897
-0.022795
-0.075153
-0.103506
0.085008
0.264015
0.036400
0.097627
-0.026892
-0.020492
-0.022088
0.014450
-0.048743
0.012894
-0.028706
0.254205
0.117270
-0.005029
0.225383
-0.107811
0.042502
0.156202
-0.411224
0.316718
-0.085301
-0.255394
0.033626
0.170830
0.102556
-0.072543
0.116382
0.329285
0.218042
-0.170299
-0.049633
-0.085125
-0.041160
0.407138
-0.199244
0.297692
0.176117
-0.280747
0.242532
0.223229
-0.025235
-0.073949
0.101828
0.142209
0.029971
0.023712
-0.067587
-0.290731
0.142566
-0.304556
0.055692
0.038627
0.387326
0.047734
0.069837
-0.057465
0.152097
-0.061736
0.325173
0.201420
-0.311563
-0.161439
0.171781
-0.132922
-0.066486
0.209790
-0.222104
0.034399
-0.058192
0.047861
-0.034676
0.119182
0.454749
0.015920
0.115423
0.074294
0.323923
-0.360724
0.131423
-0.167101
-0.255595
-0.098576
0.234116
-0.053026
-0.533031
-0.003240
-0.169749
-0.181800
-0.314060
0.028838
0.081152
0.271564
-0.189190
0.003484
-0.033728
-0.180658
-0.150749
0.005627
0.120963
-0.175182
0.117344
0.098410
-0.048457
0.177511
0.274007
0.013061
-0.085433
0.289678
0.152110
0.077991
-0.117567
0.002773
0.131174
0.052179
0.145226
-0.207431
0.193232
-0.039678
-0.108570
0.147796
0.032788
0.012298
0.032552
0.246821
-0.103302
0.264436
-0.023311
-0.047724
-0.162181
0.063634
-0.031876
0.069741
-0.075171
-0.064350
-0.020234
-0.122724
0.066693
0.049132
-0.067130
-0.122616
-0.063841
-0.111607
0.090845
-0.173941
0.091474
-0.114476
-0.029788
-0.009937
-0.082951
0.030344
0.169759
0.072116
0.028022
0.362395
-0.250969
0.165765
0.089720
-0.124982
0.033492
0.413445
0.105290
0.092635
-0.112012
-0.008446
0.081762
0.048042
-0.024339
-0.078479
0.019724
-0.073297
0.088067
-0.130077
0.127794
0.005221
-0.022026
-0.038604
0.026893
0.106273
-0.185663
0.156057
0.028805
-0.139617
0.017402
-0.022477
-0.071569
-0.005812
0.036880
-0.142602
0.122268
0.013397
0.053346
0.083391
0.025370
0.148922
0.090590
0.018620
0.071648
0.053306
0.006018
0.091267
-0.079627
-0.016917
-0.005440
-0.024107
-0.199247
0.009085
-0.014073
0.062232
-0.079780
-0.127650
0.043498
-0.007574
0.049329
-0.106625
-0.252374
0.097649
0.062948
-0.122959
0.007009
-0.019682
0.038581
0.078053
-0.183119
0.284929
0.092437
0.007236
0.008722
0.103096
0.269957
0.113043
-0.059397
-0.013968
0.055102
-0.151754
0.129354
-0.059331
0.092309
-0.145629
-0.055460
0.106721
-0.098641
-0.139683
0.084620
-0.007921
-0.248780
-0.108632
0.050046
0.026176
-0.097684
-0.080620
-0.103664
-0.023723
-0.127785
0.145812
-0.190344
-0.080073
-0.117668
0.032885
0.075182
0.023517
0.006689
-0.034935
0.127654
0.087460
-0.137691
-0.034074
-0.052871
0.058382
-0.113516
0.184984
-0.146387
-0.053102
0.089604
0.022169
0.169888
0.131621
0.065030
0.029987
0.065583
0.057842
0.028904
0.011619
-0.017597
0.058710
0.154818
-0.008084
-0.135733
0.061584
-0.181832
-0.151828
-0.229366
0.008113
0.033751
-0.022925
0.010315
0.067367
-0.061301
-0.155091
-0.011929
-0.105723
0.036482
0.045809
0.081439
-0.079847
-0.164926
-0.131712
0.152599
-0.079637
0.139341
0.208181
-0.167450
0.139893
-0.183001
-0.010918
0.006392
-0.154852
0.197967
-0.004086
0.128252
0.130548
0.160967
0.134442
-0.059175
0.262598
0.007190
-0.183331
0.047397
0.062192
0.306933
-0.008552
-0.233055
0.076938
-0.260508
0.135817
0.059708
0.132332
0.013845
0.076388
0.027567
-0.167247
-0.057564
0.006888
0.099884
0.155295
-0.104228
-0.354386
-0.009011
0.115148
-0.129736
0.075707
0.044137
-0.038849
0.041784
0.135201
-0.084713
-0.237812
0.106902
-0.000096
-0.006124
-0.113698
0.007336
0.239206
0.148102
0.061636
0.061622
0.170601
0.122268
-0.150785
0.108473
-0.079355
0.066811
0.109795
-0.003750
0.057408
0.268040
0.221205
-0.069807
0.200634
-0.013723
0.004968
0.000361
-0.153531
-0.233029
-0.228965
0.146123
0.007240
0.104924
-0.004825
-0.000610
-0.095921
0.240048
0.038396
0.209979
-0.126632
0.092466
-0.256213
0.142828
0.138081
-0.123432
0.025197
-0.055809
-0.049346
-0.156141
-0.064198
-0.077483
0.042258
0.143709
-0.004812
0.004292
0.186864
-0.007768
0.041021
0.020599
-0.008613
-0.157478
-0.071166
0.158243
0.151121
0.043458
0.105261
0.021661
-0.053899
-0.199610
0.184077
0.258647
-0.045202
0.115150
0.069281
-0.151694
0.044960
0.117851
-0.152286
-0.086503
-0.126969
0.129190
0.065801
-0.055803
-0.185350
-0.227327
0.058771
-0.201717
-0.035333
0.085486
-0.031567
0.180366
0.159510
-0.026932
0.070779
-0.081479
-0.137152
-0.004858
0.174845
-0.007817
-0.095795
-0.029074
-0.207471
0.051404
0.026582
0.081642
-0.026870
0.142114
-0.125850
-0.160610
-0.032355
-0.069104
0.316670
-0.007527
-0.159243
-0.003886
-0.094329
0.075786
-0.100878
-0.094403
-0.092275
-0.018842
0.075489
-0.023058
-0.022770
0.099807
0.107345
-0.115676
-0.462009
-0.069766
-0.167681
0.225452
-0.293787
-0.083823
-0.139017
0.047519
-0.109193
-0.115916
-0.247628
-0.022520
0.053916
-0.023442
0.060049
-0.230254
0.032449
0.141033
0.028322
0.077370
0.251616
0.016285
0.080312
-0.308544
-0.011220
-0.098574
-0.162109
-0.109374
-0.059214
-0.152903
0.042988
-0.161580
-0.085479
0.024560
-0.150508
0.084265
-0.150702
-0.097838
-0.273179
0.119203
0.064766
0.084309
0.100953
0.037903
-0.155604
-0.050508
0.125146
-0.053419
0.152786
0.129217
0.036965
0.035173
-0.014653
0.137242
-0.162609
-0.134204
0.058378
-0.149808
-0.040582
-0.117477
0.205789
-0.034965
-0.013101
0.052635
-0.082693
-0.226892
-0.073161
-0.161809
-0.163535
0.048129
0.009183
-0.177358
-0.100442
-0.077141
-0.218251
-0.210979
0.114504
0.120904
0.227995
0.170762
0.266535
-0.105405
0.249267
0.154432
-0.114991
0.089844
0.039670
0.153179
-0.103850
-0.000036
-0.238617
0.013055
0.138847
0.124837
0.107868
-0.113827
0.209949
0.124523
0.145197
0.183264
-0.091844
0.074390
-0.059603
-0.061298
-0.024865
-0.054773
0.035776
-0.383578
-0.154574
0.121097
0.277963
0.058981
0.069204
0.108005
0.080477
-0.136885
-0.038255
-0.045114
-0.043674
-0.008970
0.078499
-0.035586
0.099246
0.181787
-0.067716
-0.089004
-0.255779
-0.052592
-0.144124
0.021998
-0.109028
-0.163320
-0.035433
0.034721
0.170955
0.063339
0.090235
0.002540
-0.115725
0.105501
0.170106
-0.136656
-0.216088
0.140659
-0.102999
-0.113998
0.018551
-0.089706
-0.141991
0.181915
-0.067486
0.230315
-0.132447
0.175220
-0.205358
0.042489
0.032206
-0.270029
-0.046376
0.116849
0.130120
-0.042774
-0.099759
-0.003214
-0.050483
0.085935
0.044234
0.003388
0.150947
0.108743
0.058931
-0.006689
0.010696
0.022963
-0.085696
0.040684
-0.038812
-0.184207
-0.094547
0.186043
0.124495
-0.130529
0.223352
0.054441
-0.067627
-0.017024
-0.125208
0.054973
-0.051607
-0.005212
0.068119
-0.120778
0.003937
-0.096439
-0.110915
-0.109577
0.108011
-0.097392
0.177660
0.032988
0.045983
-0.167115
0.169901
0.196843
0.049953
0.051179
-0.005415
0.098463
-0.115826
0.009707
0.058310
0.100445
-0.045600
-0.084435
-0.111984
0.143139
0.118007
0.063305
0.174436
0.021232
-0.209020
-0.043979
-0.169595
-0.042129
0.145497
0.180076
-0.085616
-0.035384
-0.118399
0.092938
0.127731
-0.092566
-0.028526
0.052594
-0.060890
-0.079191
-0.182243
0.119685
0.152401
0.021054
-0.109741
0.047530
-0.035561
0.019515
-0.159497
-0.136752
-0.044464
0.173763
0.010983
-0.058715
0.245394
0.110247
-0.130552
0.179752
0.105486
0.012881
0.083207
-0.013768
-0.008223
-0.058508
-0.231802
-0.018321
-0.011842
0.054478
-0.104596
0.169643
0.140146
0.085414
0.022654
-0.104139
0.037294
0.026359
0.239541
-0.056114
0.119756
-0.107951
0.261848
0.166755
-0.006051
0.009854
0.216592
-0.102466
-0.137764
-0.046992
0.135014
0.078662
0.009892
0.002652
-0.282111
-0.160056
0.055475
0.100531
-0.025288
-0.185020
0.059850
-0.026710
-0.088186
0.031261
0.096831
-0.004000
-0.194322
0.036236
0.040915
-0.190492
-0.017815
0.198873
0.054786
0.074997
0.053625
-0.053936
0.126858
-0.062678
0.085198
0.073569
0.018097
0.147507
-0.152480
-0.176045
-0.183557
-0.126253
-0.118261
0.060896
-0.167533
-0.245214
-0.128038
-0.095732
-0.061738
-0.121583
0.105916
-0.217225
0.001854
0.038570
-0.065300
-0.004401
-0.012953
-0.152444
-0.027124
0.014959
-0.093398
-0.029540
0.289772
0.026721
0.002953
0.105690
0.017220
-0.020957
-0.042063
0.180434
0.352530
-0.024574
-0.021304
-0.027767
0.026816
-0.005424
0.054721
-0.110396
-0.021743
-0.057755
0.015925
-0.080980
-0.179297
0.021324
-0.088531
0.157703
0.027940
0.222737
0.223434
0.066213
-0.133128
0.016683
-0.008765
0.045932
0.004531
-0.113761
-0.073917
-0.059325
0.010435
-0.081952
0.090515
-0.037087
-0.176664
0.070967
-0.035551
-0.154094
-0.014897
0.053630
0.064251
0.227716
0.017744
-0.078977
0.074803
-0.105375
-0.020099
0.106198
0.195235
0.026218
0.159009
0.006759
0.156446
0.033308
-0.075065
-0.063302
0.012300
-0.000144
0.137234
0.091011
0.064838
-0.063839
0.209319
-0.099340
0.054948
0.060396
-0.104407
0.011237
0.034264
-0.071887
-0.023881
-0.025253
0.076218
-0.045631
0.004126
-0.032237
0.007583
-0.019631
0.103180
0.102527
-0.007480
0.038934
0.051510
-0.099187
0.008072
0.136997
-0.142286
-0.026697
-0.031653
0.057223
-0.091530
-0.006770
0.039114
-0.104845
-0.053406
0.021750
0.105201
-0.042166
0.048039
-0.100190
0.097814
-0.133503
0.348320
0.040747
0.232509
-0.079930
0.041916
0.103629
-0.101262
0.105091
0.084650
0.020915
-0.036125
0.080486
-0.045647
-0.039351
0.122841
-0.062536
-0.001133
0.124663
-0.021945
-0.026944
0.102115
-0.178082
-0.145111
-0.197080
0.170537
-0.097661
-0.162029
-0.069319
-0.038885
0.088999
0.108504
-0.081885
0.085229
-0.057372
0.113914
-0.044918
0.120652
-0.000794
0.094168
-0.084578
0.104410
0.004260
0.108710
0.140881
0.050295
0.127507
-0.242832
0.126226
0.064789
-0.058979
0.080711
0.027739
-0.134361
0.108929
0.037858
0.018720
-0.035915
0.110248
0.084614
-0.087414
0.003140
-0.166477
0.044935
-0.023400
0.293075
-0.166230
0.160534
-0.029867
0.072515
0.240791
0.237486
-0.085006
0.134211
-0.043869
-0.097146
0.054884
-0.097702
-0.040875
-0.186276
-0.067443
-0.296562
0.003868
-0.184716
0.223305
-0.019272
0.055656
-0.001110
-0.026795
-0.080147
0.079065
0.057831
-0.065426
-0.155806
0.116592
-0.036992
-0.102655
-0.019353
-0.082335
0.077544
0.022635
0.081683
-0.101779
0.035701
0.214900
-0.081198
-0.101792
0.085028
0.123547
-0.078318
-0.026500
-0.154349
-0.147565
-0.005414
0.232651
-0.040071
-0.400778
-0.098932
-0.041875
-0.052369
-0.143025
0.221665
0.092273
0.156571
-0.041346
-0.166558
-0.082182
0.053460
-0.105300
-0.026762
-0.142147
-0.167653
-0.020916
0.172101
-0.131961
0.230900
-0.019806
-0.158533
0.024887
0.239292
0.288703
0.145474
-0.144027
-0.051895
-0.042536
-0.126016
0.060488
-0.117874
0.206597
0.022295
0.014795
-0.055483
0.118451
-0.098899
-0.091355
0.066173
-0.302739
0.116424
0.236702
0.179252
-0.083176
-0.063619
0.132801
-0.081152
-0.127043
-0.051486
0.041857
0.041496
0.011634
-0.001061
0.053399
-0.005395
0.047646
0.153512
-0.116918
-0.092511
-0.015289
0.054193
-0.069700
-0.186124
-0.068361
-0.014723
-0.050572
-0.104350
0.087121
-0.219505
0.125173
-0.048743
-0.032674
-0.113963
-0.009774
-0.305043
-0.020895
-0.011313
-0.040308
0.051526
-0.165392
-0.075259
0.007431
0.119580
-0.088088
0.173491
0.141598
0.055651
-0.118368
0.036975
0.079411
0.014665
0.018972
-0.102100
-0.143271
-0.022618
0.109594
0.237781
-0.014300
-0.004355
0.009192
0.047570
0.002108
-0.026542
-0.167036
-0.069039
0.094630
-0.062192
-0.114215
0.121105
-0.044246
-0.168375
-0.226048
0.073529
-0.061181
-0.034640
0.144686
0.028755
-0.133143
0.085873
0.254107
0.008169
0.048710
-0.015624
0.023356
-0.292450
-0.051119
-0.176314
0.002715
0.042680
0.104520
-0.058139
-0.008327
0.073118
-0.096613
0.175743
-0.078739
-0.073085
0.092194
-0.194040
-0.099003
0.181815
-0.019411
-0.046472
-0.181862
-0.186970
0.056050
0.074035
0.209779
0.000248
-0.094497
0.012561
-0.092481
-0.074983
0.077765
-0.086053
0.010702
0.198061
0.031790
-0.075988
0.083584
0.033003
-0.136057
-0.140812
0.154160
-0.007284
0.054365
0.171055
-0.060932
-0.114220
0.131126
-0.091467
0.065266
-0.144805
-0.153943
0.081021
0.046215
0.007469
0.093297
0.094018
-0.002055
-0.031749
0.125906
0.065326
0.045119
-0.006199
0.066969
-0.031879
0.089668
0.114595
-0.039083
0.062277
0.069025
0.209155
0.033911
0.157433
-0.092512
-0.125530
-0.060497
-0.046913
0.089540
-0.032859
-0.138598
-0.012877
-0.045218
0.076799
0.016924
-0.023109
-0.005237
-0.062322
-0.131627
0.038429
0.097484
0.062127
0.326273
-0.078045
0.143776
-0.158810
-0.048617
0.127265
-0.072607
0.060204
0.138563
-0.099245
0.155807
0.042272
-0.016065
0.055035
0.279252
-0.156729
0.083419
-0.049094
0.090373
0.125026
-0.067010
-0.035084
-0.129492
-0.203850
0.000846
0.121782
-0.124675
0.111003
-0.140212
0.001400
-0.203003
0.179336
0.168196
0.209226
-0.040394
-0.058154
-0.061789
-0.097924
0.011762
-0.007934
-0.001775
-0.267777
-0.066394
-0.175667
0.028427
0.175402
-0.095610
-0.113587
0.138991
-0.019370
0.257852
0.208642
0.021585
-0.193653
-0.181800
-0.000837
-0.121336
0.015129
0.062716
-0.052747
0.059939
0.052607
0.064729
-0.006274
-0.003516
-0.064636
-0.233254
0.012477
0.001070
0.049146
-0.147213
-0.092751
-0.061595
0.014865
0.167713
0.075805
0.024458
-0.099944
0.006527
0.227433
-0.099301
0.063626
0.034827
-0.071372
-0.000224
0.003462
-0.108909
-0.005160
-0.111813
0.083071
0.026547
0.052630
-0.145496
-0.000170
-0.195345
0.139467
-0.089513
0.077032
0.124669
-0.144444
0.051595
0.029690
-0.055213
-0.024489
0.049655
0.106495
-0.056062
-0.026638
0.115859
-0.090821
0.142420
-0.198678
0.106513
-0.098392
0.104345
-0.094011
-0.034539
-0.027741
-0.045489
-0.130799
-0.060170
0.090298
-0.124396
0.017742
0.118741
-0.207426
0.043983
0.022256
-0.152438
-0.100368
0.120551
-0.143682
-0.079390
0.027854
-0.096483
0.070099
-0.058568
-0.044781
-0.059498
0.007301
0.147238
-0.043759
0.031519
0.004588
0.118886
-0.094449
-0.134066
-0.087556
-0.080238
-0.104292
0.029821
-0.016307
0.121716
-0.123414
-0.115263
0.010421
0.063493
0.075414
-0.068536
0.098819
0.013684
0.015918
0.003720
0.052184
0.037815
0.062179
0.064968
0.001888
0.117045
0.262504
0.109513
0.041686
-0.045571
0.081065
0.221207
-0.273108
0.067223
0.023403
0.002744
-0.081238
-0.012868
-0.022140
-0.004748
0.156032
0.160392
0.014662
-0.117652
0.143914
-0.055168
-0.163295
-0.128256
-0.075568
0.161115
-0.096255
-0.017797
-0.100398
0.146863
0.026480
0.049774
0.055949
0.027084
0.049075
0.016118
-0.079268
-0.042968
-0.008502
0.012078
0.009814
-0.034798
-0.009341
0.071431
-0.152737
-0.044512
-0.096694
0.020081
-0.013659
-0.054331
-0.119131
0.136307
0.008454
0.011796
-0.111090
-0.019235
0.160396
-0.132343
0.193887
-0.269286
-0.153373
-0.173615
0.131254
-0.111959
-0.013631
0.036102
0.089968
-0.109738
0.052721
-0.060602
0.138190
0.116507
-0.077730
-0.089466
-0.068897
0.138070
0.107879
0.117022
-0.039930
0.011173
-0.016024
0.101440
-0.139706
0.021224
-0.198020
0.008975
0.017208
-0.107444
0.026592
-0.185459
-0.053938
-0.068245
0.081355
-0.103823
0.049078
0.081078
0.012327
0.070865
-0.075633
0.196134
0.093178
0.127617
-0.147354
-0.020270
-0.359223
0.103880
0.038196
-0.019600
0.033842
0.061568
-0.088038
-0.022076
-0.039842
0.078067
0.073661
-0.125762
-0.078618
0.106969
-0.089115
-0.079234
0.234783
0.040217
-0.052343
-0.153506
-0.022416
-0.063440
0.170780
0.236131
-0.155555
0.086477
0.020726
0.123366
-0.216667
-0.034697
-0.077096
0.003436
0.151226
0.059997
-0.085401
0.144419
-0.137313
0.041438
-0.138380
0.003120
-0.081854
-0.134908
0.161520
-0.276984
0.033900
-0.114863
0.079372
-0.097016
-0.065180
0.104715
0.083928
0.104683
0.084031
-0.312602
-0.226508
0.188416
0.258300
-0.042235
-0.167869
-0.177856
0.114355
-0.158113
0.129388
0.025465
-0.294871
0.201411
-0.167682
-0.318616
-0.170122
0.004041
-0.346556
0.231148
0.113801
0.090581
-0.292121
0.063495
0.237551
0.292903
0.108090
-0.171278
-0.077160
-0.264700
0.109683
0.173452
-0.188840
0.243322
-0.084469
-0.096845
-0.054878
-0.318465
0.222333
-0.037072
0.200397
0.001631
0.201475
0.122166
0.147048
0.128871
0.055764
-0.042247
0.211915
0.247560
-0.002142
-0.088712
0.003682
0.101395
-0.017470
-0.145430
-0.360805
0.043551
-0.074477
0.094365
0.053976
-0.011810
-0.185762
-0.063183
0.222229
0.085283
0.297687
0.085170
0.190637
-0.259627
-0.248249
-0.050145
-0.132866
0.185476
0.120708
0.067864
-0.112319
-0.038959
0.210256
0.155862
0.118655
0.041575
-0.118142
-0.002409
-0.018863
-0.253244
-0.211607
-0.010997
-0.135681
0.152463
0.000969
-0.099925
0.121089
-0.052259
0.096285
-0.100193
-0.137574
0.092612
-0.125872
0.068334
0.162392
-0.064230
-0.220428
0.251720
-0.170607
-0.001263
0.534177
0.016571
-0.125942
-0.088865
0.197530
-0.032487
-0.086483
0.033291
-0.015291
-0.018225
0.082069
-0.200170
0.052759
0.001143
-0.147319
-0.209039
-0.074274
0.047634
0.122060
-0.138540
0.097357
-0.150010
-0.010218
0.078734
-0.068544
0.072336
0.037200
-0.243092
-0.066797
-0.061950
0.006804
-0.085547
-0.004912
-0.001553
0.165488
-0.145007
-0.084777
0.125942
0.038866
0.055588
-0.123578
-0.037625
-0.290369
-0.116943
0.091430
0.086363
-0.004567
-0.169467
-0.118198
-0.060790
-0.099752
-0.068467
0.245166
-0.086314
-0.174156
0.053205
-0.135964
-0.106460
0.146739
-0.106970
-0.016706
-0.035926
0.169124
-0.028895
-0.068689
0.032392
0.078026
0.104426
-0.030745
0.143354
-0.196738
-0.039204
0.107721
0.160164
-0.131153
0.063438
-0.183040
-0.137046
0.105200
0.025502
0.108502
0.060676
-0.078944
-0.090424
-0.118635
0.018431
-0.126975
0.174323
-0.048202
0.053461
0.054683
-0.093056
0.095818
-0.158236
0.083810
-0.070060
0.032445
0.145389
-0.038507
-0.245419
0.097887
0.058012
0.118510
-0.161413
0.056884
0.161458
-0.268431
0.100512
-0.120368
-0.107522
-0.088725
-0.116591
0.159968
0.034633
-0.103703
0.116659
0.027073
0.218526
0.159322
0.036093
0.094887
0.119275
-0.037075
-0.327449
0.089025
-0.032693
0.068433
0.077236
-0.156425
0.170637
0.050140
0.168630
-0.145860
0.097490
0.225067
-0.085445
0.033793
0.006292
-0.202744
-0.197455
0.096093
-0.050618
0.088903
-0.328168
-0.071887
-0.007853
0.045211
-0.049177
0.088014
-0.017709
-0.093848
0.008773
0.130053
0.019239
0.079891
0.129520
0.102207
0.202187
0.017126
-0.118849
0.056522
-0.094647
-0.170006
-0.263787
-0.139482
-0.019667
0.039785
-0.058865
-0.037124
-0.094801
0.011800
-0.254306
0.017196
-0.100893
-0.066186
-0.044546
-0.010660
-0.097179
-0.132274
-0.144226
0.011156
0.166546
-0.008004
-0.172860
0.156530
-0.033484
-0.145957
-0.041456
0.010565
-0.067739
0.378373
0.109549
0.109835
0.143436
0.037485
-0.195873
0.200365
0.044670
-0.057378
-0.061915
0.105662
0.316650
-0.067641
-0.117605
-0.184906
-0.081282
0.004633
0.000527
0.219087
-0.054176
0.251212
0.139306
0.128753
-0.102894
0.221687
-0.083807
0.222034
-0.019710
-0.223074
-0.005989
0.066042
-0.023478
0.115670
-0.100779
-0.048206
0.015155
-0.042263
0.202355
0.028156
-0.121717
0.085759
-0.026044
0.003554
0.013332
0.142081
0.389066
-0.104398
-0.092499
0.047009
-0.118614
-0.004259
-0.100879
-0.048593
-0.011675
-0.003309
0.390055
-0.057162
0.294437
0.026839
-0.075642
0.272175
-0.395478
0.102244
-0.063088
-0.229426
-0.247366
-0.050846
0.005548
-0.262606
-0.011816
0.159824
0.243236
0.097918
0.085863
0.133806
-0.063702
0.252317
-0.313590
-0.032287
-0.061717
-0.078540
0.107531
0.197941
-0.106020
0.057749
-0.035543
0.088488
0.104205
0.216140
0.129521
-0.327444
0.176018
-0.249215
-0.189362
-0.243496
0.252313
-0.071860
0.093664
-0.173279
-0.000955
0.007091
-0.014117
0.244138
-0.186599
-0.181482
0.201887
-0.094488
-0.066762
0.091691
-0.028285
0.090018
0.160906
0.163322
-0.079948
-0.043001
0.274887
-0.190024
0.147212
0.064364
0.233342
0.016965
-0.127949
-0.205458
-0.177946
0.012346
0.256101
0.089690
-0.280951
-0.080650
-0.279623
0.203885
-0.236318
0.195796
0.041382
0.207734
0.084938
-0.092835
0.071258
0.001296
-0.193136
-0.240870
-0.058643
-0.020890
0.246108
0.203352
-0.130537
0.183254
0.190364
0.057678
-0.132065
0.122156
0.117009
0.023087
-0.222691
-0.171842
-0.037864
0.081493
0.090189
0.010476
0.045807
-0.062464
-0.108060
0.128851
0.039775
-0.404175
0.169403
0.022732
-0.109157
-0.035381
0.062507
0.274247
-0.219540
-0.163519
-0.158269
0.042325
0.030623
0.072015
0.069425
0.043550
0.139835
-0.061420
-0.029946
-0.050098
0.112881
0.303793
0.096412
-0.012133
0.030736
0.042895
-0.049576
-0.023587
0.016135
-0.011691
0.141205
-0.179359
-0.117328
0.193628
0.055106
0.018117
-0.108341
0.015562
-0.224890
0.031781
-0.034604
0.161913
-0.059359
0.017621
0.074551
0.133187
0.001341
-0.089542
-0.084594
-0.102326
0.106035
-0.011891
-0.067546
-0.082614
0.215392
-0.046657
-0.071964
-0.112806
-0.276008
0.087517
0.234343
-0.012056
-0.003071
-0.015050
-0.086968
-0.051259
-0.014124
-0.015545
0.360229
-0.008546
0.104456
0.002479
0.113015
0.080918
-0.018002
-0.126541
0.119234
0.156157
0.121676
-0.025437
0.009132
-0.091343
-0.024176
-0.063050
-0.037191
-0.201791
-0.126578
0.337502
0.162317
-0.008099
0.072396
-0.221982
0.074465
-0.188883
-0.275644
0.232213
-0.006046
0.121505
0.149954
0.108102
0.005422
0.149330
0.121920
0.101556
0.089060
-0.041698
0.337756
0.007966
0.023537
0.122739
-0.006747
-0.043725
0.058523
-0.091022
0.172126
0.190356
0.029656
-0.032857
-0.035896
0.014545
0.017290
0.173445
0.278735
-0.015066
0.002265
-0.123591
-0.084693
0.194095
0.097294
0.108539
-0.203974
0.225921
-0.002145
-0.067707
-0.004898
-0.133798
-0.138183
0.106114
-0.112453
-0.183413
-0.169406
-0.027645
0.144191
0.264477
-0.123195
0.020351
0.104934
0.272598
-0.015283
-0.209428
-0.125809
-0.083163
-0.210660
-0.032950
-0.184133
0.073348
0.411730
-0.132720
-0.003278
-0.184786
0.071170
-0.029230
0.137994
0.163727
-0.173169
-0.148114
-0.242671
-0.057489
-0.044151
-0.075654
-0.040785
-0.072363
-0.003955
0.205682
-0.137477
0.031863
-0.022932
0.031778
0.233434
-0.034095
-0.079431
-0.098011
-0.169116
-0.128534
0.076141
-0.177885
0.010254
-0.159437
-0.071557
-0.199728
0.217624
0.223044
0.058304
-0.027837
-0.005620
0.054961
0.003703
0.299970
-0.002016
0.054043
0.141005
0.036685
0.037058
-0.129273
-0.065599
0.164445
0.085776
-0.175458
0.063419
-0.149750
0.188518
-0.114139
-0.184252
0.122529
-0.113912
-0.083384
0.076481
0.267758
0.193979
-0.103820
0.064874
-0.070418
0.098409
0.029875
0.229601
0.108416
0.152766
-0.040767
0.005242
-0.071363
0.177670
0.164223
0.049461
-0.047951
0.306828
-0.097690
0.075831
-0.077180
-0.208056
0.010033
-0.117159
-0.024367
-0.098158
0.090708
-0.038228
0.102159
-0.178588
-0.358824
-0.342328
0.153771
0.236474
0.090598
0.197222
-0.115053
0.028924
0.054495
0.062487
-0.087613
0.055959
0.074215
0.073206
-0.021077
-0.014790
-0.119201
0.098522
-0.006869
0.005575
-0.121477
0.143723
-0.166595
0.088204
0.102937
0.234048
-0.232263
0.194487
-0.044669
-0.012604
0.117409
0.008237
-0.215080
-0.202302
0.003210
-0.012021
-0.091991
-0.149910
-0.058487
0.059371
0.072226
0.090921
0.336225
-0.019006
0.041305
0.106408
-0.066629
-0.092289
0.107200
0.065116
0.162953
0.182275
-0.056186
0.183432
0.222706
-0.040599
0.164002
0.032474
0.115182
-0.056372
0.090778
-0.065519
0.006176
0.090592
-0.060328
-0.085819
0.049044
-0.005646
0.012010
-0.039692
-0.219849
-0.110821
-0.092680
-0.136870
-0.147808
0.084728
-0.097338
0.101533
-0.028633
-0.081366
0.052430
-0.090473
0.226627
0.069141
0.169305
0.184303
-0.106439
0.088948
-0.197823
0.085999
-0.198236
0.003909
0.057311
-0.015703
-0.124992
-0.144067
-0.097988
-0.191110
0.162514
-0.049688
-0.200490
-0.008702
-0.202521
-0.018493
-0.057543
-0.112941
0.243292
-0.152557
0.248178
-0.058310
0.149051
0.071384
-0.059321
0.062232
-0.067156
-0.177448
-0.029742
0.145991
-0.232066
-0.115642
0.141685
0.131100
0.104837
-0.079691
-0.194480
0.013028
-0.001836
0.128756
-0.051798
-0.094454
-0.086284
0.133789
0.166490
0.067528
0.111368
0.029327
0.308612
0.017163
0.019573
0.017657
-0.188052
-0.080778
-0.029811
-0.233896
-0.083731
-0.124829
-0.150758
0.199579
0.039219
0.157907
0.027773
0.051675
-0.313250
0.147630
-0.161498
0.232553
0.105619
-0.115477
-0.079299
-0.168771
0.055725
0.003858
0.139713
-0.093071
0.016089
-0.196827
0.079651
-0.095707
-0.064317
-0.098043
0.092561
0.142171
-0.265532
-0.134022
-0.147328
-0.000112
-0.034331
0.044676
-0.059166
-0.219450
-0.131314
-0.044324
-0.162983
-0.092145
0.192667
-0.159065
-0.060053
-0.183582
0.058028
-0.102011
0.232248
0.104988
-0.077103
0.029482
0.157581
0.059364
-0.040379
0.185706
-0.110136
0.130595
-0.238033
0.151042
-0.091675
0.034874
-0.191048
-0.116191
0.161628
-0.024498
-0.102242
-0.131250
0.110356
0.036706
-0.137947
-0.085931
-0.022869
0.136968
-0.050968
0.109044
-0.097105
-0.042959
0.048587
-0.245208
-0.035731
0.052656
0.111849
0.047198
0.129535
-0.259493
-0.000978
-0.129336
0.202431
0.083331
-0.169001
-0.147242
0.158909
0.094041
0.084198
0.057077
0.156639
-0.084987
-0.133725
0.049079
-0.039452
0.330976
-0.206446
0.058201
0.005038
-0.011757
0.059641
-0.160774
0.018888
0.193124
0.027926
-0.038498
0.203750
-0.011900
-0.111985
-0.051625
0.026057
-0.063848
-0.204501
-0.037539
0.068193
0.178934
0.055396
0.272182
-0.136112
0.239645
-0.185366
-0.009778
0.304860
-0.169849
-0.250405
-0.035873
-0.039249
-0.060982
0.018932
-0.033846
0.040499
0.023244
0.064073
-0.078768
0.300282
0.110433
0.172649
0.005366
0.043300
0.202641
0.190856
0.037141
-0.032341
-0.025735
-0.162602
0.243322
0.139938
-0.092420
0.128975
0.034902
-0.042276
0.109294
0.069615
-0.081960
-0.080315
0.084733
-0.175261
-0.134065
0.065883
0.008274
-0.051941
-0.084649
-0.104018
-0.046315
0.065391
-0.040484
0.053236
0.044767
0.147681
0.230768
-0.098721
-0.008717
0.138569
0.088758
0.157074
-0.072709
0.020822
0.312537
-0.083794
-0.001219
0.013206
0.004531
-0.110852
-0.094463
0.089439
-0.104373
-0.059144
0.064408
-0.306833
-0.242704
0.122347
0.058395
-0.170792
-0.070867
0.056847
-0.120596
0.087388
-0.193695
0.216171
-0.197213
0.003330
-0.122442
-0.103323
0.050409
0.008851
-0.010660
0.221588
-0.149703
0.036610
0.222940
0.010793
0.081405
0.088795
0.218158
0.086302
-0.014079
0.331648
-0.095225
-0.084640
0.255344
-0.115053
0.169119
0.046664
-0.238528
0.152777
-0.139863
0.043894
0.010058
0.139110
0.064458
-0.090695
0.063328
0.070100
0.100250
-0.258802
0.055918
-0.021172
-0.103537
0.052224
-0.386224
-0.074239
0.145509
-0.408496
0.049721
-0.107226
-0.052784
0.040461
0.177400
-0.044757
-0.092510
-0.085759
0.080565
-0.179627
0.240834
-0.114349
0.137766
-0.056223
0.206561
0.066704
0.032655
0.026494
0.156666
-0.087684
0.069373
0.212119
-0.158214
0.072692
0.033106
0.045720
0.245031
-0.001636
-0.199524
-0.089962
-0.102251
-0.266438
0.137749
0.070137
0.131467
0.175328
0.013902
0.139994
-0.007631
-0.231789
0.046579
-0.149105
0.067362
-0.145082
0.048779
-0.177063
-0.260739
0.106504
0.131494
-0.180143
-0.296209
0.008609
0.057039
-0.050057
0.009933
-0.006337
-0.095361
-0.026497
0.083338
-0.087237
-0.028543
0.143240
0.070613
0.017038
0.003902
0.026248
0.052522
0.232319
-0.008816
-0.115013
0.024042
-0.186092
0.087369
0.095528
0.209198
-0.192360
0.151620
0.103757
-0.011599
0.170653
-0.071510
0.124044
0.077963
-0.216773
-0.253651
-0.080140
0.112000
0.003833
-0.237303
0.032859
-0.203667
0.045900
-0.054271
0.095675
-0.113233
0.020695
-0.129705
0.050105
-0.099121
0.079867
-0.149236
-0.090441
0.100036
-0.132341
-0.057374
-0.137221
0.103896
0.037126
0.124025
0.207975
0.018425
-0.020731
0.043413
-0.019831
-0.034379
-0.194434
0.017338
-0.139043
0.016685
-0.193988
0.094530
0.008090
0.036096
-0.243192
-0.014375
-0.072082
0.084273
0.181360
0.031284
-0.084620
-0.033962
-0.029467
-0.265245
0.141663
-0.062083
0.023589
-0.109694
0.075701
-0.120947
0.082588
0.053520
0.019934
-0.060678
-0.066188
-0.160391
0.031648
0.062395
0.110919
0.069975
0.035115
-0.084024
0.158760
-0.058023
0.010576
-0.030480
0.000805
-0.009491
-0.158976
0.028916
-0.198398
-0.104173
0.091611
-0.043273
0.030777
-0.075992
-0.030265
-0.004641
0.094888
-0.003415
0.173691
-0.068871
0.069879
-0.073118
0.054421
-0.104230
-0.061335
0.039309
-0.109449
-0.014489
0.105986
0.138495
0.075734
0.043961
0.048479
-0.131922
-0.031408
-0.049892
0.069521
-0.115701
0.033511
0.111475
-0.086230
0.053149
-0.142171
-0.070204
0.081194
0.148515
-0.064830
0.079108
0.130417
0.004544
-0.097718
-0.123894
-0.092323
0.219498
-0.018675
0.248203
0.075799
-0.061110
0.117185
-0.076638
0.096427
-0.164584
0.191839
0.080733
-0.005264
0.012387
-0.051543
0.005950
0.092280
-0.101623
-0.016866
0.021099
-0.166214
-0.007406
-0.024691
0.116099
0.069853
-0.050953
0.279590
0.165460
-0.068246
0.172129
0.125753
0.032429
0.358349
-0.230365
0.068299
-0.050128
0.030502
-0.050052
0.440755
-0.011557
0.114017
-0.031316
-0.145887
0.101793
0.270186
-0.008087
-0.027786
0.063376
-0.054628
-0.164777
-0.018270
0.165920
0.075677
-0.144213
-0.083391
-0.028242
0.082995
0.040463
0.345436
-0.060919
-0.291361
-0.060857
-0.010483
-0.109631
-0.060930
-0.006761
-0.031042
0.162352
0.071170
-0.059288
0.066119
0.137302
-0.135163
0.132335
0.045538
0.098202
0.028231
0.001798
-0.040971
-0.123849
0.001580
-0.056137
0.001469
-0.111300
-0.061012
-0.122742
0.055649
-0.090289
0.030804
-0.057168
0.132138
0.023770
-0.154215
-0.132542
0.148406
-0.041236
-0.048636
-0.065793
0.015574
0.130579
0.163707
-0.065069
0.208317
0.144867
-0.071356
0.078547
0.183687
0.220874
0.314865
-0.092135
-0.141259
-0.098568
0.057502
0.198975
0.034747
0.036232
0.030839
-0.010354
0.241888
0.048749
-0.290436
0.187097
0.079420
-0.184649
0.070083
-0.040035
0.144071
-0.122689
0.091476
0.216682
-0.046053
0.086770
0.107386
0.091243
-0.002669
-0.027586
0.033771
0.108300
0.058240
-0.063114
-0.033325
0.186745
0.287303
0.024666
0.048090
0.001732
-0.197346
0.082341
-0.004382
-0.041104
-0.013415
-0.166875
0.097656
0.053974
0.159813
0.106658
-0.165488
0.123352
-0.165907
-0.011326
0.029711
0.063532
0.175953
-0.197879
-0.295564
-0.142246
0.048896
-0.010884
-0.041866
0.293443
0.074747
-0.138889
0.063182
0.003137
0.152730
0.003016
-0.059358
0.107381
-0.093461
0.005459
0.155104
0.138256
-0.071845
-0.004994
0.027992
-0.197925
-0.057463
-0.279503
-0.099293
-0.008059
0.075603
0.090371
-0.062695
-0.131196
0.022325
0.033006
0.030403
0.095101
-0.115632
-0.155920
-0.039390
0.239643
-0.170972
0.077745
-0.080212
0.147176
-0.320292
0.132113
-0.176083
0.134263
-0.022440
0.007299
0.297628
0.037181
0.025627
0.096783
-0.153536
-0.140056
-0.048570
-0.064475
-0.063846
0.062425
-0.057928
0.063555
0.061301
0.122518
-0.006978
-0.043477
-0.064780
0.072723
0.041996
0.128397
0.010984
-0.140828
-0.029917
0.051663
-0.018383
-0.050295
-0.170383
-0.184532
0.209773
-0.009574
-0.040007
0.079898
0.025512
-0.093851
-0.166842
0.144200
-0.041211
0.098774
0.104739
0.010641
0.060559
-0.047063
0.141476
0.114253
-0.009570
-0.079463
0.064120
-0.059354
-0.115324
-0.204449
-0.171899
0.052980
0.161465
0.114658
0.091183
0.068511
-0.031888
0.029529
0.128679
0.134237
0.025620
-0.034879
-0.184302
-0.059058
0.030641
-0.065706
0.018602
-0.097353
-0.035766
-0.109818
-0.213550
0.132066
0.210088
0.078294
0.022492
-0.111637
0.051186
-0.237362
0.107737
0.123866
-0.088190
-0.120594
-0.003865
0.017052
0.079975
-0.015420
0.043795
-0.065859
-0.104805
-0.042766
0.149366
0.019877
-0.038149
0.228457
0.077940
0.057422
0.199952
-0.097500
-0.105792
0.120129
-0.003613
-0.025517
-0.013701
-0.065749
-0.082467
-0.149009
-0.073001
-0.208828
0.032155
0.010575
0.033805
0.022914
0.107066
0.068694
0.259135
-0.198975
0.069102
-0.005175
0.127441
0.087066
-0.113619
-0.045047
-0.010641
0.048628
-0.002942
0.068922
0.028979
0.078425
-0.087418
-0.103958
0.080478
0.049249
-0.030497
-0.002038
-0.006371
0.008681
0.080260
0.008814
-0.046271
-0.209127
0.251452
0.115531
0.022081
0.135615
0.042705
-0.035894
-0.019020
0.085722
-0.177825
-0.052839
0.092532
0.037634
-0.006234
0.096386
0.140069
-0.078724
-0.129447
-0.039336
-0.177710
0.269179
-0.021406
0.289148
0.084055
-0.182923
0.091741
0.042532
-0.095106
0.083621
0.101272
-0.237984
-0.032547
-0.083189
-0.173089
-0.102881
-0.006435
-0.040179
0.041504
0.044387
-0.008586
0.137525
-0.000154
0.037509
-0.018174
-0.175415
0.202039
-0.026612
0.202232
0.039274
0.325204
-0.041408
0.080937
0.114324
0.243187
0.020917
-0.160037
-0.056249
-0.286943
0.106307
0.042963
-0.114088
-0.062052
0.186928
-0.028736
0.028011
-0.210057
-0.398098
0.020574
0.083627
-0.157858
0.176397
0.056998
-0.089664
0.020947
0.044778
0.022354
0.024379
0.008154
-0.120062
-0.120196
0.093186
0.050203
0.053710
0.011688
0.130067
0.079976
0.081863
-0.035067
-0.054687
0.000852
0.051836
0.099638
0.079878
-0.239809
-0.144525
0.269909
0.049891
-0.128837
-0.108260
-0.085160
0.206525
-0.115552
-0.061000
0.066587
-0.044456
-0.116138
-0.026658
0.024070
-0.042264
0.328382
0.113338
0.027442
-0.074440
-0.096148
0.131335
0.037522
-0.037441
0.214541
-0.248000
-0.157241
-0.040310
-0.131506
-0.077582
-0.044814
-0.099169
-0.269309
-0.066923
0.097940
-0.005461
0.014248
0.418489
-0.103029
-0.003314
0.111266
-0.036594
0.109258
0.110199
-0.000936
0.276665
-0.012143
0.098719
-0.108198
0.152220
-0.058216
-0.081991
0.114769
0.100943
0.098445
-0.023586
0.070203
0.119128
0.086009
0.018614
-0.118317
-0.104906
-0.112832
0.127280
-0.171911
0.093611
-0.019411
-0.064593
0.105218
0.055139
-0.004133
0.076961
-0.012948
0.136581
-0.252378
-0.112356
0.143753
-0.063765
0.164571
-0.159202
-0.105429
0.045387
0.099772
0.210638
0.020483
0.384007
-0.055611
-0.144295
0.038130
0.042402
0.187486
-0.010356
-0.081571
0.134591
-0.177090
0.150630
0.166406
0.019363
-0.080202
0.012347
0.091089
0.004454
0.010788
-0.232110
-0.107845
0.047912
-0.106053
0.124064
-0.087246
0.112811
0.036336
0.006162
0.005526
0.020215
-0.021000
-0.032797
0.105620
0.113357
-0.010006
0.171324
-0.148562
-0.086061
-0.163979
0.028231
-0.059225
0.181190
-0.013347
0.258289
0.162505
0.137020
-0.029891
-0.102181
-0.098133
-0.099936
-0.018761
-0.011102
0.072463
0.053877
-0.206640
0.029650
0.217875
-0.077853
0.003451
-0.164772
-0.101777
-0.078952
0.174100
0.113698
-0.102200
-0.254466
0.008448
-0.036807
-0.131102
-0.045262
-0.151666
-0.042728
0.135883
0.014002
-0.037175
-0.060980
0.067040
-0.082706
-0.134081
0.209822
-0.142737
-0.194755
0.183922
-0.000177
-0.031537
0.100300
0.018475
-0.057827
0.176500
-0.177188
-0.014048
-0.000225
-0.038408
-0.226144
-0.287818
0.090686
-0.095101
-0.196912
0.002479
0.010784
0.212206
-0.005362
0.164518
0.029558
0.060928
-0.093867
-0.137614
-0.228906
-0.518378
-0.019086
-0.023309
0.134956
-0.153281
0.146830
-0.039283
0.055357
0.002489
0.274612
-0.188679
0.086318
-0.137646
-0.106578
-0.039078
0.302405
-0.137914
0.007855
-0.283885
0.014126
0.110019
-0.212260
0.170052
-0.180264
0.225435
0.090774
-0.141159
0.017081
0.047625
-0.062388
-0.024872
-0.031801
0.087466
0.050737
-0.055163
0.046804
-0.061570
0.097894
-0.078220
0.096258
0.011725
0.043708
-0.069644
-0.062777
0.081577
-0.028426
0.052280
-0.105487
0.139001
0.033059
0.080027
-0.059259
0.179036
-0.045363
0.122982
-0.109387
-0.093921
-0.013858
-0.054636
-0.162514
-0.161357
0.160225
0.068223
0.210778
0.036710
-0.173666
0.269021
0.096814
-0.178907
-0.230975
0.133322
-0.100552
-0.370286
-0.009344
-0.218043
0.233865
0.045502
0.202483
-0.043725
-0.106029
-0.070783
-0.187656
0.044121
0.033008
-0.129570
-0.007390
0.050059
0.010856
0.028272
0.008606
0.198252
-0.039859
0.150802
-0.028481
0.136190
0.196508
-0.031714
0.161876
-0.187874
0.170150
0.017056
-0.025576
-0.107137
0.072558
0.063902
0.025103
-0.028699
-0.132725
-0.166141
-0.152184
0.099962
-0.028922
-0.060597
0.045536
-0.047811
-0.057347
0.348624
0.046471
0.061828
0.046028
0.053125
0.042111
0.231543
-0.167765
0.216420
-0.135541
-0.022686
-0.024695
-0.155758
0.103443
0.087811
0.072710
-0.031218
0.258100
-0.059424
0.017483
0.042402
-0.099029
-0.035863
0.051845
-0.004483
-0.266719
0.121455
0.062536
0.069806
-0.032677
-0.107745
0.062327
-0.125905
-0.063605
-0.031908
0.193229
-0.181382
-0.000549
0.001265
-0.008869
-0.006278
-0.031949
0.110179
0.017706
0.401011
-0.044920
0.003847
-0.158288
0.048161
0.021114
0.060427
0.073963
0.050515
-0.186061
-0.111238
-0.094890
-0.152094
0.041212
-0.117870
0.155947
-0.115359
-0.180154
0.013083
0.074950
-0.044304
0.061119
0.162460
0.008265
0.091217
-0.110770
0.075086
0.066719
-0.054950
0.102208
0.073547
0.160606
-0.030633
0.081994
0.042907
0.048083
-0.020706
0.015577
-0.000141
-0.024532
0.041016
-0.203520
0.095877
-0.107676
-0.130192
0.065185
-0.088137
-0.048923
0.073909
-0.039720
0.141911
0.003570
0.070789
-0.133802
0.106525
0.036118
0.174576
-0.118586
0.005199
-0.056404
0.084408
0.092073
-0.168889
0.054349
-0.002631
-0.118159
-0.011272
0.065257
0.024765
0.047706
0.066755
-0.063705
-0.013251
0.079631
-0.106959
0.003529
-0.158139
0.062743
0.122706
-0.053105
0.264119
0.012644
-0.021667
0.105418
0.249925
0.167156
0.078870
0.058692
0.131820
-0.074582
0.045732
-0.100170
-0.089607
0.058385
0.033366
-0.262562
-0.014362
-0.144999
0.116253
-0.200220
-0.165709
-0.056495
-0.014661
-0.152745
-0.148469
0.063278
-0.154025
0.097862
-0.242912
0.128185
0.016113
0.102533
0.080312
-0.019209
-0.021679
-0.078311
0.136608
0.090084
0.012386
0.106118
-0.063190
0.031703
-0.032127
0.320660
0.027001
-0.051640
0.000398
0.125626
-0.019405
-0.044332
0.057233
0.172109
-0.186158
-0.164850
-0.188760
0.023333
-0.067646
0.013423
0.027879
-0.058628
0.113727
0.088131
0.060930
-0.243352
0.192609
-0.048872
0.002611
-0.102902
-0.164745
0.042333
-0.004578
0.058230
0.182211
0.070441
-0.003220
0.077102
0.001130
0.072327
0.094946
0.004788
0.003387
-0.060203
0.102296
-0.173014
0.084265
0.307062
-0.175339
0.234906
0.063872
-0.067894
0.020008
0.022950
-0.007661
0.114657
-0.052964
0.113728
-0.088778
-0.014790
0.144063
-0.294852
0.202199
-0.157814
-0.000992
-0.146286
-0.041444
-0.173738
-0.036101
0.020225
0.138083
-0.155419
-0.034561
0.104796
-0.037737
0.265746
-0.026501
0.035748
0.058385
0.103827
0.071704
-0.121262
0.115518
-0.154466
0.083145
0.088205
0.018920
-0.091701
-0.018512
0.015049
0.286226
0.065897
-0.079762
-0.068784
-0.093829
0.239769
0.001502
-0.059734
0.105664
0.099890
-0.048503
0.007141
-0.135364
-0.203188
0.089176
0.144014
-0.144687
0.103274
0.219589
-0.031536
-0.026246
0.083712
0.127942
-0.004985
0.135781
-0.052855
-0.038078
-0.020181
-0.107781
0.093396
-0.165967
0.093832
-0.318598
-0.120593
-0.000183
-0.148446
-0.015803
0.005983
-0.124662
0.073920
-0.190237
-0.014422
0.178208
-0.040078
0.143811
-0.230593
0.100455
0.224775
0.058973
0.003414
0.112143
-0.004932
0.022676
-0.026311
0.079064
0.118958
0.033685
-0.020532
-0.006953
0.025542
0.226818
0.067286
-0.021170
0.000279
0.218265
-0.038798
-0.031608
-0.092435
0.064695
0.048164
0.130464
-0.079671
-0.238537
0.135216
0.133844
0.001252
-0.108594
0.136894
-0.020081
0.081134
0.042014
0.065769
0.177384
0.108418
-0.096833
-0.096767
-0.053210
-0.036492
-0.035702
0.214787
0.052309
-0.077714
0.151789
-0.017787
-0.049573
-0.066102
-0.041931
-0.085493
0.079070
-0.077852
-0.163796
-0.003190
-0.044533
-0.021108
0.086992
-0.034901
-0.178942
0.042887
-0.076137
0.159185
-0.161619
0.075183
-0.070683
0.026304
-0.069418
-0.033579
0.145541
0.003540
-0.011559
0.020859
0.148868
-0.098912
-0.113109
-0.184347
-0.189374
-0.009740
0.126918
-0.071889
0.003610
-0.028064
-0.056732
0.015363
-0.166815
-0.165151
0.093685
0.020228
-0.319989
-0.096888
-0.158518
-0.142515
-0.137757
0.072486
-0.155349
0.044168
0.214503
0.026817
-0.094145
-0.050058
-0.057129
-0.058602
-0.122262
0.260658
-0.137015
-0.116737
0.066675
0.096003
0.175967
-0.112936
0.098052
0.115135
0.061390
0.085561
0.119960
0.144979
-0.001066
-0.077655
0.014862
0.128573
-0.088213
-0.082800
0.018880
-0.127997
-0.127337
0.028834
-0.017815
-0.091360
0.150572
-0.007888
0.182630
0.032094
-0.197498
-0.112244
-0.107793
0.077598
-0.011338
-0.075799
-0.024318
0.061462
0.066224
0.205297
-0.058487
-0.011297
-0.029983
-0.082091
0.071210
-0.022055
0.107850
0.065970
-0.162920
0.105145
-0.047846
-0.076313
0.063258
0.143033
-0.060789
-0.159795
0.023838
0.263435
-0.029567
0.119137
0.042610
0.038237
-0.062458
0.226537
0.034921
0.009781
0.147631
-0.017724
0.107610
0.141494
0.006774
0.056899
0.099331
-0.052883
-0.081130
-0.085097
0.015014
-0.046499
-0.129509
-0.149051
0.009722
0.022730
0.248301
0.075225
-0.092263
-0.044044
0.066346
-0.002205
0.019579
-0.039020
-0.073691
0.098057
-0.061488
-0.045952
-0.164256
0.069488
-0.029746
0.085620
-0.081909
-0.163734
-0.020142
-0.122699
-0.109367
-0.048181
-0.045734
-0.004402
-0.176540
0.004848
-0.057074
0.002857
-0.145867
0.013122
-0.012786
0.045592
0.071706
-0.023337
-0.005732
-0.073352
-0.034783
-0.042018
0.029539
0.136934
0.349026
-0.099253
0.082083
0.062512
-0.095289
0.029185
-0.128381
0.017118
-0.114715
-0.110812
-0.323396
0.133180
-0.186468
0.094029
-0.160946
-0.008174
0.041546
-0.032858
-0.058467
-0.097335
0.196862
-0.035951
0.067452
-0.243607
0.051331
-0.004640
0.108051
-0.030026
-0.073964
0.053150
0.013707
0.062729
0.153441
-0.151270
0.110133
0.064077
-0.205906
0.105842
0.147334
0.016677
0.020051
-0.094994
-0.071685
-0.165134
0.202778
0.059743
-0.091874
-0.087549
0.128479
0.033849
-0.093358
0.109788
-0.082117
0.117092
-0.178070
-0.080360
-0.111868
-0.145035
0.016172
-0.044802
-0.050013
-0.142552
0.080533
0.008546
-0.227757
-0.034967
-0.098969
0.016228
0.148527
0.030789
-0.042240
-0.184983
-0.036943
0.002491
0.090404
0.145943
0.005377
-0.072160
-0.097131
-0.102390
-0.265947
-0.022657
-0.107957
0.138905
-0.327113
0.013598
-0.085406
0.089443
-0.111869
0.107614
-0.060435
-0.114550
0.137734
-0.075657
0.075954
0.149426
0.006864
0.077139
0.082550
-0.053910
0.138363
0.184552
-0.140555
0.053968
0.192593
-0.064839
0.006036
-0.050969
0.200323
-0.028101
0.123905
-0.227941
0.031726
-0.124692
-0.114282
-0.043851
0.119531
-0.007399
0.057552
-0.105444
-0.437411
0.090499
-0.039056
-0.069675
-0.065152
-0.159350
-0.059619
-0.105609
0.073601
0.226914
-0.074272
-0.227290
0.138735
-0.227549
0.231788
-0.186810
0.167892
0.113912
-0.011064
0.004624
0.007392
-0.021936
-0.146394
0.160844
-0.195760
-0.040375
-0.197775
-0.074906
0.173227
-0.206591
0.103741
-0.131947
-0.157057
-0.136787
-0.057559
-0.005128
0.040079
0.095138
0.027974
0.030440
-0.058858
0.180453
0.030619
0.099508
-0.098545
-0.302356
0.273009
0.069330
-0.166927
0.240852
0.007303
-0.146599
-0.080592
0.046317
-0.151131
0.003706
-0.006076
0.111301
-0.113162
-0.245759
-0.044870
0.013705
0.234847
-0.086533
-0.003004
-0.108999
0.070344
0.040293
0.189453
0.107036
-0.029131
0.012772
-0.048515
-0.093145
-0.042162
0.055119
-0.043801
0.098156
0.061499
-0.028451
0.013225
0.206958
0.005432
0.086610
-0.030469
0.103504
0.054055
-0.133651
0.053394
0.100380
0.061457
0.101531
-0.059550
0.097933
0.150037
-0.053239
0.024555
0.172630
0.056831
-0.201345
-0.118524
0.023467
-0.182566
0.031776
-0.076234
0.007117
-0.134066
0.086013
0.103050
-0.009646
0.057007
-0.102795
0.068892
0.065332
0.049190
-0.014542
-0.037776
0.047278
0.190955
0.012563
-0.362657
0.113485
-0.177548
0.004647
-0.124767
-0.037935
-0.149040
-0.038290
-0.099038
0.076051
-0.068866
0.063313
0.087832
-0.123362
0.039479
-0.111497
0.093569
0.099298
-0.199674
0.077110
-0.022817
-0.128009
-0.251996
0.132154
-0.043866
0.118709
-0.099333
0.051058
0.170303
-0.188243
-0.021768
-0.079849
0.079434
0.042591
0.066749
-0.078038
0.102971
-0.135428
-0.072813
0.006710
-0.030958
0.103126
-0.163595
-0.084465
-0.061811
-0.150089
0.154401
-0.056887
0.082761
-0.013030
-0.069806
-0.043118
0.113553
0.069394
-0.269780
-0.379908
0.065318
-0.181194
0.043616
0.026018
-0.243004
0.116038
-0.161518
0.098878
-0.132142
0.106970
-0.014992
-0.019148
0.298532
-0.019295
-0.027743
-0.194845
-0.075107
-0.139578
0.007226
0.231857
-0.247055
0.281012
-0.127605
0.071931
-0.065432
-0.040723
-0.157654
0.109268
-0.150650
-0.058365
0.092299
0.014795
-0.072414
-0.066432
0.178970
-0.250833
0.177844
-0.003621
0.174894
0.007182
0.038499
0.028045
0.144095
-0.011452
-0.033915
0.023404
-0.157118
0.183221
0.144641
-0.183536
0.052996
-0.149827
0.065751
0.084543
0.113251
-0.187895
-0.015258
-0.082678
-0.224003
-0.186654
0.078926
-0.017962
0.004930
-0.028437
-0.210628
0.010607
0.134961
0.121074
-0.014265
-0.245288
0.066773
0.215150
-0.031001
0.227909
0.066449
0.101744
0.163506
-0.114968
0.109900
-0.116720
-0.082778
0.114662
-0.011187
-0.010546
-0.118775
-0.013178
-0.090352
0.104082
-0.156594
0.098637
-0.100203
-0.099732
-0.016731
0.034242
-0.124270
-0.224008
-0.332469
0.002183
0.001326
-0.126380
0.016932
-0.046170
-0.148853
-0.066828
0.052245
0.024267
0.046000
0.055765
0.102580
-0.188118
0.044745
0.177664
-0.103598
0.084795
0.122363
-0.023950
0.039628
-0.004481
-0.044941
0.306476
0.012596
0.145081
0.080347
0.060510
0.054349
0.087845
-0.032692
-0.051390
0.222159
0.043986
0.159594
-0.100284
-0.149949
-0.084912
0.032881
0.096054
0.133829
-0.036822
-0.001084
0.002019
0.233697
-0.146323
0.208640
-0.041091
-0.043369
-0.058354
0.151254
-0.116323
0.140018
-0.082651
0.075169
0.082258
-0.110623
0.114955
0.032344
0.033383
-0.065221
0.184504
-0.193200
0.103470
0.065879
0.001074
0.032231
0.102213
0.000821
0.008309
0.100118
0.017761
-0.034326
0.106096
0.128703
-0.096894
-0.067223
-0.227788
-0.001842
0.036300
-0.082971
0.056925
0.082557
0.107404
0.082729
0.038938
0.108168
0.052592
0.169382
0.038435
-0.012802
-0.105341
0.024404
0.143961
-0.098550
-0.050438
0.009856
0.007006
-0.293985
-0.123703
-0.098609
0.187295
-0.022011
-0.045082
-0.009718
-0.041290
-0.001328
-0.099674
0.055888
-0.078424
0.180709
0.031884
0.178702
-0.099553
-0.005583
-0.063918
-0.038685
0.043729
0.179907
0.097586
0.084800
-0.074062
-0.034778
0.175159
-0.256212
-0.101823
0.192274
0.096682
-0.024716
-0.018148
0.074258
0.098055
-0.016178
-0.132608
-0.058259
-0.254926
-0.013517
-0.113924
-0.138403
0.054135
-0.007440
-0.137507
0.130299
-0.040096
-0.022572
0.077574
0.051976
0.156189
-0.127823
-0.058062
-0.113904
0.096281
0.139037
-0.077557
-0.141267
0.045845
0.011815
-0.081467
0.081657
-0.154385
0.016711
-0.003254
0.044120
0.157924
-0.221841
0.100860
-0.144515
-0.041953
0.012477
0.075454
-0.172144
0.058118
-0.002146
-0.045436
-0.074088
-0.068116
0.107783
0.153495
-0.108231
-0.006479
0.053965
-0.276169
0.145943
-0.014841
0.086972
0.008371
-0.027489
0.017842
-0.195199
-0.176207
-0.088227
-0.109465
0.204954
0.001611
-0.059908
0.161083
0.091701
0.034031
-0.136002
-0.188340
0.142264
-0.151846
-0.238291
-0.328819
-0.085512
0.140138
-0.053924
0.050460
0.297947
-0.234278
0.066016
0.057828
-0.013960
0.015422
0.077583
0.103233
-0.032231
-0.220304
0.083099
0.123879
0.146524
0.014006
0.019649
0.137515
-0.098807
0.124236
0.039447
-0.022651
0.070451
0.153570
0.092528
0.021961
-0.000552
-0.065995
0.110163
0.052081
-0.099294
-0.124818
-0.118113
-0.001921
-0.315610
-0.257523
-0.075803
0.081128
0.073610
0.005473
0.044343
-0.059163
-0.000192
-0.072896
-0.106907
-0.015120
-0.021050
-0.011704
-0.135696
0.269525
-0.126987
0.050253
0.148965
0.092597
0.116965
-0.077123
0.058690
0.011263
-0.030942
-0.140421
0.146172
0.090817
-0.014638
-0.105533
-0.201460
-0.045830
0.076564
-0.113836
-0.154046
-0.049992
0.073649
0.021551
0.239330
0.047229
-0.049021
-0.001855
0.023145
0.083911
-0.044163
-0.076614
-0.132100
0.003303
0.010182
-0.083631
-0.050262
-0.145227
0.162372
0.033492
-0.017026
0.056752
0.017950
-0.064228
0.013254
-0.112002
0.149669
-0.147117
-0.045938
-0.004050
-0.058714
-0.141873
0.120809
-0.031601
0.086662
-0.131846
0.202331
0.158417
-0.142728
0.059703
-0.106916
0.015389
-0.004173
0.115901
-0.202444
0.079802
0.069390
0.072653
-0.132854
-0.209913
0.109432
-0.005073
-0.127844
0.005401
0.136081
0.007342
0.052181
0.173197
-0.107020
-0.236588
-0.026656
0.168058
-0.117903
-0.122838
0.066183
0.084428
-0.089886
-0.011742
-0.002182
0.012573
-0.168841
-0.142283
-0.012843
0.002366
0.066358
0.186062
0.031176
-0.076320
-0.033985
-0.052238
0.177547
-0.029299
-0.073182
0.106162
-0.112360
0.152022
-0.011769
-0.038875
-0.009269
0.136921
-0.031826
0.301127
0.138449
-0.065273
0.034391
-0.018804
0.039683
0.031434
0.032199
-0.013434
0.023165
0.001447
-0.048917
-0.058204
0.186817
0.046421
0.017456
-0.044028
-0.104161
0.044698
0.110721
0.042717
-0.100401
-0.185988
0.033109
-0.023924
0.115869
0.099053
-0.034120
0.175066
0.101203
-0.016183
-0.066609
0.131319
0.000377
0.062827
-0.016454
-0.001424
0.057898
-0.057585
0.227487
-0.013722
0.236247
0.135723
-0.090121
0.147180
0.214607
0.088528
0.078138
-0.081739
0.078088
-0.084398
-0.027980
-0.165811
0.119277
0.146590
-0.099293
0.133184
-0.143966
-0.163201
-0.096368
0.149230
-0.038561
0.073238
-0.146361
0.187132
-0.165234
0.097407
-0.087493
0.065126
0.028215
0.042715
-0.014938
0.025521
-0.068915
0.208860
-0.103031
-0.052244
0.179028
0.194846
0.093606
0.002923
-0.007235
-0.047652
-0.012620
0.147655
-0.023167
-0.195390
-0.068132
0.182908
-0.090997
-0.023621
0.052686
-0.063504
-0.175860
-0.068067
-0.055730
0.237619
-0.016650
-0.012889
0.237984
-0.039390
-0.099924
0.021725
-0.038693
-0.101573
-0.224955
-0.077973
-0.055605
0.152153
-0.153968
0.037947
0.165610
0.234322
0.115384
0.020872
0.254677
0.096944
-0.000178
-0.038717
-0.049159
-0.286126
-0.029024
0.153439
-0.047119
0.169426
-0.189445
-0.164308
-0.075371
0.091392
0.056214
-0.138408
0.134146
0.101399
-0.268527
-0.113009
-0.006102
0.053648
0.140197
-0.249678
0.019962
-0.298347
0.076710
0.136226
-0.160953
-0.091663
-0.116089
0.020669
-0.000599
-0.134045
-0.305772
0.088094
0.123183
0.016327
0.224940
-0.039421
0.097115
0.150145
0.092816
0.049416
-0.269443
0.023014
-0.303925
0.020196
-0.073416
-0.003100
-0.089904
-0.105647
-0.226313
0.062790
-0.131421
0.028670
0.043871
0.001571
-0.019507
0.047500
0.360545
-0.278397
-0.014950
0.021521
-0.018002
-0.238566
0.115470
0.074746
0.127452
0.055673
-0.024648
-0.191620
0.103201
-0.042595
0.136902
0.045157
0.088494
0.113068
-0.123299
-0.219735
0.181950
0.097010
0.045478
-0.090941
0.091448
-0.058175
-0.114460
-0.172980
-0.095412
-0.097313
-0.007141
-0.038226
-0.113381
-0.117443
-0.049581
-0.012124
0.191824
0.163708
0.022778
-0.141098
0.198247
-0.001411
0.083837
-0.025860
-0.093256
-0.045671
-0.111850
0.029770
0.147942
0.062844
-0.017517
0.106210
-0.143323
-0.233912
0.098591
-0.029022
-0.055166
-0.102417
-0.021186
-0.027237
-0.294541
-0.072629
-0.049097
-0.116376
0.076681
0.081538
-0.089439
0.092546
0.181483
-0.088706
0.117622
0.025654
-0.203777
-0.290595
0.140891
0.089825
-0.186920
-0.027964
0.174797
-0.151409
-0.004772
-0.028596
-0.075804
-0.010091
0.032314
0.011401
0.008543
-0.038596
0.102585
-0.001914
0.090371
-0.031408
0.098265
0.003307
-0.040464
0.047455
0.039774
-0.067783
-0.085476
0.064491
-0.116281
0.060474
-0.178972
-0.045042
0.034872
0.208257
0.035827
-0.074221
0.128197
-0.059903
-0.017801
0.015273
0.263393
0.004971
0.110979
-0.113326
0.247844
0.008642
0.010770
-0.049799
-0.055904
0.330087
0.204085
-0.146938
0.114083
0.148434
-0.014183
0.101735
-0.162002
-0.116593
0.198812
0.155219
0.002366
-0.094811
0.004061
0.065660
-0.022236
0.155105
-0.043829
0.088629
0.133513
-0.022499
-0.261058
-0.007363
0.038150
0.070748
-0.069380
0.057872
-0.116809
0.094287
0.035596
0.067854
0.136241
-0.134061
0.080477
0.222883
-0.199424
-0.163331
0.303515
0.126196
-0.093517
-0.185047
-0.073240
0.271694
-0.000295
0.086610
0.092150
0.029641
-0.183437
0.068429
-0.034838
0.053140
0.030210
0.109038
-0.227432
-0.008409
0.026394
0.080144
-0.110425
0.039999
0.127721
-0.052831
0.163294
0.094757
0.123872
-0.057043
0.031027
-0.022035
-0.077816
0.094650
-0.004151
0.026759
0.053424
0.126205
0.007829
0.188563
-0.011346
-0.069116
0.047461
0.054195
-0.130327
0.187310
-0.128516
0.061979
-0.031521
0.182552
0.006919
-0.161691
0.017386
-0.082191
0.280516
-0.045091
-0.185049
0.019007
0.018876
0.045437
-0.056404
0.078815
-0.146249
0.116998
-0.075386
0.068912
-0.030336
0.136649
0.128631
0.058696
0.115332
-0.025628
-0.044887
-0.009249
-0.007809
-0.077829
0.031118
-0.033692
0.047786
0.002678
0.117942
-0.031215
0.010885
0.051184
-0.067095
0.242341
0.060608
0.036202
-0.083125
0.137148
0.048382
0.111238
-0.215188
0.122282
0.127598
0.153108
0.041428
0.111238
0.090758
0.067578
0.049319
-0.036054
0.012940
-0.031807
-0.012478
-0.002646
-0.019300
0.091607
-0.114771
-0.008616
-0.011388
-0.100097
-0.130941
0.164492
-0.166658
-0.252076
0.011378
0.115435
0.101545
-0.104516
0.082992
-0.031569
-0.031105
-0.085252
0.066025
0.062153
0.156097
0.130929
0.140221
-0.018605
-0.050320
0.044204
-0.112456
-0.007482
-0.067099
-0.044444
0.060762
-0.029969
-0.109184
0.044348
0.236528
0.041578
0.088191
-0.066247
0.040659
-0.029887
-0.027116
-0.026401
-0.048313
-0.196530
-0.105243
0.062062
-0.104211
0.192439
-0.085886
0.064521
0.012254
-0.091768
0.163583
0.009989
-0.024337
0.005542
0.080707
-0.022399
-0.077069
0.002845
-0.029086
0.048997
0.003296
0.006431
0.149645
-0.159597
-0.027715
-0.141357
0.027789
0.071158
0.028428
-0.027637
-0.157486
0.069066
-0.182388
-0.072378
0.086999
0.138235
0.127168
0.154057
0.166257
0.051519
-0.079778
-0.163803
0.090501
-0.070403
0.228772
-0.206275
0.041435
-0.071963
-0.027618
-0.143889
0.012952
0.004398
0.133308
0.176722
-0.216621
0.160667
0.002112
-0.112871
0.006393
-0.023326
0.041840
-0.025848
0.054735
-0.014389
0.023266
-0.211246
0.171196
0.106441
0.077598
0.040873
0.146957
-0.144415
0.055894
0.001142
0.063097
0.003069
0.106128
0.016666
0.017016
0.085688
-0.188806
0.064420
-0.013467
0.133184
-0.214468
0.028884
-0.082254
-0.005550
0.006949
-0.003798
-0.061744
-0.052332
0.034279
-0.119063
0.216462
-0.041718
0.025031
-0.135847
0.005483
0.101423
-0.013022
-0.033723
0.169855
0.034999
0.080166
0.056989
0.240761
0.002262
0.180051
-0.080554
0.115260
0.039169
0.068931
-0.008517
0.078532
0.078431
0.142342
-0.078642
-0.073633
-0.019916
0.135311
-0.005513
0.084609
-0.085171
-0.097128
-0.045341
0.161879
0.048110
-0.035179
0.239672
0.083966
-0.141518
-0.089185
0.045795
0.251733
-0.143236
-0.016571
-0.021268
0.041096
-0.019783
0.089205
-0.158588
0.178922
-0.118732
0.136511
0.031333
-0.022676
-0.019976
-0.032027
0.065474
0.035037
-0.046396
-0.056119
0.050502
0.201870
-0.042173
-0.087475
0.063956
-0.114698
-0.096715
0.064673
-0.183919
0.292278
0.076936
0.212741
-0.082475
-0.187595
0.032953
0.110650
-0.052093
-0.061597
-0.105071
0.002633
-0.162174
-0.046539
-0.025434
-0.048250
0.149849
0.035064
-0.007183
-0.052935
-0.035624
0.016060
-0.096394
0.008681
-0.102368
0.076875
0.193836
-0.054063
0.134782
0.075545
0.012400
-0.109526
-0.053332
0.151941
0.050729
-0.053330
0.084925
0.191850
0.034936
0.137082
-0.152423
-0.113433
0.125159
-0.339772
-0.054606
0.084245
0.003570
0.011064
0.116445
-0.087838
-0.001902
-0.034272
-0.035229
0.104533
0.040784
-0.024244
0.102444
0.036117
-0.107243
0.143209
-0.284975
0.151292
0.014567
0.283886
-0.107470
0.269779
0.001812
0.150732
0.009636
-0.063215
-0.066036
0.160853
0.138406
-0.099251
0.194569
0.078613
0.069996
-0.095359
-0.013323
-0.060202
0.192178
0.235090
0.147672
-0.027942
0.019342
0.003793
-0.047865
0.297377
-0.021910
0.063568
-0.065520
-0.060234
-0.132164
-0.003296
-0.024546
0.099101
-0.046408
-0.124626
0.157369
-0.175175
-0.004695
0.324334
0.149165
0.014051
-0.136152
-0.240320
-0.144632
0.106593
0.002607
0.074414
0.135780
-0.140802
0.093834
-0.035544
0.153898
0.185311
-0.026943
0.034522
0.044933
-0.065404
-0.112621
-0.031429
0.051946
0.063309
0.032950
-0.108858
-0.051417
-0.257073
0.048903
-0.077485
0.162404
-0.160233
-0.003336
-0.040341
0.068723
0.071381
-0.181934
0.133521
0.130164
0.069431
0.063269
-0.076619
-0.084577
-0.072373
-0.066680
-0.047355
-0.021230
-0.017224
0.013215
0.112264
0.048027
-0.071690
0.036397
-0.025016
-0.136849
0.146868
-0.035440
-0.164301
-0.031904
-0.035587
0.090265
-0.035083
0.054262
-0.131220
-0.153946
0.065222
0.091633
0.094700
-0.104154
0.206463
-0.096770
-0.192307
-0.073991
0.082417
0.047766
0.039188
0.015408
0.154209
-0.128479
0.055819
-0.099863
-0.245398
-0.140910
0.202487
-0.014996
-0.031700
0.041658
0.104619
-0.225216
0.102539
0.188315
-0.028284
0.103430
0.169889
-0.073373
-0.131395
0.014963
-0.002318
-0.097348
0.030429
-0.052776
-0.034686
0.004621
0.011464
-0.037315
-0.060970
0.000858
-0.038439
0.034401
0.075379
0.065544
0.001592
0.081151
-0.003026
0.056710
0.086033
0.252333
0.002086
0.073594
0.014801
0.149810
-0.009036
-0.112142
0.174218
0.261372
-0.181482
-0.073464
-0.067300
0.164486
0.102738
0.150922
-0.038139
0.019405
0.074656
-0.057354
-0.047630
-0.095749
-0.001647
-0.015842
0.107335
0.031638
0.012903
0.119903
0.233863
0.208840
0.037700
-0.137077
-0.101691
-0.034410
0.072900
-0.061579
-0.304860
-0.071419
0.280208
0.021992
0.039636
0.145281
0.071604
-0.089043
0.070669
-0.079605
0.108955
0.077236
-0.010295
0.039309
-0.232645
0.180457
0.039449
-0.112754
0.114798
-0.161016
-0.226754
0.041030
-0.001724
0.012433
-0.050036
-0.040177
0.141956
-0.310945
-0.049170
-0.019894
0.010120
-0.013965
0.157947
-0.155213
0.018062
-0.154515
-0.264043
-0.069626
-0.073185
-0.042602
0.023913
0.061196
-0.026062
-0.031550
0.032255
-0.119243
0.159934
-0.214997
0.097131
0.002808
-0.096052
-0.075300
0.008873
-0.139295
-0.325800
-0.051637
-0.209351
0.061215
-0.163180
-0.090662
0.004812
0.169786
-0.099025
0.138429
0.054499
0.129927
-0.008627
0.009333
-0.021812
-0.292623
-0.123046
0.014635
-0.055872
0.017013
-0.132057
-0.222299
0.072889
-0.101435
0.102596
-0.069985
0.008119
-0.029723
-0.156044
-0.063560
0.095521
-0.097157
0.028396
-0.073148
0.064573
0.185719
0.042812
-0.056917
0.009188
0.040257
-0.054147
0.088417
0.107231
0.251959
0.165758
0.094674
0.145297
0.163445
0.008017
0.096294
0.110453
-0.045113
0.104284
-0.074959
0.103972
0.095238
0.131801
0.010647
0.265058
0.132902
0.033152
0.008042
-0.101987
-0.053561
-0.115693
-0.112055
-0.209811
0.020760
0.170188
-0.050093
-0.110411
0.136454
0.185644
0.094790
0.048852
0.029986
0.137685
0.066515
-0.015118
0.072876
0.062479
0.129589
-0.224509
-0.115183
0.107566
0.186289
-0.144397
0.190799
0.199014
-0.032548
-0.074297
-0.032672
-0.047059
-0.003294
-0.117550
0.122409
0.041220
0.165182
0.073911
-0.133156
-0.018029
-0.050950
0.057390
-0.206935
0.022166
-0.010456
0.010505
0.130505
-0.107148
-0.061459
0.124994
-0.027223
0.083791
0.118562
-0.069544
0.161601
-0.136803
0.149340
0.128871
-0.138845
0.006186
0.091652
0.205797
0.157314
0.010871
-0.019749
0.128984
-0.097898
-0.124823
-0.203484
0.156656
0.050200
0.077263
-0.244216
-0.110778
0.057577
-0.131814
-0.018320
0.054697
-0.059106
0.072503
0.079595
0.047225
0.014779
0.213552
0.024956
0.026517
0.026496
0.012958
0.008646
0.195353
-0.043018
-0.224188
0.174677
-0.089820
0.088421
0.389429
0.247537
0.054815
0.056105
-0.093203
0.205896
0.158147
-0.050396
-0.044654
0.124550
0.050486
-0.037552
0.029094
0.200141
0.167761
-0.086499
-0.133511
0.142927
0.123391
-0.016568
0.070601
-0.062491
0.070900
-0.053671
-0.113568
0.046686
-0.061789
-0.129619
0.099784
0.065838
0.010197
0.063285
0.177218
0.122938
-0.005290
-0.097029
0.094078
0.081360
0.107911
0.091163
-0.141081
0.084719
-0.000779
-0.063564
0.094898
0.255218
0.087187
0.041254
0.039061
-0.070918
-0.039047
-0.201900
0.105346
-0.120586
-0.035429
-0.103362
-0.112679
-0.042244
-0.102386
0.005118
-0.013237
0.288861
-0.044687
-0.103186
0.074225
0.009308
0.104058
-0.047016
0.163580
-0.036583
-0.133632
-0.004102
0.108994
-0.172749
0.106485
-0.192983
0.176566
0.140043
-0.056815
-0.066571
0.078122
-0.221858
-0.060459
0.041177
-0.101178
0.067709
0.013474
0.187229
0.022522
0.110528
0.004567
0.041105
-0.085667
0.033584
-0.064032
0.067542
0.044230
-0.105095
-0.056562
0.032968
-0.039344
0.058715
0.174275
-0.176775
-0.112102
0.014108
0.154311
0.029662
0.141502
0.182092
0.058748
-0.082554
0.162590
0.075420
-0.084166
-0.134316
0.042220
0.047121
0.148872
-0.220508
-0.424468
0.079972
-0.114436
-0.042726
0.017519
-0.151528
-0.124973
-0.155725
-0.035524
-0.129972
0.022553
0.004042
-0.028220
-0.109953
-0.260898
0.240452
-0.156860
-0.050657
0.049490
-0.092735
-0.086061
0.058074
-0.088896
0.045258
0.101016
-0.041692
-0.056996
-0.008970
-0.009212
0.127764
0.030482
-0.156416
-0.167876
-0.231284
0.069148
-0.028558
0.000917
-0.028278
0.124658
-0.270054
-0.131541
-0.013009
0.135130
0.237392
-0.111871
-0.042484
-0.078080
0.093026
-0.109338
0.048210
-0.018614
0.134426
-0.110271
0.311435
-0.129714
-0.246751
0.202061
0.235763
0.105662
-0.184300
0.063098
-0.132955
0.048477
0.242956
-0.012356
0.139301
0.007490
-0.050725
0.066149
-0.004604
0.039485
-0.141666
0.001053
-0.072855
-0.230575
0.261146
-0.184446
-0.003549
-0.221506
-0.170316
-0.129694
0.071311
0.056478
-0.038555
0.038134
-0.142888
-0.023753
-0.166396
0.128071
-0.041604
0.041670
-0.164766
0.107926
0.070099
0.201148
-0.194022
-0.132918
-0.080025
0.027511
0.011475
0.106361
0.134910
0.014865
0.042906
-0.136186
0.200040
0.084148
0.130672
-0.174784
-0.017224
-0.034874
0.131770
-0.311605
0.025651
0.098994
0.092582
-0.085594
-0.025849
-0.090482
-0.177106
-0.278443
-0.031382
-0.102844
0.174846
-0.078040
-0.125688
0.025919
-0.092198
0.046957
-0.066334
-0.067444
-0.134858
-0.013735
-0.089803
-0.060402
0.182364
0.107636
-0.044652
-0.167495
-0.116543
-0.126380
-0.102409
-0.007212
0.108191
-0.006728
0.000978
0.106975
0.199871
0.057625
0.081904
0.239626
0.080484
-0.144331
0.021462
0.050810
-0.053636
-0.208291
-0.118298
-0.057056
0.057523
-0.040459
-0.218659
-0.120739
-0.013427
-0.246956
-0.048021
0.177355
-0.112655
-0.017493
-0.310223
0.089048
0.044494
0.015667
0.117321
-0.007348
-0.020686
0.130746
-0.006223
0.114544
0.139845
0.161677
-0.126199
-0.023976
-0.052014
-0.044114
0.055350
-0.068888
0.122236
-0.010759
0.000459
-0.079902
-0.041011
0.043825
0.072914
-0.016564
0.010407
-0.001954
-0.224656
0.038259
-0.064036
0.009125
0.130391
0.031922
-0.040956
-0.057363
-0.050302
0.068873
-0.174115
-0.095109
0.109985
0.042918
0.001386
0.064622
-0.026490
0.052220
-0.211875
0.055489
-0.215387
0.119208
-0.122077
0.134230
-0.133894
-0.037015
0.192954
0.060714
0.050640
-0.061845
-0.001081
-0.210923
0.000853
-0.176913
-0.003826
0.039345
-0.059404
-0.258125
0.085823
-0.115523
-0.203678
0.057632
-0.097012
-0.084485
-0.368780
0.075091
-0.128582
0.048454
0.019098
0.016736
-0.203472
-0.142732
-0.017019
0.087502
-0.225395
-0.008725
-0.086997
-0.059340
0.002131
0.021372
-0.033683
0.024114
-0.091525
0.163828
-0.203257
-0.099777
0.132865
0.048832
0.086937
0.113889
0.020875
0.066720
-0.095536
0.226175
0.144314
-0.044674
-0.210690
-0.181252
0.046437
0.037802
-0.024380
0.045612
0.203937
0.149389
0.048263
-0.049748
-0.068776
0.141154
-0.060956
0.033091
0.137103
-0.165058
-0.032459
0.109693
0.102260
0.327372
-0.187148
-0.004646
-0.056137
-0.126724
0.042673
0.085311
0.222867
-0.026002
-0.053057
-0.222292
0.032837
-0.137076
0.079209
0.134494
0.049717
-0.094439
-0.014381
0.144141
-0.092482
0.138813
0.123387
-0.074260
0.022118
-0.011152
0.023074
0.052901
0.264799
0.113676
-0.003827
-0.090833
0.067379
0.132959
0.170298
0.133348
-0.013125
-0.176546
-0.159240
0.015546
-0.059902
-0.118747
-0.010983
0.029118
-0.139543
-0.102428
-0.071234
-0.065939
-0.035180
0.174216
-0.064686
-0.178522
-0.014025
0.064350
0.151508
-0.041556
0.111953
0.091434
0.165091
-0.059587
-0.028254
0.222408
0.005956
-0.006111
-0.160099
0.141047
0.120968
-0.111884
0.107596
0.301131
0.119624
0.146979
0.057919
0.091769
0.072959
0.000599
-0.001513
-0.091772
-0.018300
0.075419
0.025460
0.037763
0.178150
0.080592
0.029512
-0.045929
-0.003977
0.097402
0.012446
-0.057109
0.068912
0.141256
-0.110740
-0.023529
0.128836
-0.055850
0.022034
-0.171324
0.009760
-0.081591
0.004373
0.146712
-0.004680
0.190956
-0.127974
0.049688
0.202060
0.017561
0.019263
-0.002658
0.088129
-0.064403
-0.120221
0.238493
-0.090416
0.005888
0.127257
0.154153
0.253781
0.011024
0.105580
-0.037565
-0.098334
0.042832
-0.036722
-0.137431
0.003377
-0.082956
-0.151523
-0.125059
0.190164
0.005848
-0.035301
0.033308
-0.108934
-0.105189
0.019486
-0.055992
0.067091
0.089542
0.122628
0.123869
0.069726
0.022780
0.029763
0.023536
0.085927
-0.164818
0.035327
-0.246570
-0.082349
0.011743
-0.116566
