-0.401122
0.241676
-0.311297
0.100572
-0.109617
0.352228
0.145324
-0.335403
0.000920
0.115975
-0.042374
0.225498
0.400260
-0.226769
-0.381663
0.197930
0.445601
0.209296
0.217184
-0.422057
0.128951
-0.441860
0.106683
-0.138978
0.150302
0.405174
0.274233
-0.533348
0.272621
0.285837
-0.486201
-0.266405
-0.578978
0.167842
-0.045270
0.315162
-0.199745
0.189246
-0.127032
-0.032592
0.317259
-0.001400
-0.038380
0.076720
-0.019346
0.039197
0.316183
-0.327893
0.411814
-0.162978
0.137292
-0.295433
-0.111199
0.023001
0.045801
0.479295
0.408245
-0.004964
-0.020780
0.152893
-0.398421
0.162470
0.156786
0.280209
-0.232622
-0.106056
-0.294789
0.281649
0.189329
-0.515930
-0.255621
-0.349694
0.209794
0.140625
0.085416
-0.343501
-0.417056
0.165574
0.352383
0.103276
-0.087835
0.099395
-0.158530
0.319008
-0.396310
0.258646
-0.171295
0.211552
-0.137719
0.026115
-0.442093
-0.210506
-0.163407
0.168124
0.177840
0.288696
-0.452045
0.120531
-0.379555
0.187188
-0.064913
0.298257
-0.152614
0.132427
0.513934
0.157139
-0.002860
-0.269181
0.064377
-0.424118
0.049452
0.146999
-0.136668
-0.295482
0.244007
-0.352431
0.109604
0.454987
0.080050
0.287122
0.075145
-0.262264
-0.300703
0.352025
-0.190453
-0.004317
-0.107478
0.136139
0.092813
-0.148819
-0.072860
-0.520916
0.239507
0.105099
0.102686
0.230138
-0.047132
0.288494
0.042701
-0.087166
-0.053146
-0.159539
0.177924
-0.227286
0.075854
0.019315
0.435777
-0.334245
-0.292835
0.225963
0.209800
0.077334
0.349578
-0.267367
-0.156448
-0.078316
0.518355
-0.162345
0.094071
-0.164065
-0.315186
-0.048968
0.104977
-0.390184
0.172667
-0.478588
0.112128
0.473526
0.303218
0.312477
0.380036
0.377951
0.228920
-0.064533
-0.078798
-0.285458
0.179968
0.425504
-0.182735
0.289090
0.354555
-0.138880
0.232506
-0.282642
-0.022193
-0.316825
0.170837
-0.313677
-0.179553
0.019761
0.430224
-0.209425
-0.498301
-0.050149
0.368278
-0.366538
0.240481
0.198503
-0.095256
0.102291
-0.209890
0.517516
-0.234446
0.169711
0.093557
-0.344154
0.008491
-0.020235
-0.043677
-0.187838
0.022256
0.118321
0.092277
-0.368926
0.086459
0.422851
0.226930
0.259210
-0.301449
-0.134270
-0.162274
0.395410
0.238927
-0.049830
-0.409911
0.055750
-0.085262
-0.065845
0.318791
-0.420504
-0.177724
-0.119991
0.460551
0.111318
-0.129662
-0.229027
0.172389
0.356758
0.310067
-0.371541
0.153204
0.096985
-0.494355
-0.076985
0.001523
0.060149
0.470348
-0.272792
0.277729
0.368269
0.105522
0.049105
0.088934
0.078527
0.269688
0.274808
-0.298690
-0.219123
-0.403683
0.098211
-0.018289
-0.301462
-0.192664
-0.157719
0.124344
-0.054749
-0.171478
0.043935
0.163500
0.182788
-0.020461
0.038961
-0.083829
-0.384823
0.093508
0.098742
-0.333365
0.452852
-0.272718
-0.086043
0.008381
-0.215035
0.228083
-0.271754
-0.368700
-0.353373
-0.014475
0.360476
0.156206
-0.308147
0.165744
-0.324187
0.297958
-0.127694
-0.333714
0.401478
0.162160
-0.040268
0.416218
-0.112443
0.363638
-0.101128
0.031452
-0.399681
-0.116166
0.048826
0.380358
-0.296603
0.385993
-0.155326
0.179991
-0.380590
0.185195
-0.333069
0.190210
0.225410
0.012395
-0.028279
-0.144372
0.394152
-0.049104
-0.419023
0.371557
0.372113
-0.216222
0.014124
-0.509223
0.070360
-0.006044
-0.106741
0.349762
-0.203660
0.177456
-0.076366
-0.028016
-0.087901
0.099339
0.132384
-0.180356
-0.197756
-0.353696
-0.072530
-0.011233
0.262226
-0.158909
-0.309861
-0.113020
-0.090607
-0.295138
0.205622
-0.269088
-0.295204
-0.129295
0.262065
0.078205
-0.306225
0.040507
0.210800
0.145345
0.283346
-0.379345
-0.086786
0.007995
0.319478
0.263248
0.199075
0.142881
-0.187730
0.283524
-0.387947
-0.407306
0.161696
0.320921
0.299475
-0.204579
-0.042604
0.176173
-0.257567
-0.256965
0.217867
-0.519783
-0.087406
-0.129893
0.251193
-0.099981
0.144840
-0.316145
0.459223
-0.256114
-0.142910
0.098032
0.075250
0.320125
0.030386
-0.232656
-0.149239
0.387667
-0.246580
-0.041427
0.046437
0.046034
-0.054903
0.158666
-0.234008
0.224178
-0.130980
-0.044743
0.423559
-0.388571
0.152741
0.473083
0.375705
0.107890
0.225505
-0.071079
-0.248625
0.216364
0.097456
0.096375
-0.020479
-0.305123
0.141011
-0.424239
-0.379279
-0.118095
0.419328
0.506540
-0.115761
0.452484
-0.025269
0.133922
0.533189
0.394736
-0.109309
-0.223920
-0.276576
-0.159610
0.347293
-0.333083
-0.138870
0.061986
0.312179
0.027861
-0.316774
0.033266
-0.032722
-0.049058
-0.258704
0.364023
0.060534
0.152239
-0.531527
0.090352
0.175405
-0.230289
0.029308
-0.397428
-0.207609
0.262196
0.415683
0.186380
0.220938
-0.151720
-0.264240
0.152644
-0.286289
0.452764
-0.342814
-0.100048
-0.289098
0.030284
-0.343772
-0.204574
0.394881
-0.438124
0.211317
-0.225297
0.190972
-0.304111
-0.121791
-0.219035
-0.215443
0.377788
0.149517
-0.194731
-0.273199
0.255347
-0.330744
-0.079046
-0.218929
-0.155657
-0.348533
-0.662106
0.079054
-0.030624
-0.144154
0.137198
0.198264
0.093154
-0.041449
0.353222
-0.384306
-0.119530
-0.134869
-0.242457
-0.201208
-0.195381
-0.205594
0.081290
0.331460
-0.129943
0.063956
-0.220225
0.296831
-0.212867
0.272633
-0.096565
0.184062
-0.079471
0.178570
-0.171326
0.441198
0.418449
-0.112443
0.305518
-0.543550
-0.132999
0.083574
-0.023507
0.368287
0.126755
0.036889
-0.021790
-0.151797
-0.187215
0.208504
0.077791
0.341846
-0.292565
-0.151987
-0.182265
0.487808
-0.036962
0.131788
-0.113746
-0.353228
-0.143507
0.201765
0.080717
-0.292047
0.393455
0.180569
-0.351566
-0.160253
-0.435648
-0.098131
0.352488
-0.057247
0.177452
0.247645
-0.145752
-0.220484
0.253916
-0.083961
-0.476990
-0.112976
0.327751
0.016466
0.136006
-0.218303
-0.189905
0.221164
-0.526710
0.388572
0.017747
-0.207454
-0.060217
-0.007757
0.098868
0.328523
-0.173902
0.337612
-0.210654
-0.382883
0.490050
-0.286338
-0.090119
0.208241
-0.053189
-0.492553
-0.123306
-0.292465
0.463307
0.113555
-0.028747
-0.044957
0.089435
-0.058911
0.305670
-0.167467
0.217502
0.414796
-0.091086
0.072586
-0.238697
-0.048948
-0.260351
0.090584
-0.018983
-0.229964
0.408788
0.239458
0.394747
0.194112
-0.428015
-0.483079
-0.364670
-0.182593
0.185089
0.199503
0.353847
-0.330887
0.111967
0.407646
0.070820
-0.241791
-0.205977
0.213312
-0.327701
-0.284928
0.255092
0.148644
-0.242761
-0.185799
-0.427042
0.485497
0.360807
-0.008501
-0.342648
-0.064438
-0.336088
0.507087
-0.161353
-0.187145
-0.089732
0.252136
0.066938
0.260470
0.146918
-0.374062
0.114988
0.025264
-0.048370
-0.118233
-0.077729
0.132292
0.085133
0.194391
-0.193378
0.524452
-0.202360
-0.020757
0.335990
0.321770
-0.248514
-0.221050
-0.183516
0.449335
-0.276090
-0.188900
-0.458734
0.243110
-0.054348
0.163787
0.264514
0.287926
-0.074509
-0.459995
0.172266
-0.045736
-0.200365
0.142034
0.082611
0.316140
-0.311662
0.242476
0.324180
-0.272960
0.325871
-0.235039
0.457236
-0.205921
-0.237956
0.048938
-0.331988
0.096573
0.356709
-0.347435
0.412347
0.212101
-0.001257
-0.259633
0.441621
-0.152510
0.399852
-0.090737
0.195449
0.095860
0.049352
-0.217314
-0.120650
-0.203617
0.283373
-0.311550
0.114817
-0.373485
-0.417592
-0.278016
0.114685
0.402121
-0.057417
-0.434312
-0.128680
-0.087713
-0.188639
0.581457
0.452457
-0.066418
-0.367595
-0.325829
0.189303
0.145514
0.249720
0.066966
-0.349308
0.215132
-0.123964
0.124985
0.390812
-0.215980
0.064116
-0.295821
0.002459
0.089112
-0.291781
0.191447
-0.065556
0.347602
0.391551
-0.140726
-0.056419
-0.171998
-0.079938
0.290774
0.416535
-0.134165
0.273287
0.108980
-0.133741
-0.576078
-0.281840
0.261624
0.226188
-0.287292
0.359051
-0.280410
-0.093586
0.283803
0.103350
0.107319
0.374836
0.148414
0.385681
0.142377
-0.248006
0.301568
-0.604183
-0.049714
-0.276595
0.052721
-0.401107
0.130374
-0.165570
-0.118203
-0.070644
0.144072
-0.409654
0.273845
0.297659
0.120927
0.260740
-0.447633
-0.411417
0.234467
0.143554
-0.266242
0.050264
-0.132259
0.448780
0.122174
-0.462408
0.148421
-0.194161
0.265591
0.135192
0.347525
-0.356256
0.229905
-0.394982
0.142368
-0.205383
0.123101
-0.139979
0.370760
-0.282178
-0.235238
-0.424604
0.030463
0.170223
-0.105000
-0.522897
0.301685
0.353789
0.174514
0.097564
0.252848
-0.069248
-0.130812
0.112243
0.113686
-0.256476
-0.019514
-0.143138
0.204979
0.195081
0.291638
-0.224149
-0.421757
0.191010
0.084910
