-0.051376
0.044802
-0.147716
0.001530
-0.078694
-0.081702
-0.052632
-0.033334
0.103532
-0.195256
0.125938
0.120894
-0.105865
-0.012417
-0.218945
-0.003093
0.017391
-0.035825
0.058293
0.080773
0.149268
-0.121851
0.047874
-0.045472
0.031777
-0.012662
-0.035767
0.048021
0.031777
-0.041099
0.199798
-0.006773
0.165456
0.043809
-0.112162
-0.008303
0.167506
-0.006365
-0.038070
0.207589
0.212434
0.064004
-0.023473
-0.098707
0.130953
0.242048
-0.005032
-0.118591
0.056422
0.024435
-0.032095
0.162349
0.044294
0.173790
-0.155357
0.070902
-0.021572
-0.264214
-0.082614
0.031273
-0.113294
-0.028073
-0.238978
-0.263076
-0.159509
0.182845
-0.262704
-0.032327
0.040615
0.210512
-0.025805
0.112031
-0.159913
-0.257129
-0.344775
-0.061905
-0.225482
-0.024043
0.005762
-0.099158
0.076237
-0.009007
0.074406
0.020442
0.136625
-0.269919
0.149170
-0.019581
0.076644
0.134615
-0.159672
0.094649
0.009924
0.017756
0.237787
0.014991
0.032977
-0.111139
-0.055481
0.035660
-0.011338
-0.022216
-0.092033
-0.045273
0.084392
-0.035573
0.059052
0.038756
0.026501
-0.028101
-0.026467
-0.063325
-0.208003
-0.045688
0.141759
-0.135205
-0.045187
0.136785
0.031652
0.034019
-0.045124
-0.117013
-0.015329
-0.132242
-0.092616
-0.177697
0.145109
0.125433
0.135151
0.030721
-0.050004
0.124667
0.320094
-0.257985
0.102236
0.207233
0.032428
0.111995
0.002138
-0.034307
0.091283
0.291164
-0.024901
-0.076023
0.005794
0.071201
-0.179204
0.211034
0.003311
0.070534
0.060954
-0.035936
-0.018315
0.038188
0.131544
0.021046
-0.093783
-0.051757
-0.187237
-0.156415
-0.104464
0.216249
-0.255502
-0.076817
-0.041033
0.237112
-0.127595
0.114827
-0.029813
-0.311151
-0.072754
0.027768
-0.127398
-0.098548
-0.205244
-0.041500
0.031989
-0.152490
0.071606
-0.106152
-0.043489
0.134438
-0.002571
0.071847
0.110101
0.126719
-0.250933
-0.035151
0.075244
-0.141519
0.217608
0.051872
0.175602
-0.249120
0.146740
0.038130
0.011737
-0.112966
-0.029244
-0.033762
-0.182266
0.100374
0.192625
-0.031529
0.025825
0.056743
-0.114912
0.118917
-0.126427
0.143441
0.111007
-0.002921
-0.139343
0.062332
-0.010156
0.054316
0.207402
-0.176431
-0.012380
0.035933
-0.082117
-0.116334
-0.003573
-0.059282
-0.062669
-0.381147
-0.208510
-0.070998
0.091660
-0.055134
-0.080001
0.033233
-0.216198
0.089604
0.054298
-0.133296
-0.071871
0.214749
0.134557
0.242555
0.114927
-0.070683
-0.187246
0.074881
0.148407
0.075714
-0.174076
0.047202
-0.030682
0.094973
0.150793
-0.008742
0.047304
0.071733
-0.079998
0.018352
-0.044285
0.199250
-0.162905
0.154944
0.047429
-0.008047
0.122963
0.188205
-0.090769
-0.256077
0.231988
-0.097952
-0.047313
-0.017139
-0.102591
0.028774
0.015809
0.319456
0.191578
-0.146026
-0.078999
0.012324
0.166888
-0.052908
0.064396
0.032749
-0.059496
0.018020
-0.076351
-0.239172
0.059020
-0.078237
0.127446
-0.321024
0.170513
0.034043
-0.062851
-0.022701
-0.105230
-0.116261
-0.146224
0.187358
0.150250
-0.098550
0.187102
0.227747
0.007770
0.109080
-0.014042
0.132813
0.035068
0.131152
-0.142285
-0.007618
0.178796
0.096027
0.153103
-0.189310
-0.068958
-0.033910
-0.040381
-0.297284
-0.218243
0.084852
-0.107734
0.208435
-0.147683
-0.142514
-0.026706
0.094653
-0.102686
-0.129624
0.133306
0.064740
0.267741
-0.028815
0.117491
0.143215
0.127450
-0.073373
0.125733
-0.142876
0.062672
-0.119893
0.167854
0.109487
-0.235153
0.060831
-0.174257
0.106281
0.067352
-0.002125
0.117856
0.277558
0.023682
0.153836
-0.073635
-0.309399
-0.170439
0.150519
-0.146628
-0.175406
-0.238394
0.127057
-0.211384
0.055976
0.364092
-0.045316
-0.010802
0.090165
-0.279446
0.201521
0.031486
0.122213
-0.057501
-0.052806
0.095286
-0.001367
0.194139
0.138034
0.194948
-0.167510
-0.119275
0.004300
-0.126993
-0.297150
-0.069568
-0.059509
0.103848
-0.232623
0.020218
-0.054117
0.074469
0.003133
-0.043743
-0.065260
-0.118214
0.261652
0.166379
-0.051601
0.069083
0.260631
0.128979
0.018352
-0.073005
-0.191054
0.033648
0.175054
-0.119215
0.083181
0.228003
-0.018416
-0.140448
-0.110022
-0.232989
0.124087
0.081708
0.091155
-0.219579
0.110267
0.112141
0.291056
-0.228149
-0.154803
0.072466
0.138054
-0.173231
-0.123157
0.292302
0.152579
0.223813
-0.043988
-0.034826
-0.260774
0.133383
-0.110412
0.005871
-0.081162
0.089341
-0.135276
0.054151
0.150683
-0.234813
0.009586
0.158408
0.144596
0.259852
-0.017188
0.024530
0.037825
0.020128
-0.046009
0.030005
-0.336598
-0.142796
0.076287
-0.290846
0.116263
-0.158971
-0.064991
-0.141516
0.316182
0.188264
-0.004192
0.208009
0.167970
0.008588
0.210894
-0.050704
-0.047837
-0.037064
-0.038679
-0.051259
-0.134249
0.081181
0.037479
-0.149737
-0.028563
-0.266206
-0.003280
0.090008
-0.188578
-0.164849
0.181838
-0.076918
0.085964
-0.030465
0.111038
0.189516
-0.138181
-0.020370
0.157511
0.086402
0.031844
0.014063
-0.056759
0.033484
0.038036
-0.037432
0.158479
-0.121610
-0.033380
0.096032
-0.104177
-0.173946
-0.148153
-0.016018
-0.011871
-0.156429
-0.123471
0.067883
0.093437
-0.220363
-0.143288
0.081999
0.005158
-0.171520
0.173199
-0.105194
-0.045660
0.497490
0.097702
0.337449
0.097464
0.077543
-0.084295
0.082294
0.016531
0.040305
0.139190
-0.029910
0.061104
-0.043761
0.131345
-0.008669
-0.015252
0.121137
0.065332
-0.026017
0.024608
0.041677
-0.169046
-0.182509
-0.027405
0.056026
0.045136
-0.095024
-0.015598
0.046648
0.172001
0.069319
0.075499
0.089052
0.128271
-0.126329
-0.019176
-0.000264
-0.253598
-0.259729
-0.075394
-0.044749
-0.038850
0.023867
-0.153216
0.118058
0.080194
0.102318
0.020152
-0.067071
-0.194927
0.114210
-0.127581
-0.188080
0.195958
-0.056599
0.015390
0.012688
-0.076877
0.109050
0.033621
0.012463
-0.108625
0.052235
-0.048914
0.144363
0.029295
0.105956
0.132142
0.000786
0.014851
0.154498
-0.084754
-0.123022
0.150819
-0.197004
0.076394
0.021021
-0.089984
0.075547
-0.057652
-0.418177
0.046757
-0.280792
-0.232915
-0.038667
0.232723
0.041382
0.051953
-0.029735
-0.237467
0.044093
-0.092874
-0.291942
-0.297675
0.029962
-0.170335
0.649249
-0.146251
0.378790
0.095091
-0.144385
-0.219049
0.016518
-0.221355
-0.188795
0.308690
-0.161079
-0.047992
-0.177978
0.007543
-0.131890
-0.065086
0.330088
-0.024138
0.262170
0.333263
0.137821
-0.097056
0.013309
-0.067017
-0.000932
0.193486
-0.229911
-0.201314
-0.194302
0.047938
-0.178339
-0.120683
0.222080
0.206242
0.064502
0.169556
0.178549
-0.194530
-0.137247
-0.215197
0.049562
-0.067791
-0.127117
-0.127339
-0.068877
-0.056294
0.106006
-0.029634
-0.280543
0.009848
-0.308487
-0.172436
-0.111111
0.183034
0.003910
0.064679
0.006004
-0.247134
0.026787
0.126333
-0.080998
-0.278010
0.126379
-0.115554
0.161922
-0.049401
0.160997
0.064323
-0.023322
-0.159591
0.174469
-0.151796
-0.120987
0.055642
-0.012928
-0.047321
0.112396
0.398791
-0.043235
0.239257
-0.317662
-0.073717
-0.059891
0.014701
0.098023
0.229957
-0.136442
0.173730
0.065278
-0.087474
0.006325
-0.058556
-0.349830
-0.554567
-0.022553
-0.498371
0.403399
0.020949
0.000513
-0.137005
-0.103656
-0.378269
0.015806
-0.129581
-0.165568
0.007115
-0.001483
-0.040023
-0.139518
-0.209766
0.018469
-0.202618
0.413405
-0.032988
0.219212
0.109552
-0.087635
-0.312828
0.071746
-0.042769
-0.052035
0.103390
-0.187711
0.008670
0.000088
0.395130
-0.151242
-0.047277
0.330947
-0.091367
0.485173
0.170627
0.098811
-0.412317
0.191466
-0.129883
-0.143820
0.084301
-0.305442
-0.093870
0.076876
0.459221
0.136933
0.072596
-0.152894
0.128521
0.027565
-0.077030
0.155148
0.336779
-0.157377
0.198916
-0.048205
-0.274139
0.247237
-0.030969
-0.048693
-0.189016
0.097119
-0.222399
0.024427
0.104714
0.007907
0.045404
-0.049682
-0.009131
0.160558
0.066035
-0.068438
0.009700
0.029993
0.111321
-0.011986
-0.080124
0.196027
0.361912
-0.129540
-0.029797
-0.057206
0.091474
-0.021166
0.306001
-0.043810
0.147377
0.059774
0.076838
-0.212551
-0.093510
0.063677
0.366277
-0.297624
-0.080574
0.188447
0.053348
0.161823
-0.185679
-0.026967
-0.149385
-0.007563
-0.158090
-0.042824
-0.452058
0.410330
0.036117
-0.016620
-0.125115
-0.181395
-0.432089
0.325550
-0.135433
0.057262
0.072671
-0.045258
-0.255825
0.116856
0.041043
-0.221188
0.015919
-0.033830
0.084451
-0.199670
-0.438311
-0.283279
-0.254674
0.314163
-0.152982
0.061814
-0.011205
-0.269783
-0.318971
0.193363
-0.161801
-0.097570
0.037549
-0.401500
0.046336
0.059882
0.070085
0.235307
0.281089
-0.264924
0.015629
0.025654
0.112027
0.066559
0.226304
-0.229468
0.228988
-0.072484
-0.019644
-0.246547
-0.131950
-0.164760
-0.075782
0.024339
-0.229412
-0.042317
0.143421
0.029621
0.020601
0.022428
0.103364
-0.018267
0.032333
-0.083916
-0.042007
0.111207
-0.132769
-0.025198
-0.325475
0.344330
0.117623
-0.196252
-0.185087
-0.045882
0.045413
0.013000
0.083105
-0.099710
0.059062
-0.035029
0.350381
-0.177990
-0.008753
-0.054793
0.187290
-0.329346
0.193083
0.138606
0.242097
0.116471
-0.308169
0.102992
-0.116473
-0.205546
-0.201750
-0.138121
-0.145239
0.056634
-0.067875
-0.056663
0.086894
-0.227011
-0.261189
0.242952
-0.010781
0.042671
-0.035800
-0.019595
-0.131555
0.085642
-0.117972
-0.170300
-0.059695
0.104640
-0.036908
-0.026053
-0.147952
-0.180874
-0.078967
0.078694
-0.086689
0.228826
-0.114386
-0.395743
-0.210975
0.167496
-0.178655
0.023066
0.076481
0.161223
0.228704
-0.094025
-0.125905
0.227061
0.167479
-0.004492
-0.040286
-0.159763
0.108252
0.098100
0.156064
-0.178120
0.039337
-0.025589
0.128502
-0.159568
0.070331
-0.044870
-0.059424
0.010459
-0.040740
0.072117
0.039590
0.150358
0.054656
-0.052226
0.125241
0.195396
0.081051
0.013042
-0.036386
-0.090066
0.171750
0.106928
-0.031343
0.135225
0.056726
-0.148234
-0.009505
-0.266913
0.113406
-0.043055
0.001010
-0.202644
-0.138145
-0.034372
-0.071986
0.063490
-0.104688
0.005020
-0.091418
0.143048
0.146840
0.178248
-0.003838
0.377888
-0.240211
-0.148121
0.114250
0.029669
0.295275
-0.147684
-0.160029
-0.078219
0.076385
-0.150066
0.036817
0.051446
0.002171
0.183321
0.001327
0.128838
-0.255870
-0.059473
0.101301
0.021264
0.211198
-0.062180
0.158509
-0.042647
0.175538
0.189146
-0.165025
-0.021658
-0.043967
-0.113133
0.128878
-0.173628
-0.406603
0.048344
-0.001394
-0.023659
0.166188
0.090973
-0.046338
0.047292
-0.113213
0.110897
-0.015748
0.096211
0.123409
-0.095886
-0.109969
-0.240856
0.338655
0.033874
-0.051398
-0.129224
-0.006224
-0.052793
-0.174916
-0.004976
-0.031571
-0.217179
-0.254301
0.152769
-0.007358
0.134199
0.125022
0.111876
-0.005781
-0.046235
-0.087217
0.086898
0.170709
-0.173229
0.079247
-0.152888
0.061400
0.204812
0.110980
-0.217837
-0.022849
-0.097240
-0.007758
-0.172244
0.174193
-0.029221
0.076327
-0.042332
-0.205585
0.053178
0.097894
0.144429
0.080592
-0.000619
-0.467406
0.183199
0.195158
-0.119367
0.179782
-0.212556
-0.202111
0.138264
-0.074879
-0.160752
0.522450
-0.116179
-0.244305
-0.368985
-0.238954
-0.325577
-0.049210
0.114781
-0.059036
0.255785
0.148000
0.063979
-0.185244
-0.075388
-0.012415
0.111043
0.290643
-0.065210
-0.039449
-0.276873
-0.076593
-0.104817
0.242227
-0.186809
-0.084034
-0.030403
0.201421
0.117761
-0.332626
0.015230
0.054329
-0.042300
0.225537
0.027880
-0.105323
0.154056
-0.056006
0.275894
0.091398
-0.101430
0.060025
-0.401470
-0.134225
-0.241504
0.187078
0.052585
0.196566
-0.196911
-0.035106
0.092419
-0.103927
0.209326
0.195813
-0.223897
-0.192566
0.099121
-0.099750
0.132261
-0.016324
0.099426
0.079154
0.007893
-0.156704
-0.044305
0.091967
-0.299485
-0.045326
-0.047167
-0.247895
0.115847
0.476637
-0.122901
0.039419
0.165919
-0.091980
0.171742
0.090099
-0.040031
0.260082
0.030206
-0.298600
0.347885
0.239220
0.023923
0.030687
0.006760
-0.086923
0.015465
0.305830
-0.264037
0.255583
-0.124793
0.007804
0.552993
-0.035255
-0.261635
0.412423
-0.401632
-0.489365
0.316447
-0.054426
-0.359713
-0.231232
0.128215
0.028303
0.188159
-0.014188
0.020162
-0.067091
0.203433
-0.115830
0.020459
0.389501
-0.341263
-0.184072
-0.072389
-0.186603
-0.080605
0.245421
-0.123635
0.188319
0.007670
0.253326
0.353643
-0.229949
0.027143
-0.002836
-0.107889
0.291943
-0.056920
-0.192800
-0.322670
-0.118041
0.204609
0.501631
0.001621
0.004714
-0.149294
-0.145517
-0.056663
0.140187
-0.045144
0.272302
-0.024609
-0.194564
0.338837
-0.065854
0.250452
0.193714
-0.083541
-0.109804
-0.090438
-0.073819
0.047845
0.159703
0.107129
-0.048205
-0.008676
-0.179060
0.011632
0.160594
-0.354146
-0.040965
0.112520
-0.211432
-0.110496
-0.350091
0.073362
-0.143398
0.001214
-0.153139
-0.085027
0.191296
-0.148737
0.208902
0.196948
-0.044780
0.234243
0.262930
-0.483510
0.123510
0.075628
0.414684
-0.141883
0.436155
-0.229375
0.129481
-0.076912
-0.105657
0.305625
-0.200490
-0.243982
0.105579
-0.459569
-0.110711
0.532205
-0.016265
-0.181858
-0.029500
-0.016840
-0.103403
0.149374
0.145936
0.072680
-0.014456
0.275566
-0.211062
0.094129
0.265350
-0.653193
-0.192100
0.107767
-0.159155
-0.322086
-0.383761
-0.072473
0.175876
0.013003
0.045280
0.066974
-0.078954
-0.014875
-0.360522
-0.024692
0.058620
-0.426199
-0.039735
-0.437048
-0.105128
0.021794
-0.206562
0.153761
-0.039696
0.045631
-0.086043
-0.092051
0.022714
-0.125727
0.366899
-0.121389
-0.072125
0.367027
0.206596
-0.310948
0.184854
-0.044944
-0.125492
-0.147533
-0.136940
-0.071499
0.004831
-0.036165
0.075647
0.091932
-0.102246
0.023557
0.042054
-0.233019
-0.091709
0.002342
-0.070309
-0.061834
-0.190695
0.052637
-0.340991
-0.106440
-0.309656
0.145960
0.132301
-0.031274
0.188786
0.110669
-0.053760
0.515688
-0.104930
-0.027360
0.243449
0.159468
-0.147182
-0.097410
0.306238
0.185339
0.244850
-0.375401
-0.314725
0.089625
-0.118995
0.006042
-0.135171
-0.349991
0.214193
-0.158209
-0.077516
-0.117187
0.158412
-0.103008
0.057705
0.031977
0.120604
-0.131063
0.119747
0.101159
-0.250518
-0.023144
-0.010168
-0.618581
0.084876
0.217528
-0.122898
-0.070409
0.077121
-0.099950
-0.065706
-0.014329
-0.070129
0.128886
-0.080162
-0.068575
-0.257988
0.080482
-0.027844
-0.210102
0.016084
0.281076
0.057558
-0.100429
-0.130555
0.117103
-0.215237
0.030784
-0.146039
-0.053092
0.163860
0.073267
0.247431
-0.041423
0.098239
0.347604
0.113484
-0.183529
0.194791
0.020649
-0.000825
0.000231
-0.120966
0.124218
0.042217
0.068295
-0.029134
-0.010202
0.162787
-0.102668
0.271796
0.042299
0.056054
-0.026417
0.176121
-0.181348
0.027291
0.048407
-0.031180
-0.006527
-0.117672
-0.194551
0.129561
-0.045475
-0.085501
0.174596
-0.108589
-0.042074
0.146673
0.118991
-0.185692
0.198601
-0.047322
0.086551
-0.026018
-0.303756
-0.052599
0.046090
0.143057
0.168252
0.173204
-0.259372
0.109295
0.136309
-0.292628
-0.230659
0.124245
0.135976
0.008532
0.080352
-0.162707
0.010631
-0.019114
-0.038319
-0.176183
0.087730
0.154686
-0.197597
0.423052
0.118427
-0.073800
0.015911
0.212751
0.335504
-0.147051
-0.005453
-0.131276
-0.222657
0.025065
-0.199730
-0.154417
0.130020
-0.046636
-0.425019
0.251026
-0.032431
-0.163815
0.248452
-0.149926
-0.284734
-0.143768
0.033195
-0.038927
-0.003517
-0.022627
-0.255755
0.194393
0.009492
-0.015866
0.023719
-0.184972
-0.118032
0.247185
0.044705
-0.169633
0.005037
-0.180480
0.025799
0.035798
-0.096444
0.028055
0.087784
-0.107373
-0.128068
0.044362
-0.016571
0.043952
-0.080146
-0.192370
0.022667
-0.118891
-0.223788
0.332908
0.058913
-0.142789
0.326958
-0.041286
0.263659
0.047263
-0.312997
-0.122175
0.296402
-0.279448
-0.003394
0.270030
0.228955
0.155206
0.390866
-0.372486
-0.004585
0.193782
-0.278546
-0.109027
-0.466104
0.121013
0.353433
0.399901
-0.432662
0.054658
0.130155
-0.290132
-0.110496
0.014202
0.202943
-0.034347
0.006481
0.060397
-0.044170
-0.092078
0.025027
-0.054746
0.084495
0.278963
-0.250300
0.560401
0.022420
-0.128630
-0.212508
0.006678
0.490714
0.426394
-0.088409
-0.130806
-0.107616
0.073168
0.121569
-0.182489
-0.002572
0.284903
-0.304971
0.142340
0.251856
-0.238817
0.150357
0.172861
-0.262893
0.184774
0.071601
-0.188827
0.182101
-0.019143
0.047763
0.137957
-0.156605
-0.087545
0.262518
-0.409047
-0.064980
0.364235
0.217385
0.062786
-0.122420
-0.123188
-0.007757
0.225952
-0.002883
-0.043999
-0.022971
0.024554
0.036101
0.164890
-0.240256
0.074010
-0.161666
-0.067297
-0.002220
-0.201837
-0.158342
-0.000073
0.069379
-0.143280
0.214608
0.059048
0.349547
-0.188005
-0.421945
-0.230381
0.274698
-0.208566
0.118019
0.187121
-0.325269
-0.125370
0.158768
0.167220
-0.018311
0.286915
-0.122327
-0.082726
-0.390015
0.270397
0.099737
0.321721
-0.292233
0.087116
-0.111526
0.008120
0.406952
0.240288
-0.025738
-0.031434
-0.075717
0.154859
-0.096821
-0.063444
-0.150840
0.065938
0.315948
0.283622
-0.206027
0.441974
0.030794
-0.101831
-0.101338
-0.099172
0.294017
0.009231
-0.081857
0.124343
-0.040714
0.124192
-0.058567
-0.066718
0.122386
0.336899
-0.201069
0.269107
0.289703
-0.160661
-0.507564
-0.155074
-0.191168
0.237867
0.162410
-0.278282
0.341504
-0.033203
0.215387
0.050537
-0.258095
-0.195599
0.238790
-0.199919
0.145682
0.291032
0.082693
0.022798
-0.105196
-0.235402
-0.140230
0.054349
-0.117731
0.002287
-0.030048
0.137277
-0.039376
0.022446
-0.211523
0.063601
-0.197725
-0.141099
-0.012567
-0.043722
-0.087124
-0.233068
0.047948
-0.256836
0.087995
-0.148754
0.306844
-0.008021
-0.181654
-0.122865
0.156018
-0.164449
0.075687
0.000850
-0.346389
-0.078661
0.139758
0.085817
0.066728
-0.020585
0.242641
-0.022786
-0.225655
0.095730
0.069874
0.090868
0.043304
0.103619
0.167191
0.065160
0.117335
0.189940
-0.013487
0.041598
-0.066561
0.130005
0.019734
-0.104055
-0.215109
0.247488
0.301842
0.200398
-0.157337
0.265633
-0.199336
-0.120162
0.051560
0.151077
-0.081024
-0.312012
-0.006932
0.114566
-0.032716
-0.023697
-0.183671
-0.041800
0.243947
0.229852
-0.274681
0.332271
-0.075487
0.017337
-0.202662
-0.036193
-0.151175
-0.078464
0.141550
-0.146547
0.072595
-0.128832
-0.000602
-0.090522
-0.296672
0.037832
0.062812
-0.236313
0.228225
0.143293
-0.334434
-0.121664
0.030992
-0.165989
-0.138589
-0.014994
-0.086857
-0.085183
-0.039827
0.026416
0.064720
-0.008292
-0.101150
0.081360
-0.071347
-0.001639
0.140805
0.165636
-0.169161
0.081959
0.015980
-0.006788
-0.252679
-0.089743
0.222244
0.064535
-0.074157
0.014176
0.086575
-0.003313
0.042198
-0.181421
0.009864
-0.041024
0.179074
-0.113727
0.144390
-0.340264
0.175888
0.206849
-0.187904
-0.104694
-0.081877
-0.032586
0.072744
-0.057468
0.270018
0.103164
-0.069466
-0.019109
0.062201
0.086266
-0.091471
-0.106874
0.022896
0.040231
-0.267692
0.155276
0.049244
-0.098233
0.030711
0.174442
-0.245729
-0.015321
0.156747
0.046001
0.061172
0.170632
-0.163760
0.090862
-0.168951
0.008917
-0.204640
0.131492
0.162311
-0.093251
-0.158426
0.213547
0.118753
-0.166189
0.234260
0.144475
-0.162656
0.145109
0.054468
-0.072424
-0.116876
-0.098140
0.238612
0.030073
-0.084493
0.114099
0.073169
-0.065166
0.173994
0.003985
-0.136132
0.105799
0.107854
-0.089849
-0.036072
-0.111362
0.043749
-0.114245
-0.009200
0.000368
0.039006
0.116670
-0.135255
0.113706
-0.003685
-0.220573
-0.010244
-0.068139
-0.023576
-0.086721
0.039778
0.100390
0.057085
0.172308
0.051656
-0.025403
0.071254
-0.057998
0.016926
0.424237
-0.045342
0.257374
0.277101
-0.001784
-0.141778
-0.020525
-0.031614
-0.045785
-0.212734
-0.176965
-0.136537
0.132102
-0.255698
0.066817
0.162950
-0.261618
0.227810
-0.068912
-0.160235
-0.019605
0.023405
0.020870
0.047815
-0.214304
0.111481
-0.104595
0.044053
0.170641
0.041377
0.106993
-0.235876
-0.185051
0.168695
-0.228921
-0.103866
-0.082228
0.126165
0.220189
-0.028032
-0.085654
0.104481
-0.031985
-0.191548
0.148405
0.063295
-0.049907
-0.214308
-0.281828
-0.027033
-0.111505
0.119272
-0.110433
-0.044081
-0.155941
-0.043582
0.178083
0.012684
0.059332
0.083260
-0.038365
-0.125545
-0.099305
0.196498
0.371787
-0.019648
0.182177
0.177043
-0.079532
-0.058544
-0.169886
0.055699
-0.010376
-0.086129
-0.121597
-0.010352
-0.033835
-0.089499
0.180031
-0.119498
0.033392
-0.165069
-0.219371
-0.090391
-0.053882
0.071595
0.276800
-0.116551
-0.018342
0.217745
0.173487
0.278462
-0.032151
0.042558
-0.018040
-0.093939
0.284278
-0.038124
-0.017047
0.082805
0.069033
-0.235822
-0.124589
0.050099
-0.137356
-0.087291
-0.188983
-0.085340
0.099129
-0.305466
0.009023
0.263656
-0.282600
-0.032052
0.214726
0.065838
0.037267
0.032081
-0.097218
-0.068435
-0.160690
-0.120872
-0.246808
-0.039886
0.017408
-0.020721
0.187977
-0.124784
-0.087707
0.239424
0.018811
-0.095357
-0.158444
0.049957
0.465089
0.114099
-0.356530
0.076979
-0.023061
0.085008
-0.042676
-0.119568
-0.179189
0.011669
-0.407160
0.144212
0.062592
0.088678
-0.021568
-0.121651
0.255023
-0.025023
0.099050
0.055486
0.071944
0.185196
0.012825
0.084424
-0.010016
0.102981
0.199641
-0.238126
0.143364
0.066248
0.041360
0.070603
-0.171243
-0.059661
0.088412
-0.224786
-0.157089
-0.015189
0.043289
-0.068586
0.076075
-0.219350
-0.052926
-0.121106
-0.124804
0.060780
0.028346
0.020981
-0.130215
-0.196637
0.055899
0.048489
0.109128
-0.032819
-0.041227
0.319973
-0.031749
-0.010669
0.267004
0.030619
-0.082032
-0.363187
-0.239545
-0.148162
0.349470
0.374242
-0.091641
0.159951
-0.254326
0.121075
0.060901
-0.399683
0.182697
0.072106
-0.125523
-0.041178
0.152460
0.271683
0.297450
-0.060964
-0.031959
0.047397
-0.182571
0.009475
-0.205531
-0.020110
-0.048667
-0.212206
0.154894
-0.000402
-0.137374
0.062426
0.067449
0.121638
0.124060
0.029374
-0.278807
0.150737
-0.247904
-0.068362
-0.138994
-0.081457
-0.105324
-0.281344
0.066004
-0.062674
-0.377423
0.149819
-0.006222
-0.352970
-0.196184
-0.042592
-0.038103
0.026653
-0.011777
0.088659
0.124759
0.226077
-0.073062
0.145811
-0.221743
-0.064854
0.139426
-0.004182
-0.136913
-0.217216
-0.106808
0.065578
-0.106241
0.118286
0.093463
-0.098358
-0.064609
0.013290
0.029510
-0.160229
0.251017
-0.201879
0.179605
0.080537
-0.087276
0.112286
0.135467
-0.043136
-0.189537
-0.344658
0.066186
-0.255389
0.112957
-0.046834
0.031164
0.292048
-0.148475
0.036585
0.107316
-0.113763
0.059419
-0.222021
-0.012192
-0.042557
0.079615
0.450434
-0.096286
0.248325
-0.162986
0.112994
0.056061
-0.023700
0.108846
-0.097591
0.100728
0.152130
-0.217134
-0.000893
-0.040129
-0.008015
0.004295
0.104976
-0.079476
0.147423
-0.277065
-0.018791
0.023031
-0.243107
0.279550
0.040624
0.013349
0.013174
0.071514
0.207120
0.026891
0.034814
-0.010715
0.148939
0.108486
-0.051080
-0.155716
-0.052497
-0.024001
-0.029332
0.254186
-0.066352
-0.100707
0.151180
0.069627
-0.079986
0.119337
0.021221
-0.189597
-0.156588
-0.088645
-0.105160
0.174195
0.139831
0.013730
0.126509
-0.081743
0.168480
0.139870
-0.088903
-0.057540
-0.189215
-0.119151
-0.018151
-0.033289
0.173442
-0.060167
-0.040316
-0.070934
0.055575
0.138315
-0.188496
0.204467
-0.050893
0.111054
0.066759
-0.103796
0.159980
0.053444
-0.096696
-0.041341
-0.193216
0.156367
-0.043732
0.013876
-0.179933
0.228416
-0.019426
0.113544
0.178508
0.071598
-0.148876
0.154015
-0.096815
0.092425
-0.078943
-0.039385
0.214727
-0.018660
-0.277078
-0.131820
0.056119
-0.056949
0.317883
-0.284187
-0.259081
0.091825
0.140320
-0.080057
0.011445
-0.096483
-0.052662
0.061989
0.132447
0.026788
0.111406
0.011195
0.122500
0.020259
-0.108337
0.070221
-0.202193
0.107774
0.231470
0.000749
0.070263
0.083703
0.020077
0.301387
0.196243
0.171395
0.032161
-0.315941
0.013361
0.187283
0.103445
0.254513
-0.147715
0.095987
0.147059
-0.093974
0.175721
0.031427
-0.009203
0.020505
-0.175726
-0.025093
-0.177609
-0.088089
-0.043388
-0.033973
0.018719
0.105945
0.123070
-0.051988
-0.281531
0.115019
-0.139059
0.090451
