-0.092508
-0.191340
-0.077059
0.237221
0.119912
-0.235855
-0.371214
-0.320311
-0.001816
0.202756
-0.004974
-0.203018
-0.036661
-0.280123
0.162282
0.177248
0.170143
-0.303479
0.052420
-0.214211
0.151179
0.225472
0.337508
-0.198060
0.019362
-0.030514
0.354696
0.239455
0.472823
-0.202963
-0.433868
-0.131725
0.131513
0.179073
-0.063133
-0.187282
-0.562135
-0.203149
0.258279
-0.082558
-0.193153
0.096934
-0.059288
0.011635
0.380089
0.134748
0.137840
0.061603
0.047368
-0.178043
0.326978
0.010250
0.239589
0.219168
0.169174
-0.106793
0.216852
0.177462
0.338273
-0.224321
-0.588913
-0.358657
0.252003
-0.215886
-0.403661
-0.235015
-0.381271
-0.034282
0.172283
-0.155497
-0.148723
0.245726
-0.527557
0.231670
-0.022702
-0.349866
-0.098148
0.426491
-0.082144
0.457886
-0.088628
-0.385531
0.059738
0.567464
-0.390343
0.254404
-0.243849
-0.212343
0.181605
0.027117
-0.329632
-0.169829
0.252765
-0.429526
-0.505023
0.067534
-0.562131
0.302124
0.149267
-0.581594
-0.298566
0.079549
-0.567578
0.466366
-0.347500
-0.706971
-0.046430
0.758564
-0.425931
0.503593
-0.557255
-0.414990
-0.161518
0.335534
-0.277878
0.206556
-0.464738
-0.304882
-0.143989
-0.179778
-0.127208
-0.037228
0.081149
0.003280
-0.131557
-0.178318
-0.340303
0.166006
0.035676
-0.276638
-0.332924
-0.004089
-0.233973
0.177745
-0.535159
-0.070406
0.004105
0.219169
-0.236118
-0.103353
-0.378929
0.081659
0.103836
0.035566
-0.218527
-0.092512
-0.415845
0.002382
0.011704
-0.260202
