0.003907
0.047858
-0.177588
-0.190868
-0.150952
-0.221108
0.236132
-0.075502
-0.034395
-0.033516
0.097317
0.070895
0.023606
0.153930
0.089327
0.254089
-0.124366
0.138394
0.305002
-0.011530
0.088912
-0.117264
0.302827
0.332569
-0.035118
-0.139107
-0.118778
0.021242
0.250701
-0.131732
0.234942
-0.071226
0.072933
-0.027579
-0.086279
0.084363
0.028660
-0.129240
0.102396
-0.011369
-0.069437
0.203269
-0.142784
0.279243
-0.185889
-0.243201
0.096187
-0.012984
0.008775
-0.028257
-0.060139
0.031428
-0.150401
0.123591
0.029598
0.171768
0.043080
0.179729
-0.092946
0.064026
0.015501
0.196414
0.011063
-0.121402
0.056234
-0.127448
0.210832
-0.252813
-0.115586
0.006700
0.185247
0.028170
0.084214
-0.042403
-0.009256
0.165349
0.027353
-0.011218
-0.026439
-0.043901
-0.059899
0.018836
-0.036555
-0.046177
-0.005060
0.040327
-0.191111
0.361200
0.100732
0.246714
0.216092
0.251563
0.216009
0.366269
0.027315
-0.014944
0.260433
-0.179652
-0.038424
-0.347840
0.184478
-0.270552
-0.116559
0.017724
-0.036324
-0.092926
0.079700
0.027100
-0.176625
-0.282091
-0.130617
0.245692
0.171947
-0.123979
-0.279322
-0.088505
0.183190
-0.182599
0.155222
0.174881
-0.144285
-0.197729
0.227950
-0.204169
0.022869
-0.215500
0.210417
-0.043496
-0.251010
-0.072171
-0.092122
0.091812
-0.351720
0.012994
-0.090097
0.021307
0.022507
-0.170500
-0.137766
0.083951
-0.073836
-0.180318
0.185184
0.174289
-0.004767
-0.202828
-0.139617
-0.162332
0.157880
0.056875
0.158672
-0.006409
0.100594
-0.021810
-0.097982
0.150675
0.072908
-0.137639
-0.006361
-0.188010
0.046853
-0.164504
0.277927
-0.119026
0.284767
0.140376
0.103705
-0.117717
-0.066829
0.265259
-0.071370
0.015101
-0.120503
-0.139455
0.375523
-0.151151
0.163381
-0.244828
0.055240
-0.052368
-0.146379
-0.015135
0.056027
0.148803
0.146170
-0.039288
0.146412
-0.208625
-0.082431
0.138547
0.268041
0.157247
0.170515
-0.337087
-0.190434
-0.069628
0.152765
0.086373
0.042734
-0.088110
0.231332
-0.036368
0.055019
-0.065946
0.137631
0.276282
0.119699
0.239618
-0.038484
0.097569
0.010716
0.200124
-0.006454
0.097482
-0.330153
-0.233900
0.219503
-0.066802
0.007987
0.235236
0.012684
0.181728
0.085845
-0.186873
0.242964
-0.061070
-0.066558
-0.034691
-0.127826
-0.043365
0.142524
-0.066590
-0.005161
-0.030210
0.242715
-0.094983
0.392294
-0.032343
0.172262
-0.099994
-0.055232
0.095402
0.261432
-0.171725
0.092242
0.022034
0.074031
-0.148327
0.159806
0.147509
-0.034675
-0.301819
-0.050816
0.030685
0.429580
0.034968
-0.107996
-0.066526
-0.031874
0.178527
0.049584
0.011282
-0.223196
0.002035
0.194364
0.280349
0.158764
0.228136
-0.038497
0.148905
0.190469
-0.104777
-0.129486
-0.281662
0.082925
0.378034
0.061643
0.067619
0.049369
-0.141155
-0.190851
0.077522
0.008896
0.004601
0.047651
-0.080533
0.174467
0.241470
-0.048541
0.038493
-0.151343
-0.077017
0.028106
0.133679
-0.071007
0.072877
-0.111016
0.337111
-0.281855
0.035054
0.152722
0.205075
0.320604
0.027539
0.069829
-0.264370
-0.068376
-0.062982
0.034451
0.181524
-0.065124
0.005867
-0.328915
0.251371
-0.084386
-0.153113
-0.329879
-0.031351
-0.075042
0.031391
0.014138
0.120129
-0.111706
0.242654
-0.085277
0.054313
0.069834
-0.253316
-0.168294
-0.186848
-0.180336
0.233925
-0.014683
0.081118
0.163488
0.128383
0.063966
0.236086
-0.087352
-0.146997
0.171435
-0.061159
0.090183
0.017475
-0.077512
-0.397901
0.031625
0.110547
-0.197459
0.066760
-0.099126
0.312895
-0.085502
-0.112164
0.211364
0.078023
-0.086123
-0.003859
0.120818
0.148757
-0.116369
-0.286083
0.001743
-0.149945
0.332782
0.224424
0.166227
-0.243105
0.132644
0.340359
-0.221010
-0.150454
-0.051771
-0.024444
-0.122420
0.179173
-0.014205
0.257046
0.045634
0.092145
0.042423
0.110480
0.124355
-0.217746
0.105520
-0.080361
0.128421
-0.098699
0.182407
-0.104722
0.108626
0.006937
0.100390
-0.177775
0.104155
0.106138
0.318395
0.069323
-0.092059
-0.151508
0.100148
-0.193207
0.056459
-0.015381
0.150939
0.208761
0.162147
0.055201
-0.050187
0.235289
-0.012631
0.017880
0.152600
-0.086471
-0.171711
-0.156742
-0.121842
0.121197
0.053642
-0.023371
-0.338671
-0.023253
-0.054925
-0.012148
-0.044459
0.074439
-0.107383
0.085185
0.007459
0.028787
-0.012114
-0.136843
0.217306
0.151782
-0.351008
-0.061760
-0.008731
0.092762
0.114868
-0.111985
-0.250132
-0.301356
-0.125910
-0.047339
-0.119777
-0.003991
0.370577
0.085401
0.181192
-0.108147
0.053629
0.253815
0.179668
-0.015069
-0.088353
-0.016119
0.029826
-0.301513
0.033440
-0.067369
-0.125470
-0.098281
-0.051900
-0.070017
-0.090808
0.173874
-0.189297
0.061162
0.068346
-0.132335
0.233965
-0.008629
0.107701
0.191863
-0.020327
-0.109231
0.063587
-0.138060
-0.024297
0.158023
0.157141
0.034976
-0.079489
-0.152294
-0.221278
-0.034245
-0.007756
-0.153596
-0.288450
-0.042935
-0.125532
0.236100
-0.203761
0.308100
0.162639
-0.086257
0.072366
0.075172
-0.041774
0.172555
-0.125810
0.000755
-0.188728
-0.073299
0.065527
-0.250365
0.229488
0.087177
0.066345
0.161850
-0.081109
-0.001652
-0.129881
-0.090918
-0.148142
0.116587
-0.043978
0.122735
-0.060641
-0.038955
0.220226
0.033022
-0.183643
0.011096
-0.123955
0.135707
-0.116858
-0.133302
0.331109
0.034027
0.228738
-0.144038
0.095681
-0.205692
-0.013656
0.250543
-0.288320
-0.202352
-0.079439
0.132518
-0.014897
0.075372
-0.096649
0.086168
0.097889
0.024991
0.241490
0.051364
-0.009520
-0.017784
-0.203095
-0.069083
-0.133388
0.235195
0.185803
0.270346
0.082297
0.001573
-0.032644
0.222567
-0.161590
-0.083683
0.091513
0.008963
-0.063795
-0.234689
-0.369475
0.186680
0.089011
0.222340
-0.369703
0.252276
-0.096245
0.088756
-0.208415
0.084373
0.153897
-0.040638
-0.163460
-0.257382
0.179528
-0.176666
-0.054906
-0.126272
-0.004752
0.119249
-0.045164
-0.049052
-0.159025
0.373954
-0.204551
0.042950
-0.197503
-0.167570
0.116487
0.138648
-0.093694
0.145637
0.156056
0.067226
-0.202598
-0.127683
0.033856
0.206429
0.101382
0.168712
0.103758
-0.067137
0.044484
0.147454
0.098503
0.171917
-0.137451
0.013757
-0.254156
0.335645
0.010776
-0.167889
-0.077148
0.090077
-0.016932
0.124224
-0.018983
-0.094654
-0.046531
0.127686
0.195992
-0.068078
0.128479
-0.100170
-0.085555
0.449949
-0.039301
0.023063
-0.107057
-0.164064
0.039670
-0.074565
0.016716
-0.139917
0.073217
0.202552
0.097247
0.047378
0.054660
0.075845
0.171152
-0.193489
-0.162062
-0.105083
0.000370
0.221642
0.170262
-0.054760
0.264623
-0.317965
0.039743
-0.157597
0.147328
-0.085631
0.089459
0.134643
-0.038100
0.019771
0.029564
-0.033269
0.035220
-0.210588
-0.049421
-0.168934
0.050213
-0.286990
-0.060583
-0.330741
0.262364
0.000658
0.124950
0.197523
-0.219287
0.091313
-0.186576
0.177644
-0.075595
-0.067721
-0.000398
0.174506
0.008317
-0.157700
0.001128
-0.047849
0.091336
0.070406
-0.163001
0.071582
-0.419923
-0.406567
0.170899
0.096881
0.263562
-0.185836
0.053924
0.265413
0.163808
0.209275
0.199950
0.159379
-0.106546
0.235693
-0.081179
-0.160701
-0.238278
-0.143712
-0.077855
-0.159163
-0.044743
-0.302168
0.013396
0.324448
-0.149815
-0.114420
0.119043
-0.134382
0.272453
0.193080
-0.107734
-0.021840
0.030914
-0.031618
-0.261719
0.055262
-0.244019
0.113056
-0.011531
-0.263039
0.023036
-0.157040
-0.268791
0.043579
-0.145949
0.180506
-0.075293
0.153103
-0.077587
0.048660
-0.198179
0.111866
-0.228876
-0.144219
-0.071804
0.067669
0.068799
0.077851
0.073437
-0.006847
-0.113628
-0.039300
-0.196760
-0.117124
-0.099546
0.043698
-0.094659
0.224589
0.049044
0.140029
0.072162
-0.122648
0.136112
0.137238
-0.189813
-0.071065
0.189480
0.058987
0.073082
0.212786
0.248130
0.384256
-0.087712
0.084734
-0.229822
0.112862
0.062497
-0.104736
-0.074866
0.114374
0.043283
-0.123868
0.047908
0.065024
0.023651
0.287609
-0.244305
-0.131948
0.095544
-0.215548
0.060469
0.088502
0.223521
-0.002487
-0.110706
-0.026185
-0.191463
-0.052910
0.161172
-0.183973
-0.123433
0.184265
-0.238118
-0.267256
0.123112
-0.079425
0.036120
-0.118547
0.042995
-0.254300
0.175823
-0.090997
0.156796
-0.185529
-0.087146
0.026817
-0.062457
-0.144185
-0.183213
0.026846
0.007924
-0.062993
0.207850
-0.065376
0.104053
-0.052447
-0.220791
0.315189
0.198333
-0.237363
-0.124591
0.017667
0.033682
-0.107294
-0.242313
-0.199946
-0.241989
0.234754
0.053440
-0.195894
-0.238783
-0.175079
-0.098474
0.019700
-0.045056
0.089320
-0.170944
0.161612
0.164156
0.092276
-0.158733
-0.031596
-0.032110
0.050928
0.082001
-0.346049
-0.273068
0.042007
0.273177
0.189716
-0.254145
0.011772
-0.112267
0.045107
-0.071692
-0.097388
-0.057987
0.211429
0.188000
0.237979
-0.069025
-0.047594
-0.086032
-0.007179
0.011663
-0.114359
0.099517
0.117451
-0.153251
0.037573
0.004562
0.156222
0.002163
0.090498
-0.060601
-0.214793
0.142143
-0.036640
0.346697
0.138776
-0.061887
-0.057342
0.162616
0.131838
-0.185886
0.088742
-0.043576
0.051463
-0.014354
-0.129003
0.038021
0.098509
0.042830
-0.016765
-0.021392
-0.103068
0.001892
0.242857
-0.103687
0.125969
0.152412
-0.114685
0.109384
0.218953
0.134510
0.071795
0.200570
-0.088000
0.162635
0.033393
0.080781
-0.025494
-0.067809
-0.105436
0.005969
-0.162898
0.177535
-0.029337
0.032974
-0.266490
0.077311
0.070942
0.032469
0.172506
0.149233
-0.067639
0.168995
0.200370
-0.006524
0.297598
-0.107893
0.310708
-0.187463
0.066100
-0.071118
-0.120770
0.058533
0.133854
0.263412
0.150748
0.285391
0.035909
-0.150889
0.230931
-0.148592
0.002817
-0.004040
-0.000429
0.230553
0.242341
0.076151
0.046382
-0.045703
-0.154882
0.020783
-0.139902
0.048072
-0.062143
-0.146483
0.228118
-0.140040
0.105289
-0.033990
0.280305
0.270688
0.018029
0.174878
-0.297879
0.198666
-0.037820
0.185363
-0.242192
-0.037860
-0.145235
0.221477
0.034484
-0.108813
-0.179322
-0.178478
-0.065854
-0.058098
-0.101630
0.068383
0.203254
-0.045346
0.067768
0.019684
-0.259549
-0.015876
-0.177497
-0.029226
-0.036552
-0.033202
-0.255572
0.082720
-0.099933
-0.066342
-0.188863
0.111326
-0.124594
-0.066024
0.027207
-0.217323
-0.000005
0.064119
0.076960
-0.155720
-0.280926
0.208215
0.107220
0.187160
-0.011963
0.232587
0.169050
0.142862
-0.034049
0.015573
0.095450
-0.023999
0.024634
-0.143271
0.048067
-0.059814
-0.353769
0.028368
0.026710
-0.380820
-0.133419
0.000244
0.056295
-0.128553
-0.066152
-0.179209
-0.022149
0.196567
-0.120343
-0.006386
0.198851
0.159247
-0.385318
0.314165
-0.324495
-0.129800
-0.168307
-0.101133
-0.198417
0.050459
-0.128139
0.060436
0.110828
-0.115882
0.198812
0.117290
-0.152161
0.156887
0.043703
-0.109164
0.043614
0.088374
-0.036480
-0.115964
-0.043045
-0.179573
-0.065421
0.210626
0.211077
-0.279607
-0.278611
-0.457426
0.167570
0.218535
-0.123222
-0.148775
0.202721
-0.193451
0.170655
-0.028170
0.085889
0.071052
-0.085763
0.005921
0.209348
0.024387
-0.032901
0.066749
-0.102546
0.167039
0.034584
0.073700
0.280785
0.110132
-0.082688
-0.234393
-0.106528
0.266421
0.099469
-0.043353
0.154092
0.238248
-0.341139
0.063206
-0.190400
0.059090
-0.187938
0.021376
0.116162
-0.163317
-0.375903
-0.176237
-0.059253
-0.093568
-0.000382
0.267126
0.182183
-0.057440
0.081279
0.013102
0.194086
0.072139
0.065876
-0.002388
0.043207
0.098566
0.007765
-0.050469
-0.048234
0.045046
0.131727
-0.082433
-0.129271
0.265642
0.062253
-0.070155
0.123418
-0.018554
0.132393
0.297490
-0.083417
0.237657
0.219693
0.047457
-0.140277
0.119411
-0.131186
0.051036
-0.266523
0.092176
0.092155
0.083596
-0.021290
-0.081239
-0.005849
0.052329
0.006510
0.164357
-0.050415
-0.085980
0.058263
0.030045
0.288411
-0.081209
-0.046642
-0.298242
0.173368
-0.072538
-0.076082
-0.032136
-0.343699
0.054110
0.357049
-0.037517
-0.176240
0.045885
0.110047
-0.167900
-0.056939
-0.040681
0.001832
0.131286
-0.119844
0.152522
-0.145024
0.038416
-0.218591
-0.019210
0.150357
-0.147315
0.126134
0.010010
-0.015020
0.110443
-0.310776
-0.179973
-0.037233
0.119715
0.171008
0.289125
-0.080589
0.131984
0.116119
0.092598
0.074654
0.183202
0.129378
-0.304361
0.048075
0.116459
0.111858
0.026856
-0.096013
0.279239
-0.076267
0.033967
-0.054240
0.396438
-0.277575
0.154682
-0.269375
0.019985
-0.001457
-0.063572
-0.024533
-0.124653
0.118157
0.059590
-0.330281
-0.115452
-0.184519
-0.081548
0.027037
0.148321
-0.182087
0.040380
0.309849
-0.340144
-0.036037
0.076429
0.162116
0.185927
0.169088
-0.125735
0.191440
0.103393
0.031592
-0.120804
-0.082454
0.122300
-0.068667
0.033701
-0.071670
-0.042782
0.238548
0.130763
-0.077160
-0.031625
0.102444
-0.033686
-0.189718
0.105626
0.130291
-0.206157
-0.143047
-0.145173
0.001174
-0.198412
0.011591
0.009149
0.185504
-0.108646
0.125844
-0.222746
-0.068297
0.131184
-0.048437
-0.108022
-0.270927
0.075703
0.172754
0.000358
-0.130723
-0.061161
-0.008077
0.050338
-0.109651
0.055573
-0.108658
-0.224460
0.208986
-0.112793
0.133119
-0.415919
0.221955
-0.117396
0.351250
0.137117
0.084780
0.187544
-0.071174
-0.246055
0.088599
-0.001674
0.036938
0.164607
0.058620
-0.098751
-0.090702
0.072164
-0.121230
0.307661
-0.051901
0.219371
-0.122151
0.051267
-0.061763
-0.020908
0.186240
0.036121
-0.185544
0.192803
-0.095596
0.343246
0.072784
-0.382352
0.090342
-0.111928
0.140788
0.219408
-0.161578
-0.195229
0.123670
0.081400
-0.120728
-0.347683
0.116797
-0.234835
-0.081130
-0.126156
-0.167659
0.085892
0.098184
-0.059513
0.205800
-0.094678
-0.285088
-0.058867
-0.214919
0.127173
-0.060505
-0.152020
-0.112680
0.098486
0.251823
-0.073429
-0.180281
-0.182656
0.217665
-0.165039
0.212811
-0.252188
-0.232189
-0.149885
-0.074027
-0.197641
0.060354
0.086237
-0.053809
-0.186765
-0.105006
0.341181
0.053119
0.037055
-0.012849
-0.117445
-0.060528
-0.040046
-0.109584
0.027226
0.156405
-0.174442
-0.148685
-0.065334
0.270480
-0.046940
0.133987
0.245291
-0.004336
-0.113777
-0.054537
0.233442
-0.004385
0.337720
-0.169084
-0.029060
0.075812
0.405952
0.069509
0.131616
0.139353
-0.108810
-0.317290
0.168909
-0.261271
0.136554
0.097081
-0.117261
-0.117343
0.017313
-0.185602
0.215844
-0.346936
0.127722
0.193620
-0.193691
0.076460
0.106753
-0.122234
-0.073585
0.078474
0.013150
-0.183578
0.159195
0.111409
0.233153
0.120903
-0.144615
-0.056823
0.094678
0.007646
-0.133379
-0.149972
-0.046552
-0.062758
-0.148755
-0.060181
0.027092
-0.005348
-0.129130
0.185662
-0.019408
-0.070469
0.007752
-0.128238
-0.203804
-0.018878
-0.092247
0.099006
0.326125
-0.008196
0.174838
0.044633
-0.236135
-0.038804
0.227563
0.146809
0.069648
0.047701
-0.139149
0.289366
-0.163390
0.138615
0.070802
0.096762
0.164802
-0.065383
0.116540
0.187560
0.045584
0.182372
0.239951
0.067413
-0.069903
-0.001264
-0.168109
-0.125859
0.310908
-0.064378
0.104848
-0.130462
-0.092155
0.133636
0.220376
-0.269625
0.218330
-0.203429
0.003840
0.136693
0.006525
0.226399
0.019210
-0.245764
-0.064971
0.221662
-0.008673
-0.286053
0.180238
0.005515
0.128032
-0.165756
-0.064155
-0.182196
-0.151981
0.059999
-0.216644
-0.057627
-0.009167
0.047470
0.212990
-0.035404
0.100558
-0.097818
0.091217
0.181221
-0.040012
-0.156023
-0.083402
0.059109
-0.205207
0.122360
0.032763
-0.136523
0.064259
-0.096566
0.163957
-0.039446
0.184933
-0.272468
0.016984
0.017508
-0.000304
-0.110362
0.087271
0.080201
-0.089916
0.130022
-0.152796
0.280795
0.157898
-0.007718
-0.225716
0.040031
-0.008597
-0.060816
0.016613
0.139544
-0.008383
-0.186559
-0.011220
0.128750
0.140157
0.264069
-0.042364
0.115734
0.083308
0.226148
0.080174
0.000549
-0.219314
-0.166284
0.217861
-0.102833
-0.028596
-0.122830
0.032355
-0.013420
-0.219853
-0.113923
0.048408
0.161797
-0.126061
0.063216
0.050097
-0.112191
-0.016247
0.054858
-0.083005
-0.167053
-0.021569
0.040322
0.064953
0.257664
0.071653
-0.155115
0.080979
-0.039723
0.098273
0.056464
-0.010329
0.052810
-0.060500
0.113268
0.279254
-0.154904
-0.174256
-0.151223
0.077749
-0.024122
-0.218474
-0.054512
-0.128256
0.075159
-0.091099
-0.008802
-0.156197
-0.121330
0.064280
-0.061526
0.038526
0.014913
-0.066299
-0.026782
0.142471
0.067964
0.183899
-0.031443
-0.049731
0.058597
-0.117690
-0.165359
-0.221365
-0.143284
0.032264
-0.043601
0.039131
0.108583
-0.017163
0.055446
-0.159929
-0.252582
-0.057617
0.030803
-0.108221
0.190010
0.052841
0.093175
-0.169390
0.100672
0.179010
0.178273
0.009631
0.114267
-0.181490
0.156037
0.242919
0.229016
-0.184377
-0.019815
-0.003567
-0.094234
-0.016129
-0.107064
0.001839
-0.106629
-0.059940
-0.139085
-0.081892
0.143164
-0.191557
-0.153376
0.013623
0.215554
0.247630
-0.216243
-0.218073
0.208204
0.081593
0.024855
0.114794
-0.004400
0.297811
-0.026919
-0.021960
-0.101493
-0.195097
-0.265722
-0.340661
-0.210216
-0.157908
-0.131807
-0.015612
-0.028304
0.310492
0.227879
-0.167214
-0.037629
0.270416
0.220508
-0.098694
0.135247
-0.145257
0.157065
0.015596
-0.087067
0.041964
-0.267037
-0.265195
-0.059596
-0.020522
0.018284
-0.088964
0.003720
-0.184084
-0.002116
0.143167
-0.057027
-0.084489
0.222499
-0.083466
0.042634
0.139363
-0.053565
0.133178
-0.101049
0.148945
0.157230
0.113219
0.052645
0.041348
0.093655
0.078490
0.112194
-0.194652
0.093466
0.041639
-0.076830
-0.089247
-0.022022
-0.046394
0.062056
-0.003602
-0.096657
-0.040992
-0.022760
-0.223312
0.085978
0.150475
0.173000
0.144245
-0.150411
0.085093
-0.143097
-0.020437
0.016987
0.151078
-0.207604
-0.262799
0.130538
-0.173664
-0.176056
-0.134614
-0.062051
0.002525
-0.063388
0.140392
0.026656
0.223853
0.150859
0.074096
-0.249112
0.192818
-0.039648
-0.181984
-0.128501
-0.217034
-0.180447
0.037831
-0.002407
0.094305
0.096936
0.014106
-0.061777
-0.122078
-0.040110
0.007526
-0.264031
0.035780
0.047436
-0.051505
-0.273370
-0.239634
-0.110448
0.195915
0.164440
-0.157274
0.138035
-0.089850
-0.123445
-0.257121
-0.027515
-0.082430
-0.034269
-0.062867
-0.049527
-0.061284
-0.079553
-0.020541
0.157374
-0.083347
0.142101
-0.254486
-0.162105
0.233624
0.215216
-0.153817
0.084516
0.008208
0.169737
0.000888
0.011139
-0.188549
0.058906
0.182079
-0.056518
-0.000837
0.033569
-0.054719
0.244796
0.047344
-0.242492
0.174238
0.245043
-0.187755
-0.253529
0.030304
-0.024963
-0.004896
-0.325737
-0.328667
-0.045518
0.132804
-0.106796
0.031123
0.132321
-0.133357
0.143710
-0.069090
0.183015
0.158887
-0.417961
0.232214
-0.086989
-0.218281
-0.064977
-0.059421
-0.195916
-0.026889
0.011793
-0.087972
-0.031321
0.035734
0.335967
-0.149585
-0.158997
0.159082
0.049839
-0.019732
0.153414
0.161351
0.174713
0.054169
0.068821
0.142221
0.008668
0.121843
0.299021
0.244012
0.202082
0.107369
0.044307
0.039576
-0.085020
-0.000569
-0.093975
-0.206359
0.137003
0.009917
0.134293
-0.009237
-0.174112
0.064081
-0.049234
0.029569
-0.030379
-0.137558
-0.298838
-0.051325
-0.127491
-0.068502
0.052121
-0.106536
0.186578
0.294961
-0.192528
-0.172847
0.416927
-0.145193
0.197699
-0.233329
-0.076699
-0.198228
0.105180
-0.058472
0.173308
0.013893
0.117517
0.039610
0.160803
0.018336
0.004809
-0.138899
-0.113117
0.017100
-0.008195
-0.068797
0.204821
-0.161355
-0.153505
-0.329890
-0.162021
0.096630
-0.054837
0.171020
0.251076
0.285856
0.011891
0.099851
-0.183569
0.131777
0.352644
-0.079476
0.050217
-0.001162
0.032255
-0.000563
-0.011468
-0.134921
-0.355540
-0.207456
0.011419
0.084276
-0.048774
0.091241
-0.066143
0.070178
0.001979
-0.026133
0.090531
0.083448
0.198913
-0.082370
0.066439
-0.087679
0.094922
-0.093179
0.144108
0.240297
-0.034177
0.098060
-0.093639
-0.234995
-0.277267
0.210114
-0.139920
-0.076986
-0.023837
-0.150773
0.063936
0.127282
0.126866
-0.087250
0.026602
-0.284268
-0.115310
-0.176346
-0.056233
0.126234
0.127977
-0.147796
-0.069757
-0.025702
-0.227652
0.092384
0.050437
-0.024321
0.130227
-0.119505
0.181147
0.097838
0.159126
-0.000626
-0.025815
0.171162
0.104465
-0.006031
0.088293
-0.260121
-0.288509
-0.030092
-0.080999
-0.069228
0.066925
-0.002736
0.110754
0.066556
0.040525
-0.129652
-0.032101
0.083144
0.094962
-0.042509
-0.179832
-0.111511
-0.004817
-0.038268
-0.027779
0.130190
-0.018680
-0.191934
0.089575
-0.196761
-0.057964
-0.125047
-0.038700
-0.088325
-0.112446
-0.099258
0.205793
-0.012822
0.007107
-0.010476
0.002987
-0.174937
0.047194
0.083269
-0.007890
0.011492
-0.261026
-0.008096
0.275385
-0.214874
0.038255
0.275171
-0.076868
-0.119384
-0.173300
0.055381
-0.055898
-0.080947
0.234296
-0.150648
0.104793
-0.213969
0.037054
0.175538
0.256215
0.073962
0.078557
-0.027532
0.118897
-0.250387
0.074692
-0.209657
0.092468
0.199706
0.219317
0.081177
0.095645
-0.280299
0.103933
0.129814
-0.127580
-0.188956
-0.106782
-0.108153
-0.055939
-0.188184
0.076672
0.212864
0.075675
0.101378
0.083788
0.001773
-0.027755
-0.091445
0.033067
0.172380
0.006084
-0.124881
0.261494
-0.016272
0.072668
0.164397
0.153007
-0.066168
0.091757
-0.305165
-0.177376
0.335658
0.042270
0.197467
-0.136572
-0.123012
0.019288
0.115141
-0.226322
-0.033177
-0.041991
0.115596
-0.011075
-0.070055
0.272668
-0.044393
0.016190
-0.197283
0.109433
0.170450
-0.145785
0.082367
0.039274
-0.119171
-0.187674
-0.341863
0.022663
0.210482
-0.054583
-0.002652
0.189274
-0.056662
0.113867
0.220864
-0.012590
-0.089387
-0.401015
0.184069
-0.058382
0.113175
-0.149198
-0.266140
0.146046
-0.271616
-0.109440
0.010705
0.152625
0.246614
-0.139637
0.382081
0.151754
0.034759
-0.151915
0.014124
0.050779
0.079324
-0.233261
0.110326
-0.138303
0.118758
0.079721
0.209900
-0.145635
0.271533
0.108837
0.022564
0.299999
-0.175606
-0.193314
0.146156
-0.175449
-0.130677
0.025246
-0.207450
0.166132
-0.000566
-0.130575
-0.022021
-0.084125
0.053428
-0.229905
0.146331
0.143678
-0.109700
-0.220531
0.067329
0.020522
-0.097295
-0.125903
0.051530
-0.063376
0.130758
0.137330
-0.006518
0.060366
-0.057112
0.122720
0.082882
0.084544
-0.236503
0.109139
-0.094488
-0.122122
0.030005
-0.113568
-0.217336
-0.259118
0.178739
0.220896
0.277010
0.091509
0.017837
0.181652
0.194947
-0.109956
0.127331
0.120316
-0.224698
0.267250
-0.111590
0.220408
-0.130806
-0.008156
-0.042153
0.048869
-0.214895
0.002919
0.151108
-0.035069
0.185723
-0.155439
-0.191315
-0.180852
0.229771
0.013629
0.048869
0.018473
0.204697
-0.077721
-0.022148
0.058080
0.252797
0.006598
-0.038941
-0.146888
0.130152
0.058936
-0.240105
-0.045430
0.129486
-0.079928
-0.090965
0.127382
-0.161518
0.109732
0.122319
0.068838
0.099552
-0.122488
0.008874
-0.146937
-0.098913
0.142212
-0.135949
0.070672
0.268697
-0.007006
0.295183
-0.065394
-0.102109
0.025778
0.188112
-0.206312
-0.260759
-0.174928
0.133567
0.086235
-0.126568
-0.068159
0.031687
-0.003906
0.075776
-0.052895
-0.158529
-0.247596
-0.074124
0.111807
-0.041527
-0.023883
-0.309873
-0.183933
0.261250
0.029344
0.243150
-0.037978
0.109160
0.073847
0.289452
-0.346752
0.250344
0.248265
-0.129803
-0.117989
-0.081592
-0.018627
-0.074651
0.036709
-0.009388
0.174750
0.183773
0.220591
-0.123617
-0.166928
0.092758
0.073112
-0.257272
0.218188
0.132016
-0.335936
0.194613
-0.065622
0.062274
-0.143333
-0.021202
0.145199
0.233308
0.005535
-0.021703
-0.109513
-0.118130
-0.192424
-0.000083
0.240636
-0.000171
-0.178197
-0.026901
0.133896
-0.102015
0.047170
0.012405
0.200913
0.182611
0.119858
-0.107965
0.164947
-0.244205
0.087588
-0.183060
-0.050163
-0.070876
-0.045614
0.007851
-0.072597
-0.035876
0.264357
-0.092672
-0.174323
0.131639
0.149812
0.142621
0.343834
-0.022843
0.307147
0.328736
0.105007
-0.073290
-0.040960
-0.233343
0.016169
-0.200311
-0.088940
0.071038
-0.135422
-0.116625
-0.355688
-0.207034
0.138375
0.108804
0.223021
0.060688
-0.209937
-0.052461
-0.085475
0.301917
0.297591
-0.212706
0.148048
-0.216642
-0.075027
0.141631
-0.016995
-0.127671
0.192286
-0.206033
-0.128978
0.052689
-0.096814
0.142220
0.155460
-0.120549
0.278557
0.325160
0.120278
0.083664
0.096558
0.186299
-0.085920
0.156143
0.025510
0.185491
-0.160149
0.037051
-0.250439
0.011807
-0.081620
-0.166045
-0.409708
-0.295361
-0.028261
0.202754
-0.244711
-0.180701
-0.047174
0.034570
0.135294
-0.098281
-0.034926
-0.115486
0.074216
-0.133911
0.116196
-0.057801
-0.110006
0.048230
0.183686
-0.092867
-0.131991
-0.012162
-0.119046
0.044927
0.327711
-0.016597
0.105982
0.075512
0.069416
0.044064
-0.022531
-0.088087
-0.115368
-0.007027
0.106648
-0.065439
0.237248
-0.060883
-0.171065
0.177024
-0.009947
-0.278805
0.046382
0.109154
0.021442
0.065720
0.176431
0.001323
-0.044518
0.025469
-0.128824
-0.066859
0.160164
-0.244782
0.108589
-0.094241
0.213733
-0.008736
0.046210
0.146740
-0.069044
0.044161
0.174373
-0.046058
-0.238558
0.036228
-0.030650
0.234780
-0.141013
-0.018701
0.178628
-0.026923
-0.083732
0.074337
-0.084913
-0.200647
-0.112118
0.304932
-0.096341
0.067256
-0.115881
0.213898
0.140179
0.144393
-0.190536
0.038593
0.134731
-0.022350
-0.054301
0.023430
0.058482
0.176400
-0.196782
0.035456
-0.200192
-0.289447
0.217960
-0.134340
-0.104621
0.054084
-0.231667
-0.003517
-0.079943
0.080484
-0.169321
-0.086391
0.302565
-0.104960
-0.079308
0.099914
-0.056841
0.155708
0.140457
0.220264
0.010554
-0.057242
-0.009714
0.074298
0.049265
-0.015982
0.083693
0.120701
-0.132876
0.226050
0.037545
0.068140
-0.065293
0.001898
0.171010
-0.067775
0.159194
-0.315893
0.002206
-0.108106
-0.157649
0.048220
0.099897
-0.320597
0.162194
0.029417
0.323262
-0.206177
-0.029077
-0.125965
-0.030770
0.180337
-0.050121
-0.027965
0.170397
0.096481
-0.039241
0.001531
-0.001794
-0.244995
0.096862
0.064883
0.340001
0.363221
-0.150628
-0.198041
0.077329
0.257142
-0.168970
-0.101545
0.150217
0.074956
0.095118
-0.093100
0.096345
0.349337
-0.223909
-0.120943
0.007830
0.062086
-0.316892
-0.052167
-0.077378
-0.071522
-0.347342
0.011570
0.148371
0.150736
-0.276026
0.239044
-0.074232
0.073318
-0.128936
-0.230807
-0.234468
0.195497
0.025504
-0.115249
0.081127
-0.001762
0.180493
-0.203226
-0.019910
0.325031
0.230710
-0.020894
0.150087
0.124500
0.278166
0.046837
0.059042
-0.029480
-0.186357
0.114691
-0.009719
0.144854
-0.061385
-0.189682
0.108674
0.102183
-0.251701
0.153598
-0.146483
-0.254166
0.263642
0.155866
0.230661
-0.124575
0.070006
0.206868
-0.097189
0.283285
-0.194858
0.099739
0.054044
-0.048562
-0.100974
0.143609
-0.149512
0.112326
-0.063588
0.068823
-0.041660
0.066127
0.050839
0.192668
-0.024636
-0.169333
-0.073231
-0.128344
-0.113411
-0.145400
-0.091820
0.022217
0.097487
0.051186
0.129787
-0.061912
-0.035039
-0.312105
-0.082658
0.143652
0.037368
-0.213551
-0.032351
-0.286672
-0.211998
0.118842
-0.015065
-0.022780
0.125484
0.166253
-0.044067
0.104559
-0.341104
0.154071
0.035562
-0.118930
0.156589
0.076313
-0.206258
-0.168622
-0.114283
-0.010161
-0.071637
-0.161652
-0.225573
-0.013905
0.056373
0.124874
0.208828
0.220409
-0.083344
-0.252379
-0.020777
-0.036697
0.170516
0.428624
0.091950
0.119685
0.077847
0.037687
0.021741
-0.352485
-0.142717
-0.026444
-0.328148
-0.256329
-0.101463
-0.074922
0.043283
-0.078957
-0.029395
-0.002825
0.083438
0.106053
0.046785
-0.059681
-0.101389
0.119540
-0.117262
-0.224586
0.171420
0.147048
-0.286960
0.094638
-0.012214
-0.083864
-0.025289
0.008953
0.090379
0.125574
-0.173039
0.188819
-0.150163
-0.171183
0.103289
-0.127675
-0.213679
0.071635
-0.154639
-0.053391
-0.051678
-0.057581
0.083381
0.123358
0.002837
-0.103493
0.082535
-0.179576
0.210163
0.127584
0.006337
-0.168788
-0.232883
0.102607
-0.301133
-0.014132
-0.278082
0.053606
0.065256
-0.249260
-0.179071
-0.049714
-0.039835
-0.091556
-0.142926
0.241015
0.177923
0.079919
-0.035254
0.230862
0.191596
0.266930
-0.034380
-0.078187
0.191417
0.147089
0.087999
-0.085641
0.154109
-0.003821
0.073960
0.063988
0.202418
0.030910
0.303314
-0.064571
-0.175745
-0.102612
0.075664
-0.284715
0.038059
0.194683
0.173854
-0.113437
0.114986
0.046425
-0.020573
0.041052
-0.376036
-0.094063
-0.066237
0.033454
-0.113225
-0.094110
-0.042893
-0.073257
0.004104
-0.118492
-0.211990
0.032419
0.114278
0.194939
0.177618
-0.066020
-0.083153
-0.215972
0.021015
-0.134525
0.120962
-0.109288
-0.098353
0.102767
0.138273
-0.358393
-0.153673
-0.218773
0.026099
0.186729
-0.036927
-0.030504
-0.238432
-0.349240
-0.155071
0.001060
-0.129995
-0.041775
0.061825
-0.012093
0.092279
0.046391
-0.060861
-0.054290
0.248091
-0.109557
0.019281
-0.135044
0.207390
0.224357
0.179815
-0.172315
-0.197707
0.055336
0.016460
-0.135548
-0.215415
0.057678
-0.226387
-0.106790
0.153375
0.117803
-0.063730
0.182340
-0.100779
0.177988
-0.044911
-0.087644
0.066903
-0.059321
-0.182625
0.059695
0.181936
0.031212
0.170386
0.011610
-0.207809
0.015415
0.147333
0.136326
-0.223521
0.023621
0.099473
-0.041254
-0.151600
-0.170897
0.156906
0.121403
0.141192
-0.026267
-0.199109
0.005938
0.287173
-0.125071
0.091208
0.063114
-0.036822
0.185343
0.158017
-0.080594
-0.024153
-0.151717
0.112397
-0.087069
0.183613
0.012993
0.024594
-0.225852
-0.070831
-0.246302
0.119320
0.011117
-0.166275
-0.027482
0.161965
0.254473
0.320944
0.013383
0.260413
0.093237
0.169048
0.162395
0.199317
0.284880
-0.131632
0.181354
-0.105739
0.018611
-0.159719
-0.289970
-0.454607
0.062885
-0.193065
0.029628
0.023749
0.001069
0.063245
-0.018487
-0.067917
0.236163
-0.036046
-0.084119
-0.129047
0.396429
0.182355
0.103783
-0.061095
-0.004549
-0.176493
0.097997
0.252286
0.278763
0.074432
-0.077873
-0.139470
0.028628
0.049070
-0.061401
-0.138165
-0.335594
0.255611
-0.328643
0.053884
0.161932
-0.073516
0.278553
0.173592
0.258295
0.141284
0.250243
-0.118662
0.172971
0.125473
-0.162279
0.078470
0.162785
0.245061
0.382720
0.068665
0.070263
0.018135
0.132968
0.035542
0.071493
-0.005878
0.078185
-0.214013
-0.106822
0.068117
0.053998
0.271739
0.234688
-0.199908
-0.087725
-0.145848
0.249548
0.016691
-0.227711
-0.002257
-0.096828
0.019966
-0.329176
-0.124010
0.041601
0.131320
0.101351
-0.030908
0.195532
0.192285
0.000030
0.148953
0.187524
0.162144
-0.158341
0.038831
0.076933
0.058062
0.054840
0.110348
-0.013999
0.133718
-0.316636
-0.158466
0.151655
0.011174
-0.190322
0.057344
0.226891
-0.025499
-0.095634
0.153867
0.095568
-0.033001
-0.086751
-0.007892
0.146018
0.164731
0.084686
0.084437
-0.147216
-0.088949
0.227221
0.008562
-0.070644
0.050827
-0.016275
-0.260997
0.066777
0.080156
-0.223912
0.187041
-0.003404
0.045373
0.103135
0.024288
-0.031040
-0.034707
-0.257046
0.190652
-0.103891
0.021541
-0.153767
-0.159618
-0.174260
0.316492
-0.214286
0.052304
-0.164753
-0.162015
0.020094
0.012419
-0.111440
0.244320
0.163528
0.124497
-0.007591
-0.056247
-0.000207
-0.034747
0.000972
-0.124731
-0.021279
-0.086729
-0.017873
-0.131606
-0.005627
-0.204883
0.040683
0.288717
-0.121789
-0.041151
0.213533
-0.272147
-0.125489
0.272719
-0.192650
0.126505
-0.110701
-0.109295
-0.087225
0.156221
0.005493
0.102028
-0.028496
0.008887
0.116633
-0.021642
0.276368
0.140713
-0.255448
0.222518
-0.165923
0.015541
-0.225437
0.172945
0.005582
0.129439
0.071099
-0.030434
0.179445
0.334426
-0.189312
-0.089890
-0.206867
0.023713
-0.064643
-0.114903
-0.175107
0.075499
0.124337
-0.124948
0.081810
-0.207195
0.239840
0.137987
-0.112078
-0.168737
-0.028367
0.024629
0.109098
0.108004
0.155463
0.271916
-0.292372
0.165880
0.010567
-0.208635
-0.154228
0.019796
-0.193713
0.173902
-0.257413
0.014921
0.143473
0.265015
-0.133700
-0.017250
-0.119222
0.027647
0.009623
-0.082056
0.171480
-0.000210
-0.040669
0.112279
0.203018
-0.246647
0.110987
0.087101
-0.068367
-0.126468
-0.172176
-0.238587
-0.081191
0.171778
-0.277522
-0.097433
0.026831
-0.098305
0.117072
0.012925
-0.016955
-0.146718
-0.139301
0.376304
0.160659
-0.153602
-0.060515
-0.074719
0.288884
0.284863
-0.132936
0.262210
0.054134
-0.266238
-0.060497
0.242956
-0.099907
-0.188788
-0.025391
0.359804
0.135467
-0.251267
0.074403
0.108869
-0.027959
-0.040980
-0.045321
0.139260
-0.168877
-0.059748
0.034968
0.217621
0.311032
-0.029279
0.112299
0.200035
0.061503
-0.187207
0.031749
-0.026878
-0.036509
0.108899
-0.162050
-0.032076
0.209323
0.076387
0.285308
-0.067628
0.181775
-0.133005
0.343455
0.169638
0.044701
-0.042745
-0.047099
-0.093966
0.040585
0.086476
0.027655
-0.232046
0.005841
-0.112147
0.314588
0.085126
0.031721
0.092090
-0.108825
0.151821
0.308025
-0.282398
-0.024867
0.112760
-0.083234
-0.091200
-0.157471
-0.230964
0.113194
-0.078028
0.037347
-0.145797
-0.301011
-0.075761
0.099384
0.037833
-0.102233
0.029598
-0.064527
0.001981
-0.034267
0.004402
-0.193950
0.000403
0.143379
0.026414
-0.027872
-0.256965
0.008072
-0.231177
0.128677
0.144599
-0.061617
-0.206574
0.063217
-0.023773
0.141672
-0.191993
0.129029
0.175417
-0.084046
-0.087869
0.128173
-0.172932
-0.157598
-0.137168
-0.256599
-0.037468
0.227462
-0.022140
0.022581
0.304386
-0.022591
-0.003781
-0.119517
-0.083543
-0.182201
-0.143391
0.153815
0.072918
0.095734
-0.023874
0.200508
0.083182
0.105678
0.073851
-0.054463
-0.234714
0.001251
0.034507
-0.218906
0.060804
-0.031938
-0.152996
0.035832
0.048823
-0.059942
-0.158384
-0.062034
0.094610
-0.085568
0.095511
0.111200
-0.206925
0.072021
0.104909
0.249709
0.018545
-0.109980
-0.003984
0.278561
-0.110735
0.069640
0.157154
-0.079182
-0.203323
0.019400
0.164534
-0.167143
-0.198799
0.199062
-0.148993
-0.316468
-0.220669
-0.059394
-0.145557
0.041250
0.214708
-0.195205
0.215905
0.205211
-0.203741
-0.057131
-0.100695
-0.022515
0.140406
-0.074998
0.003734
-0.313919
0.075894
0.055883
0.149732
-0.002136
0.055955
-0.055665
0.066445
0.065133
-0.226085
-0.171995
-0.023654
-0.065528
0.085173
0.013560
0.039837
0.131395
0.256615
-0.145821
-0.109087
-0.019162
0.163751
-0.057791
-0.224273
-0.129881
0.003030
0.086286
0.045469
0.010672
0.131820
0.205575
-0.004661
-0.030227
-0.101939
-0.115637
-0.140896
-0.000597
0.292792
0.138691
0.087134
0.140975
0.044250
-0.124343
-0.043897
-0.123611
-0.218775
0.087219
0.088568
-0.272110
-0.055244
-0.207572
-0.047813
0.015400
-0.018403
-0.202665
0.031040
-0.246521
-0.088161
-0.136002
-0.089747
-0.149550
0.002282
0.028839
0.020899
0.208235
0.147762
0.030929
0.071611
0.046991
0.072383
0.124116
0.083216
-0.065995
-0.193538
0.100647
-0.003230
-0.224088
0.028213
0.243825
-0.335539
-0.204141
0.080587
-0.145355
0.100333
0.171774
0.170479
0.210323
-0.115026
-0.007915
0.087808
0.085201
-0.125493
-0.099375
0.335716
0.074597
-0.288022
-0.086299
-0.153879
-0.196017
-0.072844
0.041505
-0.336241
-0.008859
-0.009205
0.153772
0.032411
0.019006
0.226822
0.105116
-0.199707
0.029558
-0.129582
0.135963
0.157042
-0.128720
0.231736
-0.083346
-0.155173
-0.001869
0.125534
-0.009402
-0.368621
0.147728
-0.027578
-0.014094
0.111809
-0.182632
0.038801
0.080165
-0.092158
-0.173216
-0.186411
-0.046609
0.183531
0.112199
0.076740
0.081466
0.337247
0.090611
0.208847
-0.073136
0.032319
0.105267
0.136728
0.071984
-0.091416
0.005652
-0.011335
0.328828
-0.126557
0.188920
0.000073
0.214651
0.009123
0.086361
-0.230002
-0.306060
-0.090307
-0.062862
-0.274687
-0.118815
-0.159384
0.131627
-0.055845
0.290557
0.203372
0.001283
0.043139
-0.058282
0.119396
0.022164
0.014987
0.022357
-0.022429
-0.013933
0.125738
-0.220941
0.031589
0.189449
0.059412
0.211431
-0.004631
-0.099622
-0.176181
0.154954
0.037337
0.000026
0.046427
-0.186782
-0.160383
0.039231
-0.038195
0.156042
0.107204
0.116097
0.096679
0.317382
-0.292480
0.125056
0.007301
0.039474
0.068846
0.121258
-0.142405
-0.104263
0.026281
0.059238
-0.206785
0.284005
0.120130
0.336275
-0.121329
0.019306
-0.070096
0.026020
0.266927
0.065716
-0.065503
-0.287080
0.017986
0.119176
-0.238271
0.137452
0.229242
0.016016
0.020983
0.121576
-0.065383
0.183581
-0.013108
0.058637
0.048363
-0.300146
-0.198464
0.100690
-0.029330
-0.245473
0.133495
0.170738
-0.095417
0.189189
-0.155081
0.001696
-0.156547
0.112062
0.083952
-0.167792
-0.013337
-0.033031
-0.224704
0.301405
-0.185285
0.175199
-0.219605
-0.203532
-0.148067
0.184085
0.040159
0.045389
-0.051019
-0.148055
0.031781
-0.041437
-0.088941
0.010908
0.157194
-0.046870
0.014765
0.008581
-0.223803
-0.022233
0.152820
-0.088023
0.239651
0.077623
0.186960
0.320088
0.322000
-0.176811
0.046202
0.123709
0.171082
0.110362
0.256261
-0.347149
-0.023797
0.144542
0.076198
-0.114030
0.260599
-0.185907
0.137778
-0.177023
-0.046629
0.075093
0.286336
-0.201395
0.003335
0.018959
-0.115838
-0.034617
-0.119090
-0.218544
0.120283
-0.075287
0.234926
-0.025762
0.161551
-0.224376
0.223750
0.110555
-0.160586
-0.182140
0.248876
-0.252093
0.106561
-0.131865
0.030722
-0.080084
0.392497
0.000576
0.095333
-0.205568
-0.133446
-0.197684
-0.134939
-0.017637
-0.046279
0.001584
0.005774
0.092669
-0.180753
-0.278435
0.044128
-0.042583
0.271998
0.067194
0.157432
-0.358884
-0.242776
-0.149331
0.262346
0.028902
-0.128126
0.142101
0.210827
-0.131283
0.203299
0.124430
-0.276367
0.391078
-0.047076
0.077649
0.047291
-0.155755
-0.173455
-0.029953
0.032066
-0.170708
0.042065
-0.005281
0.055239
0.215676
-0.028702
-0.091506
-0.079332
-0.082659
0.137639
-0.136138
-0.301298
-0.058775
0.135158
-0.155952
0.051208
0.027153
0.328104
0.109493
0.041375
-0.173503
-0.233019
-0.030649
-0.041331
-0.091899
-0.205820
-0.251778
0.201745
0.078709
0.225337
0.256870
-0.098798
0.248443
-0.085421
0.073036
-0.013398
-0.103040
-0.034153
0.012007
-0.052345
-0.083623
0.009458
-0.318455
0.019810
-0.305716
0.114015
0.018961
0.033153
0.147349
0.000080
-0.050612
-0.169046
0.063077
-0.033198
0.139017
0.231953
0.028159
0.016251
-0.196928
-0.157903
-0.045086
-0.147979
0.129990
0.189498
0.242198
-0.241343
0.254638
0.066731
-0.227027
-0.088313
-0.063402
0.186348
-0.263514
-0.203070
-0.260558
-0.222548
0.062439
0.028759
0.170928
-0.142013
0.066044
-0.202763
0.228276
-0.159977
-0.068406
-0.060255
0.235266
0.203990
0.186623
-0.165030
-0.060517
0.258959
-0.150410
-0.207566
0.120678
0.014726
0.178530
-0.089361
-0.195838
-0.031039
-0.023677
-0.035980
-0.156066
-0.225790
-0.381731
0.043954
0.042461
0.135331
-0.262074
-0.031492
-0.181628
-0.226455
-0.078598
0.162796
0.066594
0.038966
-0.193356
-0.060450
-0.271399
-0.039968
0.142959
0.035328
-0.105222
0.253699
-0.228701
-0.137782
0.112446
0.182177
-0.084835
0.171034
0.025374
0.145730
0.059991
-0.172206
-0.105252
-0.029369
0.307585
-0.111606
-0.230705
0.109914
0.038961
-0.058064
0.162297
-0.004303
0.080910
-0.086372
-0.098217
0.151888
-0.027407
-0.100409
-0.148483
-0.039366
-0.247583
-0.008254
-0.009109
0.220538
-0.144366
0.050053
0.264553
0.141821
0.117654
-0.004325
0.115136
0.296245
-0.023602
-0.014589
-0.098227
-0.152650
-0.213677
0.210427
0.023051
0.157859
0.038331
0.188313
-0.033343
0.118592
-0.127472
0.089983
0.230960
0.141827
0.132005
-0.172222
-0.181943
0.050046
0.090671
0.067299
0.217255
-0.005444
-0.030729
-0.191617
0.135639
-0.140952
-0.075278
-0.173490
0.149129
-0.170487
-0.005761
-0.274088
0.059659
-0.051365
0.244388
-0.071627
0.106241
-0.119368
-0.106071
0.194174
0.012651
-0.113453
-0.092017
0.005092
0.196830
-0.069374
0.045757
0.170151
-0.220529
0.271311
0.013580
-0.083145
-0.335153
0.024206
0.244311
0.260751
-0.218289
-0.061076
-0.096785
0.288430
-0.209733
-0.042357
0.015317
-0.005480
-0.041442
0.231699
-0.051251
0.204513
-0.066440
0.204288
-0.080214
0.067076
-0.016095
-0.104179
-0.080494
-0.082030
0.099450
-0.048612
0.122720
0.036098
0.012767
-0.044393
-0.042608
0.100935
-0.087673
0.219271
-0.199269
-0.094676
0.227352
0.029413
-0.003804
0.257797
0.021591
-0.071679
0.130718
0.137516
0.122635
-0.167629
-0.010877
0.097927
0.013566
0.153839
0.063334
0.190925
0.079442
-0.199041
-0.097880
-0.125590
0.086514
0.057789
-0.115524
0.301483
0.278821
-0.059303
-0.037785
0.032763
0.021249
-0.081867
0.090390
0.147740
-0.021220
-0.077625
0.043955
0.309838
-0.136561
-0.079668
0.376733
0.081848
0.086161
-0.207050
0.229833
-0.173052
-0.026517
-0.225498
0.040613
-0.090251
-0.100149
0.144397
-0.165952
-0.170944
-0.154437
-0.166665
-0.120538
0.113628
-0.018797
0.115826
0.046994
-0.255311
-0.277956
-0.087957
-0.011331
0.106667
0.293343
-0.254444
0.148059
-0.076267
0.031705
-0.229996
0.252913
0.147331
0.013560
0.078535
-0.259557
0.210508
0.035878
0.082422
-0.150180
-0.035142
0.116202
0.210775
0.142229
-0.162466
-0.118255
-0.176960
-0.257611
0.052070
-0.186798
0.085345
0.201934
0.092887
-0.127097
0.138116
-0.232062
0.145075
-0.064239
-0.007331
-0.043666
0.011521
0.187844
-0.080319
0.282495
0.260998
0.091111
0.036334
0.198008
0.051096
0.093910
-0.021363
0.012804
0.093478
-0.277133
-0.069705
-0.160187
0.235286
0.078769
-0.146714
0.053454
0.086087
-0.156429
-0.056248
0.119282
0.025058
-0.115212
0.273726
0.032128
0.126508
-0.165453
-0.150575
0.086578
0.155572
-0.034441
0.193711
0.008391
0.067134
0.042548
-0.248711
-0.124457
-0.008938
0.093834
0.238160
0.017760
-0.195323
-0.116481
-0.054848
0.166848
-0.013447
0.033395
-0.161771
0.323655
-0.184764
0.081966
0.243099
0.023933
0.033177
-0.054637
-0.153091
0.066988
0.228874
-0.157233
0.235245
-0.104346
-0.088993
-0.262688
0.240182
-0.077687
0.016594
-0.249839
0.081179
0.113343
-0.162526
0.096521
0.147427
0.259634
0.045156
-0.186217
0.196344
-0.148789
0.318495
0.068296
-0.185115
-0.102135
-0.108864
0.225002
0.014857
0.001471
0.038950
0.081287
-0.106478
-0.132863
0.054646
0.084868
-0.039066
-0.174612
0.229726
0.085976
-0.149070
-0.105927
0.238519
-0.060657
0.112579
-0.013481
-0.090185
0.066226
0.305938
-0.117346
-0.005387
0.021091
0.154997
-0.048049
0.143570
-0.179025
-0.095408
-0.264044
-0.092952
0.027640
-0.151230
0.214966
-0.168481
-0.044275
-0.058573
-0.063939
0.178070
0.112354
0.044310
0.130133
-0.151483
-0.007151
-0.061622
-0.232293
-0.118088
0.139955
-0.055159
0.050819
-0.189203
0.084432
0.075151
0.066826
0.124438
0.154487
-0.115455
-0.066416
-0.085373
0.202897
0.089644
0.013467
0.222043
0.023945
-0.123010
-0.142549
0.150731
0.204232
0.317520
-0.093443
0.177012
0.223732
0.147018
0.077760
-0.021250
-0.086531
-0.019263
0.162231
0.118400
-0.086693
0.011194
0.228484
0.166180
-0.016567
0.051747
0.164319
0.036971
-0.250489
-0.028556
0.003266
0.088099
0.104732
-0.250020
-0.032281
-0.212870
0.307045
-0.175080
-0.128661
-0.089460
0.182276
0.011330
0.220775
-0.120992
-0.032015
0.026825
0.083140
-0.005863
0.095907
-0.058615
0.026790
0.004018
-0.046206
0.202910
0.236505
-0.145221
-0.066891
0.031250
-0.022280
0.110409
-0.097348
0.150788
0.129599
-0.005975
0.097343
-0.190803
0.168155
-0.188370
0.030270
0.102055
-0.107822
-0.275418
-0.144597
-0.010346
-0.141137
-0.050992
-0.212209
0.045741
0.141287
-0.050569
0.211962
-0.148533
0.128641
0.035152
0.073258
0.053966
-0.210732
-0.084562
0.162447
0.118680
-0.196336
0.129895
-0.037436
-0.035552
-0.224960
0.350306
-0.203380
-0.030096
-0.228369
0.209731
-0.036566
-0.254928
-0.099383
0.071376
0.098508
-0.153320
0.063126
-0.012327
-0.140634
0.007929
0.147135
-0.051963
-0.055319
-0.190447
0.239986
-0.095395
0.065235
0.224998
-0.248542
-0.181399
0.142237
-0.019189
0.149215
-0.009234
-0.044490
-0.108549
0.041203
0.191067
-0.121690
0.043010
-0.036669
0.344502
0.017794
-0.383559
-0.085283
0.007911
0.030201
0.224389
0.135395
0.239218
-0.108364
-0.099263
-0.002349
0.017716
0.089629
0.103495
0.094962
0.147985
-0.177886
-0.230409
0.077737
-0.046646
0.043093
0.089135
-0.107379
-0.003033
-0.062420
0.127785
-0.062502
0.165136
-0.215019
-0.218841
-0.007418
-0.096790
0.094911
0.008584
-0.243365
-0.111377
0.216057
-0.132996
0.129504
-0.239224
0.101710
0.161017
-0.246197
0.123815
-0.302024
-0.159388
-0.129841
0.253765
-0.141766
-0.077551
0.116741
-0.411631
0.164118
0.179623
0.115899
-0.293513
-0.281054
0.423782
0.056006
0.019004
-0.217506
0.094588
-0.189190
-0.110356
0.236183
0.028106
0.391488
-0.005323
0.130284
0.034409
-0.100289
-0.008518
0.014958
-0.222753
0.173277
-0.177882
-0.021835
0.017057
0.115003
0.011620
0.143520
-0.046492
-0.035578
0.129496
-0.194416
0.217645
0.056271
-0.053722
0.137993
-0.231542
0.024925
0.306714
0.145547
-0.222983
-0.260368
-0.201524
-0.102468
-0.225650
-0.190569
0.085714
-0.165143
0.151170
-0.051826
-0.020145
-0.036397
-0.120849
0.024412
0.080714
-0.293913
0.025776
0.235740
-0.153950
0.117623
0.105873
0.045546
0.176081
0.026066
-0.237943
0.015471
0.123175
-0.159147
-0.105124
0.018833
0.141602
-0.270579
0.102616
0.225548
0.031331
-0.253403
0.115452
0.118856
-0.257162
-0.188150
-0.167153
0.122873
0.067324
-0.123227
-0.051023
0.067964
0.102042
-0.018776
0.143135
-0.148893
-0.026629
0.095628
0.102735
0.039708
-0.020165
-0.015609
0.179982
0.110870
-0.087487
-0.028781
-0.132503
-0.068614
0.076895
-0.126314
0.249995
0.057013
0.141936
0.223198
0.024896
-0.030750
-0.078577
-0.152430
-0.082761
-0.236904
-0.044309
0.098585
0.151528
0.225169
0.026214
-0.257660
0.174030
-0.083704
-0.117603
-0.013549
-0.021508
0.132960
0.143156
-0.178109
0.018923
0.136585
0.146835
-0.170398
-0.142414
0.053092
-0.066624
0.055020
0.258713
-0.176800
0.100700
-0.028715
0.098095
0.143657
-0.191762
-0.214434
0.111928
-0.022602
-0.014750
0.137341
0.001051
0.078310
-0.002230
0.193188
0.146273
0.097903
-0.002268
0.068260
0.169747
-0.202119
-0.111808
-0.104118
-0.049696
-0.206658
0.266758
0.136707
0.052504
-0.241144
-0.068227
-0.068110
-0.079293
-0.058160
-0.148192
-0.088775
0.127725
0.109005
0.107640
0.131135
0.012411
-0.107222
-0.152159
-0.126252
-0.238675
0.123611
0.102862
-0.007503
-0.107082
0.035075
0.007693
0.099925
-0.029724
0.095297
0.092641
-0.198583
0.192110
0.072158
0.010874
0.041035
-0.180577
-0.045460
-0.045139
-0.031480
0.178328
-0.024074
-0.047498
-0.164915
-0.065313
0.056874
-0.321921
-0.163984
0.003280
0.146081
0.094611
-0.157405
-0.346550
-0.169695
-0.126336
-0.081760
0.052145
-0.239475
0.006301
0.005483
-0.136887
-0.100186
-0.064224
0.097876
0.121486
0.105944
0.019078
-0.151357
-0.054245
-0.039425
0.155220
0.094516
0.007004
0.038283
-0.088254
0.109065
0.266869
0.253926
0.021252
-0.130762
-0.046134
-0.072418
-0.151985
0.300862
-0.018463
0.204862
0.059912
0.013720
-0.114075
0.033235
0.103868
0.168256
0.003352
0.149193
-0.110274
-0.211482
0.061604
0.165168
-0.115881
0.013846
0.231276
0.032870
-0.125324
-0.050670
0.125274
0.047756
0.256066
-0.049845
0.021624
0.118799
0.134228
-0.057141
-0.072679
-0.100551
0.302683
0.227352
-0.037544
0.018476
-0.298058
0.265273
0.091087
-0.107535
0.420522
-0.137063
-0.152505
0.179316
0.176903
-0.156915
-0.115074
0.311202
-0.011526
-0.069281
-0.241278
-0.166715
0.087764
0.050577
0.062809
-0.231053
-0.055345
-0.207701
-0.099626
0.125633
0.330663
-0.081513
-0.013152
0.103132
0.253410
0.055371
0.277526
-0.097741
-0.007823
0.116667
0.239814
-0.062289
0.064143
-0.085566
0.038552
0.141549
-0.165157
0.105343
-0.277678
-0.239934
0.164021
0.099843
0.005540
-0.153131
0.191610
0.051419
0.085304
0.027859
-0.034506
-0.328813
0.110684
-0.217609
-0.092676
-0.162805
0.049536
-0.021854
0.073216
0.031622
0.101226
-0.243709
0.215479
0.011814
0.011578
-0.228504
0.173861
-0.190212
-0.094504
0.309916
-0.086680
0.097243
0.087519
0.071843
0.211246
-0.043497
0.198166
0.075830
0.036354
-0.319753
0.090866
0.020608
0.212130
0.010779
0.119488
-0.114577
0.065294
0.019172
-0.154731
0.184827
0.061283
0.006790
-0.218750
0.130764
0.017026
0.133684
-0.002504
0.092447
0.228559
-0.054896
0.105993
-0.090740
0.216283
0.022367
0.019889
-0.053775
0.015608
-0.017312
0.050745
-0.080517
0.091608
-0.190156
0.091004
-0.044122
0.271871
0.051740
0.083752
0.116521
-0.063557
0.250368
0.159296
0.008608
0.045217
-0.201430
0.069015
-0.176472
-0.127534
-0.011445
0.073115
-0.043844
-0.171051
0.159010
-0.077970
-0.078449
0.217657
0.162373
-0.242965
-0.085810
-0.204580
0.053781
0.039833
-0.007420
-0.169382
-0.112675
0.245987
0.288195
-0.136494
0.223098
-0.021128
0.113518
-0.258115
-0.089039
-0.171952
-0.033097
0.188782
0.003608
-0.142590
-0.055650
-0.008156
-0.021202
-0.331610
0.179475
-0.133920
-0.297837
0.022603
-0.132085
0.065669
0.001505
0.178865
-0.069057
0.124910
-0.292361
-0.185412
-0.048149
-0.017584
-0.128763
0.203185
0.139886
0.156113
0.229087
0.086149
0.255588
0.155365
-0.146372
0.112522
-0.177632
0.074291
-0.203472
-0.195699
-0.042730
-0.208486
-0.233994
0.108340
0.189045
-0.248513
-0.014661
-0.095782
-0.031412
-0.051367
-0.194274
0.109339
-0.288101
-0.136754
-0.062806
-0.090044
0.358926
-0.244269
0.030181
0.016868
0.092768
-0.074689
-0.047964
-0.064196
-0.038845
0.289657
-0.042063
0.127400
0.163115
0.081868
-0.209812
0.174389
0.024619
0.073948
0.027764
-0.171486
0.110181
-0.047296
-0.077957
-0.028121
0.105973
0.248487
-0.089211
-0.157727
-0.265689
0.045543
0.044225
0.005236
0.076291
-0.082243
-0.205832
-0.215424
0.041509
-0.231026
0.111111
0.090031
0.016430
-0.011810
-0.074523
-0.075935
-0.145662
0.016418
-0.141044
-0.170982
-0.125848
-0.111199
0.078815
-0.049756
-0.044436
-0.126209
-0.015513
0.029954
-0.070388
-0.279825
0.146336
-0.008437
0.096756
0.181873
0.210261
0.140304
-0.000114
0.027626
0.293191
-0.132869
-0.141523
0.198984
0.041224
0.062409
-0.062135
-0.094043
0.120802
-0.072612
0.169072
0.013520
-0.059739
0.063312
-0.107990
0.051633
-0.115298
-0.027461
0.017541
0.275970
-0.003237
0.257274
0.035119
0.116125
0.307968
0.095770
-0.236244
-0.006846
-0.000198
-0.021130
0.085348
0.154117
0.148383
0.073842
-0.063013
0.111622
-0.020465
-0.085695
0.238900
0.206993
0.220985
-0.059943
-0.174722
-0.133393
0.207828
-0.089038
0.106441
0.057215
0.079682
-0.012856
0.065597
0.126931
0.021779
0.111251
-0.123649
0.232560
-0.177024
0.069883
-0.119251
0.203925
-0.151550
-0.005227
0.105833
0.018317
0.063288
0.137672
0.205634
0.015063
0.081508
-0.141754
0.040884
-0.133829
-0.024601
-0.335823
0.267505
0.067684
-0.040443
0.237127
-0.325525
-0.150658
0.019242
-0.175516
-0.218123
0.155567
0.203002
0.075946
0.270061
-0.192084
0.136023
-0.172212
-0.108526
0.041464
0.282188
-0.236304
-0.022801
0.004094
-0.299361
-0.157339
-0.082918
-0.087172
0.113310
0.320951
-0.331262
0.153883
0.213191
0.034852
0.054499
0.071296
0.143447
0.203992
-0.061494
0.173821
0.002751
0.199178
-0.168786
0.111821
0.065124
-0.062652
0.134689
0.283970
-0.017063
0.256502
0.035352
0.050154
-0.132238
0.115110
-0.113390
-0.153683
0.055834
-0.088329
0.311628
0.101563
0.140773
0.038687
0.197638
0.097426
0.275754
-0.148473
-0.349093
-0.078339
0.095812
0.016577
-0.021142
-0.164721
0.148422
0.085834
-0.114565
-0.094822
-0.159728
-0.136974
-0.142755
-0.314740
0.093275
-0.158840
-0.115612
0.106888
-0.126655
0.003135
-0.192815
-0.292977
0.209020
-0.046598
0.196539
0.059454
-0.060144
0.096703
-0.091320
0.032790
0.130055
-0.092301
0.015943
-0.114488
-0.286818
0.120076
-0.086249
0.137275
0.129530
-0.034398
0.186223
0.071167
0.046287
-0.175323
-0.018339
-0.093151
-0.129985
0.051850
0.267126
-0.197878
-0.113348
0.074781
0.196361
-0.121582
0.181552
-0.277375
-0.116850
-0.361096
0.069940
-0.214844
0.127780
0.105458
0.239603
-0.139587
-0.222866
-0.157531
0.140394
0.016505
0.013332
-0.120427
0.143154
0.126314
-0.034376
-0.023801
0.116425
0.089240
-0.153961
-0.307470
-0.123642
-0.095314
-0.199463
0.168838
-0.171212
-0.129422
0.083644
0.097526
-0.179105
-0.279346
-0.072822
-0.168271
-0.156451
-0.100427
-0.142478
0.012780
-0.258115
-0.269907
0.009950
-0.239628
0.142404
-0.108258
0.109134
-0.046592
0.171658
-0.027207
0.063867
0.038020
0.123026
0.228339
-0.242521
0.264139
0.083487
-0.022257
0.337735
-0.079804
-0.096936
-0.206585
-0.158799
-0.010762
-0.149438
-0.073958
0.240717
0.064161
-0.052894
0.094512
0.069840
0.238907
0.091203
0.008224
-0.021773
0.338949
0.045859
0.271878
0.195223
0.384193
-0.259954
0.148941
-0.211462
0.162587
0.257599
0.066052
0.227781
0.078139
-0.034681
-0.138427
0.092511
0.161926
0.191271
0.076484
-0.033403
-0.011712
-0.103080
0.029490
0.330926
0.212869
0.186005
-0.037466
-0.172876
-0.003072
0.204952
-0.299389
-0.217058
0.095381
-0.200188
0.139934
-0.072709
-0.061168
0.161642
0.220585
0.078699
0.031562
-0.398270
0.072796
-0.107045
0.006562
-0.064135
-0.214464
-0.101297
0.138567
-0.076079
-0.153498
-0.071713
0.005235
0.216835
0.063890
0.222961
0.193211
-0.282614
0.068240
-0.047990
-0.115481
0.009260
-0.118552
-0.115127
0.263113
-0.116829
-0.277719
-0.290392
0.164883
0.030555
0.036153
-0.163013
-0.042225
0.007456
0.120978
-0.042860
-0.021713
0.020903
0.002000
-0.017762
0.161581
-0.093345
-0.061522
-0.208917
0.207753
-0.115402
-0.006396
0.181436
0.016085
-0.032458
0.138283
0.191226
0.263537
-0.063469
0.008720
0.182575
-0.260678
0.122049
0.161925
0.083255
-0.134337
-0.045832
0.082915
-0.060184
0.020801
-0.040615
-0.144954
0.104226
0.345664
0.137000
-0.179237
-0.000075
0.202464
-0.103213
-0.147056
0.049201
-0.049224
-0.188188
0.118103
-0.120197
-0.030791
0.113556
-0.135478
0.151016
0.259140
-0.094568
0.006195
0.069599
0.189437
-0.007576
0.143057
-0.098240
-0.092294
-0.098082
0.061308
0.111907
0.013148
0.289008
-0.083518
0.038347
-0.058262
0.227640
-0.148663
-0.330715
-0.023429
0.232308
-0.243399
-0.055594
0.068112
0.039795
-0.173573
0.084071
0.222809
0.020217
-0.111887
0.019188
-0.080569
-0.037506
-0.106496
0.010970
0.003326
-0.120722
-0.019876
0.093152
0.021994
0.104003
0.018453
-0.142026
0.056801
-0.161646
-0.152792
0.159823
0.161868
-0.166142
0.111371
-0.087550
0.135880
-0.113105
0.048370
0.067231
-0.016444
0.203496
-0.124107
0.314473
0.156938
-0.071438
-0.209567
-0.155910
-0.106062
0.263625
-0.117750
-0.336817
-0.165812
0.103914
-0.008992
-0.037199
-0.016280
0.242733
0.138332
0.137761
-0.143135
0.122995
0.095234
-0.151085
-0.002812
0.038214
-0.117773
-0.103806
-0.090611
0.076493
-0.253159
0.331999
-0.110126
0.385736
-0.045218
0.012935
0.046628
0.078850
0.024389
-0.011164
0.077090
-0.242339
0.226408
-0.079698
-0.099749
0.018127
0.200961
-0.011807
-0.011297
-0.012051
0.051828
0.167374
-0.171712
-0.201072
-0.072433
-0.238969
-0.193631
0.078380
-0.257474
0.115542
0.095562
0.129058
0.027924
-0.107902
-0.009577
0.082786
0.243440
-0.075100
-0.018038
-0.133802
0.102691
0.050176
-0.098858
-0.044063
-0.241198
-0.235883
-0.114009
0.276555
0.022138
0.162860
0.212473
0.147924
-0.004248
-0.077585
0.153610
0.087198
0.188798
-0.004365
-0.150954
-0.245690
0.269640
0.087365
0.020551
-0.282892
0.108984
-0.354280
-0.008021
-0.421808
-0.165393
0.200614
0.143191
-0.262412
-0.063893
0.066393
0.154008
0.144539
0.093771
-0.005346
-0.059870
0.056078
-0.222365
-0.015702
-0.234041
0.294655
0.071785
-0.259598
0.032772
-0.064407
0.154967
-0.127819
0.012427
-0.089738
-0.265838
0.016134
0.079465
-0.025986
-0.201583
-0.199159
-0.053653
-0.076223
0.183830
-0.020160
-0.002226
0.215609
0.140576
-0.092374
0.380471
0.507355
0.012266
-0.044710
0.211971
0.176665
0.015670
-0.102893
0.047873
-0.046720
-0.111595
0.077810
-0.099793
-0.053327
0.037262
-0.038033
0.022402
0.105764
-0.238786
-0.212202
-0.138186
-0.258429
-0.117043
0.165234
0.263684
-0.251225
0.198730
-0.038568
0.072481
0.288918
-0.171973
-0.307648
-0.060834
0.111934
-0.112503
0.080217
0.221171
0.076319
0.152810
0.118002
-0.090367
-0.098507
0.031497
-0.194439
0.220457
0.042528
-0.130314
-0.266959
0.064797
-0.022581
-0.194958
-0.023907
-0.092158
0.047292
-0.027912
-0.051925
-0.146886
0.046464
-0.105958
-0.089903
0.028623
-0.266865
-0.236464
-0.195638
-0.312237
0.053721
-0.266140
0.066852
-0.074929
-0.039041
0.197514
0.045516
-0.144759
0.264385
0.173564
-0.069921
-0.129712
-0.103551
0.106971
0.370040
0.235019
-0.295585
-0.070630
-0.026222
-0.282454
-0.174390
-0.126976
0.008506
-0.201900
0.167884
0.132414
0.051946
0.115507
0.407155
-0.031172
-0.008413
-0.156033
0.145327
-0.060165
0.199319
0.102773
-0.218590
0.169347
0.079666
0.040779
0.259228
0.042933
-0.100227
-0.129161
0.016571
-0.118001
-0.076754
0.074076
-0.240324
0.191647
-0.089704
0.007931
0.101997
-0.050584
-0.097915
0.168472
0.271807
-0.153835
-0.042178
0.166736
-0.045467
0.072728
0.175673
-0.019218
0.140550
-0.062961
0.131923
-0.155740
-0.063432
-0.215073
-0.086776
-0.056836
-0.065782
-0.023731
0.017113
0.130107
0.147269
0.116265
-0.227476
0.066588
0.135536
0.090238
0.052136
-0.032136
0.169163
0.220796
0.147215
-0.179740
-0.179159
0.313411
-0.173134
-0.252462
0.135961
0.183278
-0.232470
0.069026
0.163654
0.051733
-0.096572
-0.322587
0.053953
-0.143630
0.107898
0.151881
-0.159353
0.214284
0.353923
-0.118575
-0.144078
-0.144826
-0.178620
0.133333
-0.034213
0.192376
0.064937
-0.212856
0.019220
-0.127860
-0.075173
0.139500
0.147659
0.159110
0.230817
-0.137086
0.060029
-0.209199
0.185257
-0.045433
0.043585
-0.088656
-0.019356
-0.140648
0.323449
-0.093620
0.216793
0.289487
0.033085
-0.154654
-0.208033
-0.139145
0.079704
-0.265946
-0.251955
0.061050
0.219285
-0.015922
0.088080
-0.014126
0.066668
-0.315768
0.054719
-0.331383
-0.110625
0.255096
-0.271835
-0.099845
0.165727
0.126763
-0.082589
-0.046428
0.046797
0.391547
0.053208
-0.281006
0.082718
-0.130452
-0.155414
0.056564
0.004928
0.043298
0.083810
0.155996
-0.063478
-0.099357
0.153794
-0.162976
0.166996
0.090564
0.016137
-0.191770
0.297034
-0.032578
0.132528
-0.236187
-0.216405
-0.021069
-0.117483
-0.215805
-0.142216
-0.333737
0.111295
-0.205768
0.119411
-0.124124
0.203629
-0.024710
-0.168545
-0.069840
-0.131803
0.148162
-0.147960
-0.066679
0.151407
-0.210270
0.028150
-0.051703
0.206571
0.052320
-0.156749
0.028509
0.011931
-0.032420
-0.003633
-0.096667
0.226598
0.044325
0.114624
-0.053863
-0.095082
0.104562
-0.082292
0.099178
-0.007082
-0.258162
0.066052
0.011041
-0.129437
0.074474
0.111250
0.075660
0.050331
0.144597
-0.178467
-0.188850
0.173879
-0.005857
-0.232393
0.305879
0.250836
0.017899
-0.011637
0.033857
-0.223922
0.054209
-0.071049
-0.183989
-0.126427
0.078617
0.004654
-0.066203
0.117783
0.285625
0.179468
0.184750
0.161022
0.206920
-0.120216
0.139832
0.057988
-0.064160
0.151014
-0.139800
0.082203
-0.121071
0.021016
0.091626
0.099339
-0.193853
-0.061175
-0.047741
0.058566
0.102802
-0.197423
-0.176677
0.130986
-0.080983
0.054956
0.057986
-0.210892
-0.059362
0.000750
0.294312
0.017312
0.011608
0.068255
-0.275692
-0.089384
-0.130972
-0.013344
-0.230841
0.240601
0.133274
0.279256
0.073376
-0.135896
0.213215
0.191238
-0.054903
-0.052146
-0.091759
-0.002305
-0.191471
-0.093398
0.034467
-0.280731
0.157518
0.149018
0.020282
0.066731
-0.019493
0.191320
0.176906
0.143743
-0.185098
0.067552
-0.192322
-0.092255
0.057460
0.016779
-0.020209
0.084111
0.204507
-0.051121
-0.060949
0.023325
-0.237987
-0.187398
0.107572
0.080430
0.107049
0.206973
0.076327
0.040938
0.053432
0.013929
0.180862
0.022462
-0.151965
0.206288
0.139730
-0.077309
-0.112872
0.133015
-0.018977
-0.137844
-0.109268
-0.040396
-0.082947
0.257990
-0.176861
-0.148333
-0.115434
-0.029561
-0.002064
-0.044969
0.061463
-0.037117
0.071610
-0.058475
-0.141800
0.077980
-0.042195
0.187681
0.083450
-0.099932
-0.029663
0.018162
-0.176237
0.024032
-0.302199
-0.189429
-0.175512
0.087215
-0.160285
0.194671
-0.115853
-0.299671
0.017139
0.122239
0.185511
0.053295
0.032160
-0.035268
-0.114890
0.037996
-0.329222
0.019501
-0.048320
0.043491
-0.092425
0.231559
-0.114550
-0.110856
-0.024952
-0.046417
-0.057305
0.216783
-0.130711
-0.190376
-0.081443
-0.096831
-0.111786
0.177468
-0.020092
0.098150
0.256314
-0.056328
-0.222280
0.057607
0.138232
-0.204912
-0.297394
-0.065126
-0.100486
-0.036162
0.036197
0.068049
-0.070544
-0.062512
0.006329
0.197988
-0.039159
0.120079
0.099132
-0.020378
-0.163915
-0.167781
-0.133348
-0.066192
0.169082
-0.344598
-0.063272
0.108217
0.041671
-0.153784
0.161961
0.309930
0.133951
-0.053919
-0.312097
0.101006
-0.039451
-0.134347
-0.259587
-0.041035
0.277562
0.004426
-0.070749
0.063284
0.151414
0.337534
-0.014606
0.188058
-0.111435
-0.028396
-0.184928
-0.124374
-0.193194
0.218702
-0.111508
-0.247375
-0.199142
0.316693
-0.072152
0.201167
-0.012650
0.207137
-0.140677
0.161867
-0.315743
0.157893
-0.032279
0.025896
0.146685
-0.193551
-0.100515
0.168621
-0.090411
0.050716
0.064526
-0.054121
0.178548
-0.167055
0.008028
-0.121972
-0.162795
-0.126210
0.004647
-0.098859
0.091590
0.172050
0.080449
0.139497
0.105920
-0.204520
0.013126
-0.051538
-0.050494
0.294110
-0.037390
-0.162109
0.022518
-0.107313
0.113466
0.203921
0.034871
-0.146679
-0.248760
0.223402
0.037529
-0.162716
-0.199064
0.071747
0.190678
0.092560
0.167087
-0.066956
-0.037185
-0.043212
0.150863
0.085093
0.057368
0.058034
-0.065986
-0.121197
-0.083844
-0.124284
0.172922
-0.009705
0.130757
0.025821
0.066365
-0.046926
0.150123
-0.005920
0.199864
0.034767
0.171367
-0.059789
0.008031
-0.093824
0.242088
-0.018121
-0.062659
0.105106
-0.244280
0.311865
-0.178431
-0.103140
-0.029232
0.218300
0.197108
-0.198940
-0.036843
0.007686
-0.205589
0.148567
0.088812
-0.087972
-0.043729
0.084663
0.021644
-0.181877
-0.155660
-0.086857
0.084726
0.237395
0.271047
0.044008
-0.209324
-0.039706
0.131617
-0.027283
-0.139757
-0.028276
0.005050
0.039114
0.183221
-0.153565
0.051762
-0.117732
-0.081775
0.172133
0.052238
-0.115915
-0.104210
0.088312
-0.024548
0.119317
0.111033
0.188043
0.030569
-0.058792
0.098101
0.065340
0.117987
-0.272661
0.014129
0.003125
0.009941
0.130822
-0.055785
0.120456
-0.042816
-0.128652
-0.135107
-0.203407
-0.155850
-0.257432
-0.087869
0.117782
0.025771
-0.084923
-0.211441
0.245027
0.031162
0.115062
-0.131822
-0.149157
0.110738
0.011922
-0.157782
0.022832
-0.206947
-0.061163
-0.027215
-0.001258
-0.160274
-0.031858
0.189018
-0.273826
-0.019021
-0.032593
-0.222137
0.163202
0.084880
-0.110954
0.057317
0.009331
0.098192
-0.012595
0.231006
-0.106712
-0.149058
-0.220898
0.104271
-0.117004
0.280484
-0.224078
-0.136433
-0.126703
0.087334
-0.279928
0.114855
-0.091124
-0.012234
-0.165648
0.052311
0.067790
0.088205
0.003507
-0.255034
0.158037
0.097129
-0.125296
-0.077741
0.034766
-0.112270
-0.027876
0.145429
0.117684
-0.012169
-0.045734
0.256564
-0.134210
0.070945
0.034063
0.030111
-0.175700
0.052065
-0.008118
-0.004025
-0.087106
0.003159
0.174153
-0.021271
-0.235284
-0.165466
0.235156
-0.180273
0.206584
0.056204
0.199571
-0.107836
0.232646
0.010708
-0.043058
-0.081743
-0.009732
-0.085756
-0.212313
0.209860
0.038454
-0.089443
0.026219
-0.181669
-0.275981
-0.021821
-0.043081
-0.155191
0.329403
0.145368
0.035803
0.092034
0.157049
0.019998
0.216909
-0.056324
-0.148948
-0.173104
0.056379
-0.161746
0.033738
-0.189703
-0.160784
-0.266765
0.253090
-0.225753
-0.136906
-0.063472
-0.204879
-0.276416
0.254878
-0.143929
-0.095618
-0.393602
-0.266829
-0.084801
-0.095281
0.047671
-0.206352
0.282698
0.172278
0.056880
0.117419
-0.168137
0.088922
-0.054253
-0.175639
0.287886
0.221144
-0.175241
0.110588
0.036126
0.104600
-0.142099
0.108804
-0.073820
0.183316
-0.065296
-0.261029
-0.239516
-0.250023
0.224380
-0.144306
-0.024413
0.173887
-0.128061
-0.231498
-0.020277
0.039722
-0.160000
-0.093573
-0.107624
0.135863
-0.015366
0.021824
-0.107611
-0.018206
0.147547
-0.200415
-0.219580
0.029869
0.050544
-0.091134
0.104152
0.029912
0.172436
-0.137559
0.065844
0.100246
0.034455
0.030131
-0.024196
0.075812
0.111520
0.078149
0.040008
0.079857
0.090461
-0.208582
0.054726
0.133603
0.072227
-0.045214
-0.068228
0.150191
-0.175037
0.055870
-0.172358
0.002251
0.167464
-0.054738
0.055674
0.004002
-0.073197
-0.151540
-0.143738
0.007180
-0.221681
-0.237313
0.171624
-0.026801
0.230318
0.061332
0.088839
-0.086208
-0.210463
-0.110987
-0.094355
-0.061452
0.140787
-0.162039
0.083283
0.169883
0.096656
-0.144760
-0.014267
0.176437
-0.123784
-0.121470
-0.180750
-0.166704
-0.093146
-0.091749
-0.146925
-0.102732
0.087857
-0.076034
-0.213701
0.045566
0.118500
-0.046773
0.278062
-0.125198
-0.174376
0.178648
-0.107853
0.044397
0.297101
0.003808
0.057039
0.160074
-0.017536
-0.191860
-0.073149
0.074602
-0.127215
-0.058381
0.117794
-0.166053
-0.233326
-0.284030
-0.176135
0.057395
-0.027888
0.280223
-0.201260
0.005017
0.193573
-0.019728
0.178577
0.404660
0.167076
-0.102375
0.229792
-0.068555
-0.314008
0.091950
0.104566
0.097926
0.081883
-0.311217
-0.103468
0.244507
0.104116
0.056398
0.176469
0.064679
0.076590
0.087074
-0.025823
-0.184444
-0.143137
0.003700
0.293184
0.029568
0.109127
0.159682
-0.195682
-0.165089
-0.212795
0.163381
-0.067241
-0.140120
0.018750
-0.328370
0.294392
0.145792
0.139870
-0.000462
0.103300
0.190131
0.280314
0.067533
-0.019468
0.177784
0.058120
0.113377
0.026019
0.122757
0.041804
0.071551
-0.258517
-0.063160
-0.019433
-0.005075
-0.163664
0.172790
0.155900
0.025272
0.016975
-0.125475
0.068974
-0.012665
0.124039
-0.114392
0.089398
0.023395
-0.097219
0.197737
0.071259
0.186090
-0.122131
-0.086904
0.211074
0.232494
0.231863
-0.208403
-0.039107
-0.086791
-0.130693
0.079426
-0.020760
0.106324
0.250399
-0.032382
-0.069915
0.154781
-0.354091
0.020473
-0.056369
0.098370
0.152345
-0.073148
0.195163
0.082144
0.111146
-0.396130
0.165498
-0.130650
-0.041054
0.103102
-0.174946
-0.091847
-0.020754
-0.034257
-0.198888
-0.079494
-0.029006
-0.131415
0.027785
-0.211892
0.051893
-0.042726
-0.055946
-0.140245
-0.335341
0.091447
-0.121448
0.116925
0.149916
0.111168
-0.089391
-0.089069
-0.083620
0.123419
-0.020963
0.163393
-0.090553
0.133655
-0.076855
0.079629
-0.055642
0.031739
0.018860
0.142159
-0.062406
-0.255517
-0.108699
0.217575
0.043804
-0.004167
-0.019162
0.076429
-0.231015
0.038293
-0.143564
0.148822
-0.128962
0.050546
-0.071745
0.071903
-0.121797
-0.141300
0.243652
0.000669
-0.057691
-0.166784
0.172605
0.054309
0.070665
-0.236349
-0.082024
0.005657
-0.189641
0.074356
-0.095369
-0.159908
0.174943
0.005393
-0.030284
0.018797
-0.027108
0.273091
-0.277894
-0.004203
0.059835
0.191018
-0.153637
-0.388349
-0.100118
-0.024191
-0.007007
0.021173
0.113583
-0.083574
-0.119853
0.183617
0.094112
0.104508
-0.228835
-0.227131
-0.037851
0.066138
-0.184995
0.034839
0.142802
-0.011049
-0.108006
0.129735
0.089278
-0.165158
-0.028107
-0.167306
0.119279
0.244915
0.109868
-0.194022
0.183419
0.074171
-0.038597
-0.017240
-0.050223
-0.231950
0.097822
0.252143
-0.068904
0.169082
0.017462
-0.279344
0.041408
-0.067586
0.038832
-0.053134
0.168156
0.003095
0.196152
0.160265
0.145457
0.142892
0.310989
0.211596
-0.006115
0.003894
0.065188
0.022678
0.055474
0.282685
-0.299199
-0.177968
-0.296180
0.158507
0.135791
-0.007839
-0.106871
-0.072936
0.112269
-0.313728
0.040197
-0.182653
-0.145127
-0.184153
0.043420
0.036575
-0.150918
-0.075527
0.113231
0.254374
0.179908
-0.222182
-0.149941
-0.086276
-0.125388
0.191873
-0.181251
0.132708
0.054546
-0.068241
0.231067
0.036003
-0.105264
0.094208
0.166098
0.077557
0.243910
-0.132203
0.103869
0.105386
0.212102
-0.034376
-0.243976
0.102763
0.242558
0.113755
0.011847
-0.009871
0.204389
-0.082878
-0.246364
0.214728
-0.114466
0.029592
-0.168432
-0.053839
-0.139356
-0.024735
-0.009597
0.023059
-0.120582
-0.102319
-0.016096
-0.243706
-0.007330
-0.004132
0.032405
0.225155
0.138548
-0.083508
-0.060220
-0.061466
-0.040086
0.056690
-0.266565
-0.044996
-0.188355
-0.037070
0.030348
-0.020924
-0.094489
-0.188841
0.069861
-0.213101
0.226845
-0.190163
0.220917
-0.199375
-0.073746
-0.177496
0.020900
0.241005
0.202268
0.055918
-0.106992
0.051831
0.163288
0.168632
-0.089580
0.200275
-0.173555
-0.331361
0.178537
-0.003602
0.171304
-0.198769
-0.064033
-0.137723
-0.005889
-0.015957
0.208223
0.003951
0.020308
0.013353
-0.112034
-0.288454
0.105185
0.051818
-0.073480
0.196454
-0.094919
0.225768
-0.144582
0.074905
-0.076143
-0.107160
0.048517
-0.203128
-0.207975
-0.119269
-0.216085
-0.017818
0.108260
-0.030831
-0.121810
0.149657
0.320547
-0.168390
-0.309597
0.148098
0.163957
0.082331
0.044509
0.156298
0.141927
-0.031905
0.249298
0.162503
0.123837
0.116656
-0.029540
0.052218
-0.252384
0.125000
-0.061127
0.264552
0.299107
-0.216844
-0.087110
-0.033790
0.108218
-0.015968
-0.097701
-0.179090
0.064168
-0.005445
0.042152
-0.033667
-0.289847
0.068158
-0.126328
0.218157
0.021291
-0.097822
0.101115
-0.137449
-0.021560
-0.126172
0.259058
-0.087500
-0.178772
0.234918
-0.002852
-0.106386
0.057159
0.111070
-0.177164
0.067222
0.225164
-0.205492
0.021202
-0.185089
0.274233
0.073876
0.172461
-0.037358
0.162231
-0.002351
0.172905
0.182709
-0.216360
-0.115221
0.030984
-0.069790
0.024324
-0.041801
0.134535
0.123427
-0.071723
-0.008003
-0.185127
0.066736
0.058240
-0.136420
-0.118147
-0.044906
0.285015
0.251061
-0.129781
0.108368
-0.013351
-0.053975
0.065797
-0.111956
0.081029
-0.148861
-0.231782
-0.047814
0.103321
-0.161076
0.082774
-0.043863
0.212849
-0.140018
0.049002
0.124282
0.245158
0.004090
0.006189
0.021466
-0.033412
-0.170819
-0.187109
0.103446
-0.138455
-0.215230
-0.000122
-0.321676
-0.050990
-0.115073
-0.087721
-0.094759
0.133758
0.271284
0.219124
0.000657
-0.310631
-0.071980
0.229540
-0.148955
-0.232259
-0.286029
-0.062757
0.225270
-0.075121
0.139561
-0.127441
-0.105385
-0.107613
0.284909
-0.393932
0.047078
0.094519
-0.110846
0.176396
-0.373888
0.382491
-0.036127
0.337898
-0.191534
0.216898
0.116175
0.111110
-0.027149
0.214172
0.007821
-0.214781
0.229738
-0.032922
-0.098933
0.010106
0.185802
-0.035926
-0.245835
0.018900
0.019928
0.000852
-0.329689
-0.164878
0.173556
0.105898
0.011003
-0.065296
0.007751
-0.068796
0.405318
0.102667
0.085327
-0.057619
0.081831
0.163306
-0.149822
0.120158
0.005405
0.031118
0.055209
-0.163465
0.050767
0.321933
-0.308006
-0.119626
0.015245
0.250072
-0.097241
0.184152
-0.194004
0.105714
0.352424
0.160044
-0.106852
0.090601
-0.007215
-0.180673
-0.065942
0.029098
-0.118072
-0.366590
-0.097404
0.258166
0.203912
0.087774
-0.026364
0.042508
-0.020900
0.069078
0.155651
0.232990
-0.029731
0.056498
0.150813
-0.132417
0.156697
0.014944
0.187381
0.017332
0.050353
-0.138678
-0.109440
-0.067953
-0.179382
0.035177
0.120474
0.120217
0.262484
0.035883
0.128303
0.158890
0.225850
-0.195579
0.006363
0.144037
0.049299
0.051153
-0.002071
-0.034465
-0.172846
-0.026468
0.043963
0.108447
0.055316
0.091903
0.171564
0.271622
-0.284022
-0.090629
-0.060169
0.029892
0.324907
-0.076597
0.064698
0.227468
0.137944
0.261682
0.200010
-0.142370
-0.042806
-0.177312
0.036404
0.059254
-0.046498
-0.052064
-0.291359
-0.046280
-0.109596
0.067783
0.212543
-0.034288
0.206273
0.225124
0.076406
0.051107
0.126045
-0.153631
0.088496
0.195980
0.051483
-0.082035
-0.208256
-0.036656
0.168356
0.060419
-0.043515
-0.110481
0.232967
0.006745
0.109505
0.201632
-0.268486
-0.099789
-0.051249
0.245731
0.075617
-0.026868
-0.057850
-0.071077
0.072013
0.047075
0.168285
-0.063293
-0.115874
-0.079802
0.163034
0.051417
0.013441
0.073773
-0.037697
-0.178814
0.016030
-0.260122
-0.071062
0.104819
-0.079141
0.179319
-0.025726
0.039303
-0.186199
-0.244457
-0.260271
-0.110667
0.005228
-0.039307
-0.143097
0.023418
-0.119553
0.168893
0.162932
0.171656
-0.135455
-0.113422
-0.139222
0.043009
-0.149606
-0.166686
0.298189
0.410010
-0.030438
0.188743
-0.028166
0.060652
-0.159246
0.125828
0.220849
0.056702
-0.088751
-0.115848
-0.091860
0.115175
-0.224196
-0.145855
0.191726
0.221588
0.106229
0.044685
-0.076544
0.099241
0.103656
0.035166
-0.109377
-0.044002
-0.029762
0.095251
0.025355
0.075388
0.040788
-0.148992
0.164609
-0.082009
0.050047
0.004575
-0.002005
0.007256
-0.133787
-0.176348
0.102352
0.042224
0.056748
-0.051448
-0.145811
0.022587
0.114293
-0.094824
0.233129
0.038982
0.194480
-0.123828
0.284374
-0.062837
-0.147349
0.111841
-0.224730
-0.025055
0.199212
0.090501
-0.102981
0.047368
-0.075343
-0.111587
0.162447
-0.025660
-0.106628
0.112445
0.114283
-0.276514
-0.021539
-0.187421
-0.143378
0.018178
-0.090621
0.123554
0.247140
0.012938
-0.088932
-0.313829
-0.164620
0.112469
-0.003485
-0.107174
-0.012736
0.039561
-0.064181
0.041027
0.104943
-0.088108
-0.042526
0.023896
-0.156875
0.085527
0.219924
-0.130268
0.043585
-0.235187
0.067346
-0.091962
0.046695
-0.014688
0.053598
-0.217182
0.290017
-0.117495
0.033163
0.158797
0.291509
0.189007
0.049724
0.170217
-0.019497
-0.183340
-0.158178
-0.216556
-0.229686
-0.103727
0.448903
-0.125347
-0.141411
-0.404785
-0.019047
0.212087
-0.004145
-0.040302
-0.135745
-0.045352
-0.154106
-0.093524
0.023094
0.242378
-0.112901
0.019952
-0.022379
0.034207
0.241911
0.015686
0.087223
0.250600
0.013068
0.064587
0.050216
0.055872
0.057980
0.081549
-0.002060
-0.008234
0.276253
0.147973
-0.064843
0.159400
0.169601
0.201514
0.226356
-0.129132
-0.029224
-0.271904
0.223572
-0.031321
-0.242934
-0.183651
-0.064263
-0.116364
0.098344
-0.154516
-0.037723
-0.014130
-0.069928
0.014938
-0.026007
-0.151647
-0.199976
0.030273
-0.012752
-0.204566
0.047379
0.122078
-0.206580
-0.195572
-0.186724
0.091512
-0.006655
0.016256
0.023932
-0.112799
-0.120612
-0.242310
-0.042974
-0.052833
0.063441
0.145742
0.072324
-0.170336
0.224382
-0.198807
-0.096020
-0.340263
0.146070
-0.029108
0.057518
-0.049473
-0.015702
-0.009700
-0.352848
-0.047054
0.044458
-0.267042
0.162485
-0.070911
-0.107561
0.322411
-0.112139
0.168551
0.024456
0.171038
-0.061260
0.173367
-0.045186
-0.114713
0.014000
-0.195083
0.130329
-0.073559
-0.018144
0.086819
-0.012411
-0.160667
-0.043264
0.133746
-0.036548
0.199846
0.022930
-0.186268
-0.059319
-0.037661
-0.000133
-0.024808
0.027586
0.109738
-0.050068
0.137740
-0.020348
-0.004805
-0.215647
-0.185299
-0.103179
-0.165907
-0.307773
-0.180597
0.029921
-0.032827
0.013163
0.023678
0.104534
-0.048519
0.099124
0.046930
0.422942
-0.319563
-0.095331
0.170569
-0.047201
0.061520
-0.060945
-0.096578
0.024511
0.077403
0.052597
-0.053939
-0.096308
-0.036522
-0.044322
0.161774
-0.319940
0.148327
-0.004299
0.028088
0.176974
0.278024
0.067728
-0.058531
-0.077023
0.397136
-0.111544
0.205767
-0.163798
0.190792
-0.005583
-0.033034
-0.122412
0.060228
-0.127447
-0.191866
0.017582
-0.169248
-0.018591
0.045104
-0.032986
-0.165654
-0.117499
-0.103098
-0.013841
0.018808
0.091843
0.029162
-0.195683
0.098001
0.109260
0.272336
-0.340081
0.043568
-0.014982
0.037212
-0.062098
0.030767
-0.042580
-0.074635
0.143836
-0.192039
0.209424
0.392232
0.077399
0.157804
-0.019555
0.058281
0.025367
0.053152
-0.298576
-0.297723
0.163801
0.067968
-0.039646
-0.184268
-0.189402
0.405010
0.085348
0.117402
0.151140
-0.037316
-0.092619
0.166919
0.084556
0.128892
0.093535
0.133701
-0.014698
0.062567
0.166595
0.117700
-0.194828
-0.103182
-0.092816
0.163676
-0.415362
-0.212934
0.225248
-0.118367
0.171907
-0.096613
0.023813
-0.015263
0.160861
0.108865
0.144102
0.018181
0.108243
-0.216458
-0.077807
-0.025637
-0.053158
-0.087206
-0.180497
0.047180
-0.233642
0.050761
-0.116462
-0.191624
-0.051971
0.382643
-0.023051
-0.205216
-0.045018
0.075988
0.239532
0.243857
-0.009947
0.159531
-0.114699
-0.366884
0.197850
0.052387
-0.158700
0.122256
0.177985
0.060094
0.171548
-0.199768
-0.063957
-0.096330
0.237361
-0.260376
0.011017
-0.151185
-0.214996
-0.229385
0.214079
-0.145767
-0.088193
0.042213
0.010651
-0.069218
-0.090239
0.096542
0.054898
-0.288482
-0.183063
-0.128746
0.198693
-0.211567
0.119897
-0.123129
-0.057250
0.075424
0.147845
0.099846
-0.166093
0.151124
0.039037
-0.156181
0.060253
0.071709
-0.127212
0.054132
0.097822
0.041147
-0.426088
0.060181
-0.033463
0.208009
-0.079697
0.228432
-0.163988
0.226538
0.145773
-0.039720
-0.147012
-0.059090
-0.139852
-0.111392
0.124101
-0.164706
-0.004923
0.188728
0.105795
0.203171
-0.006187
0.127675
-0.094299
0.120729
-0.253576
-0.092906
-0.200145
-0.055047
-0.196859
0.149590
-0.058567
-0.120212
0.182379
-0.197468
0.135221
-0.015567
0.112250
-0.057826
-0.111414
-0.078828
0.020350
0.091583
0.009702
-0.065858
-0.015054
0.377881
0.003007
-0.155506
-0.195899
-0.074615
0.226011
0.025724
-0.218284
-0.047846
-0.048015
0.097719
-0.050273
-0.055736
-0.145754
0.010601
-0.177660
0.110361
-0.136427
0.019755
-0.162671
-0.101136
0.124153
-0.051364
0.144641
0.027664
-0.344361
0.115947
-0.268283
-0.246156
0.125481
-0.108885
0.139981
-0.175109
-0.188559
0.190373
-0.060620
0.188612
-0.018471
0.133683
0.020312
0.271237
-0.042085
0.057928
-0.078418
0.169802
0.182455
0.087066
0.090470
0.109130
-0.218065
0.091375
-0.114365
-0.122814
0.235545
0.244965
0.294611
-0.002457
-0.185644
0.023689
0.087317
-0.030160
-0.092790
-0.064594
0.068125
0.117754
0.033200
0.006741
0.091077
0.119540
0.111675
-0.158128
-0.099115
-0.080044
0.217952
0.073070
-0.014897
-0.060523
0.060967
0.007710
0.255092
0.099107
-0.001289
-0.068257
0.117488
-0.117919
0.119163
-0.072294
-0.011522
0.222177
-0.122439
-0.094236
-0.265220
-0.110804
-0.161135
0.252337
-0.153549
-0.010093
-0.312556
-0.070028
0.079570
0.156694
-0.111826
-0.136806
0.031531
0.017470
0.194341
-0.235547
0.212743
-0.176226
-0.203861
-0.031826
-0.154979
0.201706
-0.156723
-0.142292
-0.264663
-0.266688
0.107444
-0.257370
0.075707
-0.126236
-0.215755
-0.124503
0.139115
0.066283
-0.037640
-0.103922
-0.274313
0.108146
0.062428
0.207611
0.089963
0.016343
-0.060210
-0.050734
-0.048669
-0.114416
-0.195535
0.083851
0.108253
0.112459
0.096945
0.002237
-0.067106
0.255841
-0.118675
0.161519
-0.044174
0.008140
-0.079953
-0.200897
0.071116
0.317631
0.257841
0.053852
-0.195013
0.124466
0.205167
0.053102
0.045503
0.096591
-0.113405
0.047824
0.053520
-0.138605
-0.052934
0.146591
0.205600
0.038731
-0.149570
0.032272
0.335255
0.122868
0.107627
0.059546
-0.075717
0.087664
-0.099441
0.026102
-0.169878
0.025159
-0.116313
-0.317761
0.149449
-0.122350
-0.142041
0.098919
-0.005008
0.222421
0.248003
-0.139912
-0.139062
0.027484
0.096593
0.030670
-0.255498
-0.079831
0.219461
0.310670
0.106820
0.054154
0.251705
-0.022169
0.139274
-0.222753
-0.088644
-0.336340
-0.073740
-0.193404
0.154958
0.012739
-0.164890
0.070205
0.028218
-0.073156
-0.061994
-0.162284
0.044118
-0.058122
0.190037
0.081105
0.120385
0.139213
-0.010658
0.041479
-0.039516
0.067809
0.215796
-0.135213
0.130391
-0.104462
-0.079391
-0.171747
0.099284
0.146871
0.128018
0.146984
0.006309
0.075430
0.228430
-0.058704
0.266404
0.112024
0.075145
0.039966
0.085148
-0.133973
-0.017571
-0.131159
-0.059559
-0.116341
-0.041369
0.100608
0.252055
-0.038960
-0.218929
0.232042
-0.126706
0.220907
0.059923
-0.027451
-0.117792
0.213196
0.071472
0.109803
0.170192
0.200658
-0.022567
-0.122207
-0.072873
0.188572
0.209885
-0.231941
-0.167539
0.028247
-0.188879
0.087849
-0.232359
-0.182584
0.116498
-0.055565
0.043778
0.034878
0.153967
-0.074850
0.051656
-0.084456
0.121781
-0.050401
-0.009989
-0.082891
0.137301
-0.107450
-0.121984
-0.209092
-0.051197
-0.090147
-0.123030
0.008702
-0.127556
-0.293701
-0.235016
-0.228551
0.250927
0.126297
0.085658
-0.070265
0.122010
-0.018045
-0.187467
0.097253
0.045697
0.042833
0.169029
-0.256054
0.109270
0.117080
0.148599
0.184421
-0.200969
0.035353
-0.165958
-0.083632
0.035764
0.251198
0.087543
0.190813
-0.196367
-0.080305
0.052793
-0.072718
0.048970
-0.028871
-0.017844
-0.133746
0.250884
-0.137149
0.155038
0.025247
-0.119839
-0.038255
0.012128
0.088557
-0.253082
0.004563
-0.119559
0.141981
-0.018646
0.051804
-0.087445
0.057769
-0.144413
0.174680
-0.209387
0.151109
0.275367
-0.077689
-0.118985
0.112248
0.161690
0.036545
-0.059336
0.112549
-0.093415
0.224812
0.126759
-0.068696
-0.004920
0.189996
-0.236436
0.104360
-0.036731
-0.090749
0.187649
0.261005
-0.259543
0.067639
0.084518
0.077919
-0.087666
-0.132911
-0.093810
0.187973
-0.062403
0.251979
0.099485
0.138811
-0.117645
0.131356
-0.114023
-0.076919
0.054055
0.228954
0.023762
0.084838
-0.070107
0.149128
0.157537
0.122217
0.096335
-0.181901
-0.054499
-0.110157
0.084974
-0.207511
-0.101169
-0.046048
-0.185848
0.086651
-0.233075
-0.208777
0.142589
0.221513
-0.162154
0.159030
0.048385
-0.016374
-0.022935
0.274315
-0.115332
0.040655
-0.040931
-0.090194
-0.016254
-0.098173
0.117673
-0.238239
0.284926
0.006040
0.113802
0.056594
0.054723
-0.014209
-0.193685
-0.019652
-0.266957
-0.190210
-0.003012
0.058218
-0.119911
0.054527
-0.156828
-0.146924
-0.013240
0.128922
-0.017391
0.045918
-0.109943
-0.243684
0.095779
-0.142955
-0.047551
-0.056137
0.006901
-0.038869
-0.146963
0.007813
-0.082649
-0.032778
-0.200993
0.103396
-0.110738
0.002981
0.049203
-0.262966
0.241575
0.280099
0.090501
-0.002056
0.276851
0.249733
-0.040387
-0.308795
-0.038574
0.098428
-0.240557
0.068076
0.187221
0.105735
-0.246910
-0.162660
0.054526
0.207596
0.193673
-0.015986
-0.122790
-0.114004
0.102467
-0.225025
0.139981
-0.075896
-0.072886
0.111862
0.177104
-0.189132
0.111691
0.102214
-0.078351
-0.158391
0.199449
-0.025889
-0.043124
0.076200
0.053588
-0.065136
-0.157677
-0.081248
0.114778
0.150581
-0.030474
-0.006361
-0.031732
-0.228467
0.183636
-0.096079
-0.202138
-0.102008
0.004382
0.051547
-0.202516
-0.192830
-0.200965
-0.131607
0.028051
-0.173566
0.026017
0.063499
-0.077559
-0.186978
-0.109141
0.067519
-0.302608
-0.157730
0.223499
-0.041617
0.320959
0.176693
-0.009366
0.004198
-0.202119
0.103187
-0.063123
0.140887
-0.125846
-0.024595
0.082665
0.186318
0.046393
0.186815
-0.135586
0.026511
0.019834
-0.068625
-0.056291
-0.020963
0.066513
-0.063585
0.317429
0.061022
0.277415
0.010325
-0.185822
-0.013823
0.045606
-0.089434
0.068445
-0.296894
0.066468
-0.009521
0.109067
0.313772
-0.087961
0.109920
-0.140693
-0.100644
0.117566
-0.032276
-0.125161
0.190239
0.041201
-0.062181
0.085052
0.236944
-0.175319
0.145514
0.272773
0.012450
-0.150572
-0.042941
0.052458
0.289887
-0.158146
0.109204
-0.203662
-0.027126
-0.280706
-0.136861
-0.216341
0.244326
-0.050516
0.191075
0.041489
0.035921
0.044425
0.317127
-0.129890
-0.201490
-0.136808
-0.180460
0.012110
0.128928
-0.079073
0.367564
-0.136738
0.078812
0.249402
0.138391
-0.023612
-0.159407
0.161942
0.214703
-0.163255
-0.046777
-0.120367
0.116688
0.058237
0.133006
0.006720
-0.171655
-0.056029
-0.049681
-0.127552
-0.288558
0.010806
-0.122946
-0.209892
-0.106712
-0.017328
-0.008204
0.200951
0.079636
-0.259721
0.210638
0.230958
0.043951
-0.139254
0.131880
-0.260432
0.098884
0.228984
0.117635
0.169388
0.072218
0.031936
0.035725
0.173438
0.013301
-0.202855
-0.106210
-0.282456
0.064258
-0.170949
0.207619
-0.145039
0.370017
-0.009744
-0.209563
-0.175525
-0.172038
-0.005565
0.160040
-0.073728
-0.175898
0.069157
-0.006248
-0.057840
-0.068724
-0.048610
0.106342
0.197916
-0.046711
-0.051171
0.137352
0.256791
0.037262
-0.196343
-0.050513
-0.149439
-0.105480
0.199562
-0.049709
0.333386
-0.085552
-0.265095
0.117909
-0.137096
-0.106957
0.205272
-0.089532
-0.018284
0.006669
-0.156391
-0.175713
-0.168885
-0.307102
-0.055888
-0.122280
-0.053237
0.250273
-0.143489
-0.238081
-0.158140
0.213135
0.007989
0.107896
-0.104953
-0.182634
0.189111
0.234077
0.268115
0.054340
0.043531
-0.037287
0.089864
0.201020
-0.119361
0.049898
0.204928
-0.183446
0.110483
-0.160556
-0.157827
-0.134592
0.253080
0.106514
0.172404
0.116923
-0.154378
-0.043765
0.064577
0.066380
-0.005529
0.233184
-0.333838
0.210046
-0.098311
0.109955
-0.074824
-0.152482
-0.093227
-0.112372
-0.009942
-0.270796
0.411355
-0.243713
0.011048
-0.172279
-0.166942
0.050818
0.184534
-0.001852
0.022174
0.407436
0.357398
-0.454166
-0.189004
-0.011517
0.083832
-0.299170
-0.055008
-0.086261
0.084254
0.257300
-0.396503
-0.153200
-0.066330
0.050319
0.122761
-0.091935
-0.013744
0.127481
-0.095435
-0.117089
-0.255938
0.019239
0.037949
0.127446
-0.135036
-0.288983
0.160368
-0.296367
0.284088
-0.068038
-0.086299
-0.208910
-0.173588
-0.117773
-0.087870
0.130983
-0.083915
0.008553
-0.029225
-0.110314
0.067426
-0.154837
-0.004862
0.020783
0.129520
-0.068670
-0.248168
-0.309959
0.029074
0.044314
0.151161
0.021972
0.190591
-0.104980
0.067843
0.128467
0.004652
-0.131638
0.008338
-0.101026
-0.155229
0.161623
0.049796
0.102539
-0.169623
0.290684
0.128371
-0.056990
-0.029168
-0.058944
0.180560
-0.262802
-0.070306
-0.173620
0.149830
0.063663
0.054519
-0.092220
0.065701
-0.034483
0.237127
0.100956
0.385172
0.091712
0.016838
0.114521
-0.185640
-0.022642
0.067609
-0.051207
0.116619
0.013553
0.194809
0.150348
0.023471
0.169692
0.074175
-0.162377
-0.139282
0.033360
-0.056727
-0.303873
-0.216217
-0.105546
-0.017251
-0.138027
0.022951
-0.065527
-0.265761
-0.060110
-0.206695
-0.158455
0.107848
0.084089
-0.157565
0.166207
-0.086586
0.195951
-0.173634
-0.085673
-0.255748
0.033831
-0.044443
-0.072690
0.033284
0.136272
0.181801
-0.028762
-0.006149
-0.182208
0.004173
-0.005669
-0.002069
0.350665
-0.015483
-0.247949
-0.186270
-0.016310
-0.213412
-0.132284
-0.184790
0.131976
0.023321
0.014638
-0.227624
-0.189187
0.056414
-0.001801
0.064589
-0.064321
0.180486
-0.096897
0.033645
-0.092214
0.028047
0.079546
-0.049253
0.181022
-0.018431
-0.204823
0.339699
-0.054001
-0.200409
0.152442
-0.000700
-0.010926
0.076669
-0.077237
-0.108442
-0.067941
0.031007
0.019018
-0.025045
-0.048552
-0.051497
-0.017475
-0.116243
-0.154758
-0.108063
0.014757
-0.193532
0.018807
0.176676
-0.067627
0.108718
0.239315
-0.228154
0.241967
-0.184782
-0.120956
-0.041852
0.268420
-0.208591
0.009298
-0.108010
-0.284819
0.318473
0.154462
-0.240765
0.068915
0.107140
-0.263066
-0.152857
-0.105639
-0.120532
-0.071620
0.026948
-0.079534
-0.044319
-0.215256
0.160059
-0.043284
0.216014
0.038408
-0.277716
0.150200
-0.019460
-0.088839
-0.058081
-0.050344
-0.203630
-0.024429
0.164432
-0.179933
-0.052047
-0.249324
-0.129004
0.269267
0.144992
0.050732
-0.140627
-0.050622
-0.179234
0.207866
0.245549
0.044970
-0.067126
-0.212557
0.390684
-0.035292
-0.194574
0.015549
0.248596
-0.124035
0.005721
-0.043623
0.250838
-0.136245
-0.129377
0.048071
0.093670
0.072526
0.022459
-0.161901
0.040434
-0.340599
0.068851
0.049816
0.256804
-0.266089
0.167325
0.159829
-0.161551
0.112191
-0.066642
0.002214
-0.082186
0.296877
-0.024289
-0.114833
0.145202
-0.035263
0.392550
0.129684
0.064019
0.132169
0.078798
-0.062053
0.141521
0.004318
0.052493
0.174804
0.094243
0.056160
0.172741
-0.220877
-0.050952
-0.059356
0.051726
0.317703
-0.283239
0.132328
-0.039040
-0.149732
-0.175056
-0.027395
0.118008
0.085055
-0.063924
-0.095896
0.020712
-0.082692
0.019997
0.217209
0.113878
-0.184166
-0.065432
0.157043
-0.148991
-0.087520
-0.076759
-0.059698
0.141972
0.090794
0.028797
0.129118
0.249614
0.055677
0.005655
0.106225
0.018301
0.013486
0.090541
-0.156708
-0.244631
0.032056
-0.166788
-0.231333
-0.012554
0.046160
0.292923
-0.068221
0.027129
0.204787
0.129354
-0.048235
-0.009679
-0.098863
0.088359
0.011040
0.137447
0.072226
0.147125
-0.014498
0.291074
-0.115949
0.002446
0.055459
0.056710
-0.042151
0.052750
-0.000929
0.065757
-0.208395
0.066123
-0.117206
0.079743
-0.061692
0.392796
-0.048874
-0.139315
0.030322
0.157206
0.270015
-0.020561
-0.434162
-0.030661
-0.141567
-0.146099
-0.158872
-0.236057
-0.150322
-0.039015
-0.090993
-0.023287
-0.133732
-0.072239
-0.101005
0.257001
0.151471
-0.320886
-0.149264
0.347374
-0.052472
0.039924
-0.288183
-0.263397
-0.173667
0.109044
0.171097
-0.284901
-0.160751
0.163587
-0.146960
-0.099097
0.174184
-0.120013
0.035880
-0.143893
0.104445
-0.051945
-0.190795
-0.128369
-0.051873
0.049119
0.083377
0.259684
0.136177
0.143163
0.120464
-0.067661
0.029275
0.036812
0.251138
-0.080094
0.156230
-0.242712
-0.404477
-0.068684
-0.044941
-0.044719
0.103810
-0.072476
0.016686
-0.141258
0.230403
-0.083141
0.029487
-0.240990
-0.260882
0.089716
-0.034380
-0.036851
-0.049456
0.044782
-0.213075
-0.215140
-0.005560
0.090507
0.020711
0.084082
0.110053
-0.086357
-0.067296
0.252570
-0.161638
-0.135842
0.093175
-0.189666
0.074026
-0.112573
-0.002635
0.008015
0.046793
-0.156817
0.037439
0.193581
-0.143962
0.014173
0.179412
0.192037
0.137038
-0.005147
0.107193
-0.014621
0.099626
0.022945
0.196480
0.022412
0.104144
-0.142209
-0.190718
-0.010101
0.028867
-0.103274
-0.013475
-0.053024
-0.038196
-0.139735
0.007929
-0.212095
0.030139
0.023263
-0.017619
-0.003099
0.124180
-0.153061
-0.126609
-0.135866
-0.029037
-0.198342
-0.244917
-0.037507
-0.090589
0.091388
-0.090988
-0.358165
-0.028337
-0.185790
0.024030
-0.144547
-0.120304
-0.285345
0.173579
0.065596
0.029532
-0.134011
0.034411
-0.043590
-0.107203
-0.031044
0.065396
0.091644
0.231825
-0.033019
-0.184143
-0.140769
0.046543
0.212314
0.137410
0.043413
-0.018471
0.101944
-0.107071
-0.264882
0.018630
0.160113
0.016598
0.115899
0.111948
-0.123967
-0.100059
0.041727
-0.037909
0.184564
0.219626
-0.061746
-0.240688
0.114965
0.195706
-0.029583
-0.217172
-0.050273
-0.008960
-0.228377
-0.166352
0.100874
0.071636
0.077474
-0.014010
-0.136913
0.213880
-0.085208
-0.064052
-0.003347
-0.044322
-0.283137
-0.221054
0.297951
0.115409
0.343803
0.074538
-0.021446
0.323114
0.177305
0.049709
0.121367
-0.196729
-0.076614
0.063977
-0.155273
0.255609
-0.279847
-0.002496
0.113195
-0.180008
-0.142307
0.105715
0.024922
0.065603
-0.158555
-0.245538
-0.036970
0.080278
-0.129380
-0.101996
-0.124186
0.147242
0.101247
0.138621
-0.099125
0.053740
0.125233
0.140623
0.224244
-0.141247
0.159568
0.064957
0.190490
-0.034217
0.046764
0.085180
-0.042452
-0.007623
0.050586
0.189509
0.234702
-0.001863
0.311039
0.165829
-0.184738
0.075197
0.175901
-0.161182
-0.008613
0.134228
-0.012521
-0.022458
0.124243
-0.114872
-0.119596
-0.157288
-0.082420
-0.025379
0.305338
-0.049971
0.199270
0.024137
0.222738
0.167229
-0.144696
0.115601
-0.080262
0.095718
0.204283
-0.057713
-0.015618
-0.241470
-0.189587
-0.027872
-0.012142
-0.166584
0.068008
0.176268
0.004223
-0.037908
-0.134080
0.055692
-0.149154
0.043451
0.152673
0.092594
-0.107235
0.137672
-0.172866
0.141613
-0.043765
-0.354384
0.130111
-0.279176
0.107278
-0.265945
0.152926
-0.095822
-0.066652
-0.121996
-0.136386
-0.007063
0.194261
-0.117711
-0.036347
-0.182783
0.112006
0.034844
0.033534
-0.070546
0.087458
-0.023725
0.215841
0.097396
0.094491
-0.132881
0.009697
-0.192375
-0.214405
0.015290
-0.073351
-0.140262
-0.213411
-0.218932
-0.087944
-0.186803
-0.096866
-0.049089
-0.229473
0.203652
0.205184
-0.013336
0.196667
0.251357
-0.201784
-0.212368
0.043442
-0.032303
-0.222802
-0.123935
0.018263
0.046907
0.244328
-0.016805
0.137396
0.106734
0.226222
0.266952
-0.204459
0.269481
-0.220180
-0.140214
0.019301
0.044012
0.222376
-0.032993
0.246877
0.165539
0.003714
-0.100070
0.165656
0.266470
-0.055882
-0.211911
-0.028264
0.047118
-0.149059
-0.220335
-0.008007
0.146994
-0.230603
-0.256082
0.071741
-0.164804
0.272601
0.160727
0.112273
0.099673
0.101040
-0.303763
-0.150729
-0.053149
0.112888
-0.017393
-0.039652
-0.216306
-0.050989
0.262804
-0.114173
0.021397
0.197190
0.138509
0.126061
-0.045766
0.076880
-0.168231
-0.035207
0.035801
0.054830
0.097156
0.200369
0.105461
-0.007601
0.166340
0.048752
-0.058291
-0.363712
0.028773
0.055463
-0.179665
-0.273650
-0.171844
-0.024824
0.129265
0.052777
0.187991
0.154508
0.167246
0.046754
0.027965
-0.125905
-0.102792
-0.054787
0.244263
0.204489
0.067854
0.122217
-0.011823
0.304982
-0.070702
0.088377
0.068548
-0.010945
-0.114867
-0.094057
-0.010214
0.133386
-0.239776
-0.118485
0.097193
-0.165861
-0.268449
0.029805
0.171359
-0.182923
-0.153270
-0.124707
0.196379
-0.074759
0.030626
0.043793
0.174390
-0.043683
-0.013230
0.216265
-0.022579
-0.026787
-0.221653
-0.115122
-0.257120
-0.099458
0.332955
0.193593
0.015081
-0.099622
-0.050757
-0.093069
0.307275
0.084670
0.181264
-0.052204
-0.116450
-0.071436
0.211726
0.014378
-0.081983
-0.022009
0.140215
-0.087324
-0.193506
-0.138232
0.271061
-0.152078
0.034284
-0.107645
-0.207247
-0.256762
0.049566
0.166605
-0.065801
0.048215
0.010987
-0.038441
0.234340
-0.167730
-0.051442
0.232832
-0.159808
0.085577
0.321351
-0.016997
0.049259
-0.366759
-0.051076
-0.074350
0.254176
-0.073882
-0.057784
0.150724
-0.141693
-0.014757
-0.179532
0.134688
-0.049915
-0.211907
-0.042447
-0.022562
0.087371
-0.265765
-0.090327
0.003162
0.080182
0.053653
0.085264
-0.459810
-0.236847
-0.067421
0.101527
-0.206186
-0.243716
0.178384
0.087463
0.056105
0.150364
-0.050149
-0.182414
0.115986
-0.321156
0.018089
-0.113870
0.003698
0.129219
0.055725
0.109851
0.006562
0.162011
-0.158506
0.007633
0.026759
-0.145223
-0.394817
-0.144219
-0.381817
0.109401
-0.096986
-0.336788
0.003557
-0.126264
0.047707
0.044051
-0.183432
0.375486
-0.119359
0.053646
0.036371
-0.105078
0.121867
-0.089496
0.131597
-0.353688
-0.170353
0.087296
-0.265946
0.068338
0.097619
-0.074321
0.294320
0.128369
0.050290
0.418348
-0.010785
-0.096401
-0.221819
-0.044452
-0.201926
0.014127
-0.000958
0.007434
-0.047924
0.119469
0.435223
-0.022388
-0.023561
-0.145854
0.003794
-0.230221
0.017530
-0.038305
-0.274226
0.121911
0.164485
0.115890
0.037128
-0.090132
-0.100266
-0.193010
0.118014
0.058744
-0.244483
-0.134426
-0.180225
-0.174343
0.055308
-0.049008
-0.031684
0.202579
0.279943
-0.034344
0.029319
-0.102830
-0.004895
-0.002088
-0.093775
-0.008972
-0.069234
0.033115
-0.132133
0.070479
0.252116
-0.029687
-0.278728
-0.049554
0.183882
-0.091631
0.070300
-0.364733
0.085325
-0.189501
0.327028
-0.037699
0.102365
-0.210592
-0.030402
-0.223311
-0.014557
-0.121239
0.124831
0.196465
-0.071643
-0.170852
0.125246
-0.030074
-0.018789
-0.080623
-0.212116
0.405218
0.139466
-0.082110
0.083048
-0.007876
0.323893
0.194111
0.181677
0.240200
0.101948
0.119208
0.052494
0.259433
-0.330367
-0.086623
-0.048752
0.119653
0.023303
0.241506
0.188535
-0.040859
0.104022
0.191992
-0.048124
-0.201361
0.047073
0.018037
-0.104536
-0.152196
0.010255
0.189451
-0.122435
-0.205094
-0.101064
0.266463
0.271312
0.243513
-0.288307
0.192375
-0.229966
0.081562
-0.203276
-0.035311
-0.235480
-0.032062
0.255654
-0.186608
0.228333
-0.043436
-0.239555
-0.075260
0.144537
-0.087035
0.108674
-0.084307
-0.260461
0.148862
-0.173289
0.055474
-0.050199
-0.065885
0.023334
0.049617
-0.035660
-0.226877
-0.187147
-0.158261
0.048681
-0.104867
0.027429
-0.114743
-0.329455
-0.277942
0.099291
-0.200552
0.035866
0.331852
-0.132584
-0.141503
0.017963
-0.122422
0.111210
-0.053568
-0.002543
0.035253
0.070538
-0.122315
0.145458
0.043744
0.039393
0.040067
0.228517
0.302305
-0.175130
0.213762
-0.215945
0.056464
0.175221
0.131185
0.232544
-0.132821
0.178074
-0.078311
-0.019968
0.024595
0.244688
0.003080
-0.134584
0.200744
-0.056224
-0.031375
-0.261734
-0.198047
-0.002602
-0.133454
-0.151909
0.010071
0.167611
-0.176975
-0.287768
-0.067134
0.009709
-0.078257
-0.133848
-0.286416
0.061493
-0.202997
0.119938
0.105789
-0.049327
-0.007080
-0.114956
0.115556
0.113070
-0.062486
0.192804
-0.112688
-0.042885
-0.169515
-0.254081
0.182046
0.022773
0.158913
0.098122
0.065263
-0.050985
-0.057962
0.206169
0.204031
0.106454
0.066564
0.026163
0.036562
0.130939
0.032112
0.026268
0.078144
0.061554
0.048003
-0.076002
0.040446
0.095849
0.160112
-0.316270
-0.207569
0.141451
0.169632
-0.011199
0.068645
-0.023300
0.168834
-0.062174
0.119581
-0.096525
0.090360
0.071414
-0.072012
-0.107514
-0.027151
0.049309
0.092127
0.265902
0.068996
-0.050411
0.054751
-0.154018
0.242842
0.060323
-0.102734
0.037983
0.141656
-0.027278
0.005823
0.133630
-0.197250
-0.034580
-0.028188
0.001732
0.081168
-0.121295
-0.210494
-0.045800
0.059467
-0.110048
-0.110243
0.086642
0.220819
0.098285
0.090306
-0.105664
-0.151771
-0.138730
0.093657
0.179932
-0.135451
-0.124766
0.164860
0.025077
-0.212506
0.149720
-0.111396
0.012541
0.036986
0.074157
-0.252097
-0.079066
0.188843
0.118909
-0.001794
-0.178273
-0.032045
-0.221059
-0.056560
0.036768
-0.191844
0.143673
0.000292
-0.158620
-0.322520
-0.062297
0.028958
0.061457
-0.054758
-0.266021
0.064117
0.202834
-0.002509
0.207623
-0.104669
0.134471
0.063055
0.166823
0.016778
-0.045327
-0.237236
0.163394
0.021276
-0.185775
-0.142018
0.054398
-0.002585
-0.381071
-0.222821
-0.185020
0.235175
-0.011429
-0.081968
0.211739
-0.073259
0.060220
-0.066577
-0.087613
0.193443
0.138043
0.206790
-0.131634
-0.292749
0.220009
0.214732
-0.160509
0.228852
0.175271
-0.073743
0.115062
-0.017029
0.010271
-0.098142
0.244366
-0.064983
-0.073096
0.087909
0.088654
0.109529
0.116297
-0.011539
-0.128519
0.005451
-0.124299
-0.085720
-0.029264
-0.134115
-0.010585
0.038826
-0.123164
-0.087797
-0.107266
0.100461
-0.002024
0.056382
0.016098
0.168256
-0.024000
0.039228
0.227336
-0.117922
0.033979
-0.064998
0.057076
-0.012332
0.063384
-0.158284
0.288767
0.209864
0.209111
-0.175266
-0.192331
-0.179427
0.041858
-0.150504
-0.100285
0.125367
-0.231828
-0.055709
0.034435
0.172180
-0.029738
0.027618
0.132891
-0.030756
-0.074937
0.317715
0.218034
0.088705
-0.092217
-0.005180
0.077244
-0.028174
0.059704
-0.004435
0.115470
-0.033200
0.232682
-0.101766
0.209065
0.115305
0.146035
-0.274619
0.146290
-0.089211
0.082885
0.104601
-0.318471
0.082791
-0.194412
-0.208337
0.160465
0.079829
0.300296
0.007537
0.052003
0.175875
0.075332
-0.228822
-0.288671
0.200561
-0.131250
-0.235856
0.099169
-0.039923
0.088311
-0.017438
0.325762
0.158076
0.170654
-0.120136
-0.354214
0.101621
-0.144550
0.006664
-0.034262
0.040363
-0.125200
0.256507
-0.002935
0.003482
-0.071074
0.032492
-0.274979
0.238499
0.142053
-0.015005
-0.051475
-0.066399
-0.280236
0.043911
-0.120104
-0.150347
0.006901
0.101531
0.221293
-0.038095
0.089041
0.022487
0.283374
-0.041327
0.037421
-0.286036
-0.042355
0.019471
0.174408
-0.055119
-0.157002
-0.050838
-0.037949
0.029800
0.172122
-0.062672
0.019425
0.258397
-0.038024
0.001387
0.160277
0.088517
-0.134263
0.436440
-0.173840
-0.271892
0.100253
0.046961
0.090938
0.171667
-0.092810
-0.063067
0.117488
-0.068942
0.128079
0.200669
-0.000218
0.107957
-0.308222
0.331255
0.005488
-0.320669
0.295395
0.126176
0.155767
0.048539
0.014191
-0.111189
0.006353
0.442435
-0.122032
-0.053520
-0.243517
-0.283234
-0.338320
0.168831
0.066166
0.188469
-0.125072
-0.366062
0.288921
0.060583
0.112704
0.129520
-0.184280
-0.068129
-0.015903
-0.239945
0.036109
-0.119115
0.005089
0.186794
-0.196941
0.049258
0.029636
-0.017183
0.139114
-0.023376
0.098492
-0.199942
-0.385901
0.048464
0.216292
0.392597
-0.094653
0.067104
0.118114
0.062387
-0.162271
-0.039298
0.192150
-0.023432
-0.173891
-0.322854
-0.142243
0.034357
0.002738
-0.060414
0.135841
-0.320707
-0.006575
0.090663
0.227665
-0.126816
0.145085
0.223327
-0.046784
-0.131182
-0.047797
0.070345
0.042944
0.199733
0.143954
-0.193209
-0.029613
0.013808
0.111895
0.058485
-0.303694
-0.127467
-0.062933
-0.112163
0.108941
-0.064293
0.116352
0.266362
-0.034571
0.088181
-0.147604
0.172492
-0.208009
-0.236357
-0.040885
-0.103437
-0.084501
-0.158392
-0.051320
-0.070847
0.298595
-0.237341
-0.019643
-0.192594
0.123596
-0.102675
0.214457
0.140079
-0.057098
0.092674
0.061517
-0.010683
0.039102
-0.074495
-0.194546
-0.041953
-0.137744
-0.046648
0.126321
-0.193054
0.234513
0.016517
-0.007023
-0.005652
-0.185204
-0.049384
-0.086774
-0.129559
-0.071609
-0.071053
0.121136
0.042785
0.165131
-0.127062
0.110007
0.113817
0.117858
-0.205001
-0.032591
0.131063
-0.288574
-0.160540
0.002933
-0.062243
0.125822
-0.095949
0.041584
0.230284
