-0.070649
0.083172
0.093112
-0.095862
-0.027927
-0.018845
-0.001977
0.020270
0.012995
-0.026052
0.053393
0.058120
-0.125178
-0.028272
-0.075192
0.001400
0.089579
0.107920
0.031053
0.048697
-0.111152
-0.069999
-0.107344
-0.008702
-0.009861
-0.081849
0.045918
0.024084
-0.033800
0.008704
-0.031926
-0.053143
0.024900
-0.073883
-0.003238
-0.125323
-0.019295
-0.049108
-0.048984
0.009932
0.027747
-0.018426
0.080399
-0.100811
0.021397
-0.048933
0.104788
0.094430
-0.043771
-0.016706
-0.008683
0.044962
0.155133
0.000190
0.035242
0.058762
0.004986
0.094522
-0.000648
-0.042523
-0.064124
-0.005815
0.034846
0.015823
0.134426
-0.105908
-0.005106
0.004380
-0.064462
0.032998
0.037493
-0.068681
-0.102584
0.075211
-0.044959
0.030260
0.118976
-0.011213
0.050501
0.034095
-0.112910
0.090048
0.085256
0.026118
-0.035076
-0.073799
-0.111867
0.013095
0.062920
0.122676
0.026083
-0.050958
-0.021237
0.008239
-0.087182
-0.049911
0.098846
0.062706
-0.039952
0.082007
-0.118870
0.017054
-0.072952
0.134608
0.020259
-0.027626
-0.055688
0.111346
-0.073861
-0.027980
-0.153523
-0.051839
0.048401
0.140619
0.051435
0.001718
-0.042553
0.100875
0.057315
0.029144
